spaghettisauc 5.26611724412 13.1506083585 0.620423345967 2.27275208223 -0.00113059609735 9.42812178542 -8.03763577619 5.63376345117 -1.2729676802 1.74445510552 -2.70356570163 4.7218133928 -3.26536444022 2.63982819461 -1.92023643257 4.00002400547 -2.99438162229 0.823553744371 -3.16147775538 3.29856317091 0.0852901689744 -0.135934759472 -1.34298189033 2.34539262407 -1.30601855105 -0.314138811563 0.676381235615 -1.25368457965 1.37979384634 0.307502929372 1.86381936966 -0.675519740024 0.969960571464 -5.36463298857 1.6473058432 -1.04000933042 0.147280368338 -2.00859807147 1.41529262649 0.855447800588 -0.0708010635931 0.261943300102 1.09677076357 -0.129207268947 0.131201544422 -1.36996270264 -0.59474748257 0.486886408342 -1.09465499117 -0.869127870544
broccolifloret 7.03491803814 -1.07726823801 -4.31786719848 5.20227922989 -6.79069384661 2.83096606038 0.240134614631 -2.47766556171 2.84663078329 2.18456596986 1.54327025246 0.425194313051 1.67899092231 -1.99544814754 -0.213315261744 -0.658664048506 0.54569703354 1.70545760552 2.83710112426 -1.10780171369 -1.23624621771 -0.145160445657 1.36091877991 -1.13339781994 0.66587381001 -0.40370498199 -0.0981887856115 1.62055459473 0.428509772357 2.90542730413 -0.136061001684 -1.19574377849 1.63582413251 -0.99454975121 1.00601068239 -1.45196058241 -1.76030316884 -0.624332029161 -0.50539219034 -0.644403836411 0.00584113869647 -0.672217709598 -0.186135877082 -0.721802185132 -0.3270670062 0.683842776043 0.94794108741 0.131045252659 -0.587377899647 -0.686610866477
frozenspinach 4.03299280296 8.09209903729 -1.74703746574 3.97967562524 -1.23269626985 3.7552459179 -3.42835398753 1.73401945611 0.332401761442 0.149365362978 1.42359920546 4.1922123913 -3.20320047341 1.52616781704 -0.705052125045 -0.591007651242 -3.28441342705 0.347673694533 -1.86269070425 2.29822033263 -0.512629573279 -2.34606779175 1.31233397509 3.41251803001 -0.755340477968 -0.580670089703 -0.708828631439 -0.44328852037 -0.806380282539 0.0107574503835 1.67721201235 2.03217448404 1.28610981498 -0.618208741918 -0.531148893504 -1.40368035738 2.24645471068 -0.772248433887 -0.010931739385 -1.68358664165 -0.535641467369 0.411540237276 2.97376448175 0.230493799038 0.811009869954 -1.52888781483 -0.541576606435 -1.50551870742 -1.60213689115 0.0213281241235
mayonnais 5.56391073103 1.6866518447 4.08624123656 -1.94161444709 -8.93733260596 -6.68803780622 4.27524928753 5.70815654948 0.422469711081 -3.0494164053 2.80918380969 0.620785225393 -0.356323112671 0.560253796874 -2.12037585345 1.52854964145 0.191031793183 0.64206088508 -3.81388699894 -0.458633473005 1.26744176143 -0.590227680798 1.01616807235 -0.118184638906 -0.911615396557 -1.30119476765 0.776737245522 0.687146742782 -0.909334714593 -0.381269833185 -1.53618564739 0.524952783485 0.268170116846 -0.194546294532 0.404037868175 -0.0633977517428 0.599903036294 0.228279148108 -0.304554756991 -0.167461229225 0.00253719827573 0.393504611779 0.259131560446 0.570691432672 -0.85828000916 0.0552536450952 0.0508356571494 1.10019057576 0.235848538363 -1.06083324613
parmesan 5.16695072523 5.10763299975 -7.04330281815 1.26887357486 -0.52216140662 2.73542845157 1.98651508744 1.68940260703 0.323935878983 -0.93977448616 0.937824214235 0.135113191482 -1.82008822681 0.77242507981 1.07121049357 0.656840778136 -2.3639210694 -0.0659994792375 -0.520257978583 -0.000776720604333 0.686800900094 0.703200706609 0.0991214334949 0.834318429554 2.06737436648 -0.242028036492 0.628724826787 -0.350632465752 1.01195081482 -0.802481667032 0.560434910065 0.932655634895 -0.277600060404 0.80914467817 0.970770569253 0.735103107358 0.609990127933 0.217154971483 -0.665041209782 -0.665558004006 0.37794591556 -0.177439633997 1.20829105697 -0.00689996698509 -0.233163109733 0.743933496496 -0.248679886771 -0.202889734636 -0.12853746341 0.681007076326
seasalt 4.3144061316 -4.55576555835 -5.83804790234 -2.46770770121 3.25747801844 -3.41772129218 0.625079074032 -0.827891892323 1.3031016188 -0.795296575151 -0.037823443745 -0.48791207955 1.14822553956 0.698349255685 0.337728782174 1.77336658198 1.20866803732 -0.0124019906387 -1.97754818758 1.44674369897 0.258227902943 -1.01931556478 -0.087648573223 -0.336839904636 -0.516728292178 1.16536761341 1.21930827254 1.19110734584 2.1611132582 -1.26621457281 1.44415635138 -2.13168947211 -0.990684925959 -0.549596206069 -0.159325156347 0.422340210953 0.760249963858 -1.13276205702 1.76316317542 -1.3720354802 -1.21092719536 -1.79915559484 -1.19500680994 -0.163847695135 1.01211108608 -0.669260481554 -0.99154138026 -0.891586019821 -0.696073147794 -1.09144262643
shreddedmozzarellachees 7.32414785885 11.2089685635 -2.25569751676 2.61653013416 -2.31298206225 3.40082175024 -10.5975794507 0.399537334722 -1.31490944486 3.7844024996 0.412735627964 5.11624346023 -1.37348553863 2.62055996497 -2.59413511397 1.83178881097 0.126513546523 -3.06777502879 -5.25103399979 -1.62540590511 -4.97480829587 -1.23816753227 -1.57461906297 3.93623245329 5.09172962894 1.23031031741 -2.23685581872 -0.105147319723 -7.34554919632 2.23181812903 -7.47396218659 -2.84093574793 -3.81926232685 5.83534812786 -1.06438992159 2.42671692634 -5.23109116887 0.336023871916 0.417521972677 0.690675613736 -5.49918210972 1.32177576499 -5.16726012968 -4.27086436032 2.81430639996 -2.94380126128 4.31246688389 -3.49932626085 1.24019693382 -2.10181144027
redonion 9.08299058019 -4.9165902694 -3.33671557805 4.9834063648 0.673607097756 -7.52205188522 -1.12725783165 3.83597429071 0.86037671935 -1.87701183038 -0.516308291149 -2.50668602255 0.827112247379 0.759401864759 -0.232806144734 2.26416550567 2.75038022661 -0.013793278066 0.30813990894 1.17250251339 -0.543631563148 -0.661408910935 -0.708263037598 -2.03528871207 0.0497585094062 -0.160823191149 -1.12560394061 0.456908363932 0.105417561346 0.272795441779 0.202782291096 0.591490141983 -0.402151623619 -0.799698232534 0.406857671174 0.195711492875 0.134565035818 0.0915523318986 -0.603790087285 0.0117479367939 0.00392552844418 -0.861920437909 -0.351753284758 0.620725558057 0.528033871857 0.0699322230932 -0.14159730727 -0.944236997688 -0.22784900174 0.145850951377
milk -7.57915123533 4.49472322395 1.1785938391 -0.165159804121 -0.604996964175 1.61373372573 2.24928503797 -0.30797999203 0.879266675216 -1.63910877055 0.829985920724 0.0441766715298 0.271848040211 1.24738282848 1.0093549464 -0.496294462 0.618386667075 -0.944902497277 0.145150062463 -0.158374710585 -0.446138827583 -0.00118964282151 -0.897139937752 -0.484009304731 0.545132716682 -0.0828858684635 0.128084661677 -0.0729504032365 -0.385598177375 -0.312159091235 0.227072375376 0.29651445089 0.107904003954 -0.449146035227 0.662436761543 0.0407562574566 0.106981851107 -0.00649515464668 -0.378515849956 0.178765709812 -0.427055645517 -0.0107255368381 -0.0734449267795 -0.741724028292 0.0874135547069 0.51191592105 0.710111596757 0.159087006708 0.212758208192 0.135777948195
peanut -4.78219328118 -11.5277165289 5.09955081754 5.91166240793 -3.48070653736 5.64022186346 -0.636880204246 0.0582676378428 -2.28666120644 2.08383393589 5.78051007325 -2.02459298269 -1.01452339242 1.56023288726 -0.709552672159 5.13211018404 3.21616495984 -2.10558289056 0.771005283593 0.606935105097 -0.530999835203 6.28699444402 0.860213687624 3.37182005044 -4.33750569382 5.74361872311 -4.37401585412 4.37090334255 -2.89371846297 -4.21134783828 -1.27224225835 -3.87948708406 2.75733736883 -3.94575196334 1.7860841819 -0.172168852594 3.88623995425 1.15566077699 -0.868350860743 -3.19514915095 1.60080012158 0.790462249564 -0.179142007351 0.186135466214 1.49169511385 -1.48939563473 2.18103063224 1.50586861067 0.988425011712 -1.26126880041
tomatopure 4.53470737078 0.769089828149 1.40822323931 -4.18887912096 6.51187919545 4.15679558715 -1.45941215162 1.98823295981 -2.55207403889 -0.163239340242 0.966308884645 -1.16277626868 1.1914435167 -2.31466475292 -0.934090489594 -0.699541375022 -0.303919692164 -1.3430103921 -1.12624879534 0.00369628781707 -0.214539335278 0.270755196628 0.700687020135 -0.439359008741 0.00156606575071 0.793887321559 -0.791844015532 0.710430385371 0.59200497487 -0.34647165513 0.119378070692 2.571872183 0.331934212612 -0.844959151461 1.36656266451 1.02726482768 0.00104345773434 -1.25767340435 -1.46260289121 0.602384351812 0.428642716191 0.454967855618 0.374350768101 0.125948333151 1.7950496052 2.19486358978 1.06490678249 -0.425565951036 0.517253240438 0.452665488594
carawayse -0.578452608613 -1.12015760926 1.89645286726 -9.27526707535 4.70450628495 2.60797973774 0.448690452234 3.15695743623 1.22914851099 -2.98403325586 -1.1909729129 -0.819653765768 4.01842026109 1.30945506998 2.65910934702 -5.99339639931 4.2865927758 4.97479871291 0.00869618567504 -0.387878551207 -1.13841531857 -0.0699518363385 -1.61466385212 1.39361765361 0.299273989575 -0.932501020693 -0.0490391156481 0.53960855398 0.0538178224448 -0.640261280229 1.90291038613 -5.7065413866 -2.4207618257 0.856093403253 0.615026469201 2.96344656202 3.45883116589 -1.37361527386 -5.38177533456 -0.14036483416 -4.24453675833 3.73854992755 4.99226950597 2.23858751226 -0.9912789343 -3.16448439861 -0.0248850791032 -0.0406579585285 -1.86924026655 -0.787753583841
pancetta 6.93697495365 2.32429072583 -11.0652017203 -0.92503273529 2.75258253726 2.37521226503 0.754264319359 -3.01571663445 -2.30578369453 0.84966618899 0.253885460956 -2.06996778522 -2.35128946961 -4.05376702328 3.62433945285 0.618924399519 1.39494524608 -3.1687498008 -2.19207642845 -1.56333798764 4.26545708011 0.617367335348 1.87921705498 0.751496017754 -0.00282195153781 -1.18380405625 0.481900261856 -2.46759865551 0.625821793054 -3.26069746402 -1.40928764337 0.727106364284 2.03190799538 0.146195163113 -0.754019497844 0.0594835351025 -0.529635907743 2.75039582263 -0.0704133135967 0.0985070969815 3.76071749314 0.564229117748 1.47498079077 -1.53234332775 -1.66867847731 0.520848082568 0.961345663083 0.0536374457699 0.972656912159 4.56850701476
wholekernelcorn 3.51961642552 6.13246799126 12.8372380634 5.86046134715 6.68689032992 -2.02758417471 0.253599636053 -5.05242973281 -0.972540143204 0.833579835167 -3.43503086205 -1.98806172247 1.41267059809 -1.77785775187 -0.248036532491 -1.55734286474 -3.37499000745 0.573539927056 0.0590625685693 -0.666286330563 1.73441944634 -0.63675575515 -1.42892145187 -0.813708776243 0.188672733095 2.39801344021 0.533120625172 1.74357125419 -2.8339727139 2.58932989322 -3.018658338 -0.577891327695 -0.719042328009 -3.1471083297 -0.243117717536 0.406399719969 -2.52800987147 0.0764921838078 -0.145443339494 1.00332698588 0.378498012375 -1.79935786243 -2.173646544 1.42633188961 4.93616415044 -1.87422074576 0.464879738569 2.50554898911 -1.78820007723 1.56701368651
kidneybean 5.42756643398 4.49115894938 8.88216252753 -0.334840808204 6.93990652994 0.0175970322221 -5.11233981889 0.0164186423434 -2.90490477676 0.31795267482 -1.12265519704 -3.70669760143 2.2940636955 -3.49216789403 -0.215558541923 0.771066137262 -3.46566423867 -0.697253019444 0.00257284635171 -0.188626843618 3.28541131683 0.942912180959 -0.976771588054 -1.06364477167 2.64700553934 0.590408081488 1.26411038768 -0.110747755418 0.325537955548 1.41946310027 -0.990927290466 1.07388658292 -1.36923775966 -0.712095083268 -1.40007614611 0.589505509646 -0.629711768179 -0.350409570671 -1.28686069876 1.06595408789 0.433649398573 0.690628125613 -1.94219346686 1.60587430296 0.398788925988 0.677796930856 0.692840227653 -1.16756382652 -0.518037234288 0.677197125738
teriyakisauc 2.71319748856 -10.6106716491 5.99260506156 1.6199586936 -9.28622255487 2.28891657232 -3.2392307939 -0.566433796353 -0.131084323482 1.65748722224 -1.35781899252 -0.436659865478 -0.216217504932 -2.57684641081 0.401693313202 2.00240733253 2.23313694818 -1.12041240704 -0.429277999557 2.22087890534 -1.01685289665 1.33833392407 0.751771266095 3.12661560245 3.85603473323 -1.17177850571 2.36362131046 -2.23402283615 0.793956774387 -2.96560690262 0.140251069876 0.651392757372 -4.34589700264 -0.416701438967 -4.79161450415 1.46262662914 0.603268809978 -4.72991590522 -2.67261086317 0.950976117087 -4.09891654056 -0.852145938968 -2.96079095556 1.07741335058 -0.456480805982 -3.39947165256 2.35480387236 -0.0699402049941 -3.06417890885 1.66633119642
groundcoriand 2.57727535968 -8.36794968696 4.22572325831 -1.43519775278 8.52194526165 -1.37327449945 -4.64602553052 0.0705335770726 0.837989543606 0.101815884943 5.11519923993 2.63255470884 -0.332848001413 2.27010338898 -4.64686636768 -2.60381359996 -1.31951615418 -2.1822855832 0.975457807719 0.0789341491385 0.114709205795 -1.35861990922 0.0541879772459 -1.65752596036 -0.134252156064 1.50860360244 2.14469140781 -0.369908380214 0.144201429013 -0.296015586247 0.942749856159 2.68782857571 1.10985958503 -0.917262930143 0.811084342509 0.394247449065 0.0666575548202 0.472239489146 -0.246192066559 -1.80356168692 -0.114595410087 1.36976660948 -0.11792003486 -1.36120575262 0.663504406509 -0.770764454418 0.132129943813 -0.589244957987 -1.33958317355 1.15520132315
unsweetenedchocol -14.8968734861 3.03821700735 -1.18233086608 1.26536739662 1.67038594724 0.588564391417 -0.929871923137 -3.10402777133 -2.59186453801 -3.26312954942 1.97213690011 -1.710917448 0.90042589769 -1.60250580206 -3.02207877046 3.02216589236 0.83530315245 2.66673218748 -0.224930148568 -1.23338795555 0.032661241922 2.43798062859 0.0555113168955 -0.0316469179825 0.208809242724 -2.43506701631 -1.63240236469 -0.604423179607 -1.35144318043 0.230869209017 1.40369914245 0.424742396207 0.56917901493 -0.14099813878 -0.680182865045 2.66746376273 -0.301134600342 0.712871374264 0.763319037776 -1.94606037004 -0.177714108319 0.556240773127 -0.190260188604 -1.77234348879 -0.450548233073 -0.285445357113 -0.858759219997 1.15173457177 0.338535125257 -0.328914450193
pintobean 4.98114272992 4.02337734233 12.5380023184 3.16841329318 9.31698659822 -2.64116844928 -4.45147297965 -2.58021660555 -3.16343711204 -0.309430639667 -1.97729621635 -3.54385186451 1.62358956716 -3.10977060972 0.598923593287 0.359905915046 -5.52686871253 0.985226594419 0.626596993418 -1.64812972741 2.9822215582 -0.739871490458 -0.136242595083 -0.529862665337 1.80530755635 0.850519349431 1.8349306437 0.761650391714 2.47798745945 1.53055432234 0.302200501336 -0.571483654415 -0.0920022984917 -0.640426480362 0.926125588659 0.0174888533823 -1.10061444082 -0.477907122395 0.0985141950333 2.37868316678 1.19692279476 -0.219256849178 -3.47606037525 0.860537439304 2.27358480376 0.796783674323 0.709056114216 0.604452332263 1.67953317875 1.54009101931
quinoa 5.00960579759 -4.70006968401 -0.730975007595 1.67746138353 5.13595943257 -3.22048637187 -1.40035302653 0.168362517813 3.97689576928 1.35153097362 -0.20821509355 -1.30536072908 4.70201466499 2.58934198354 0.82968255817 2.47831649623 -1.94499830712 0.195936069568 0.648325992734 -0.0385352388534 2.10460483214 -1.07622486755 0.0356137186211 1.04926816967 0.363025604207 -1.44259627712 0.408857813232 0.80891980733 1.15992921356 0.382385104595 0.108448695261 -0.719626963856 0.241741299729 1.80646895922 -1.53581227098 -0.0551941462694 -0.650971386004 0.517142409376 1.91648583199 2.0943306746 2.5478689879 0.715738430281 -1.47848018723 0.19142416047 1.03592842519 -1.01639513731 -1.23622676608 0.330331217566 -1.04274698592 -1.83206706323
sausag 4.37250487791 7.66834107306 4.83223521834 -0.554671277436 0.53813050868 2.96560905055 3.16749487792 2.26195585027 1.94389299135 2.94291571881 0.0255835894713 0.959994886085 -1.45683877588 -1.63773403351 0.582177353718 4.53261559475 2.88114960223 -0.754488334947 0.604494360608 -0.502936083164 0.590827825175 -1.02193602815 -1.3250528381 -1.49770239688 -2.33353257607 0.490291717855 3.78861627182 1.86627953651 0.32678966347 -0.323362986187 -2.36792359924 1.03313651271 1.85860802255 1.32957355627 6.15867425738 1.64545830432 1.37444918355 -2.98654402613 -1.30272047281 0.38883098541 -0.90659835584 -3.88246128501 1.77189142729 -6.85716403502 -2.26446161805 0.543476095993 1.85268609774 -0.783172153104 3.00164861347 3.06873492296
yeast -9.00672688357 2.45374273803 0.86392600163 -0.449592823202 1.10541306541 3.90237093624 -1.6691688929 0.521075743009 2.2786597545 -6.64672098306 -1.89506957093 -0.528931999355 2.80148042312 3.05932466523 4.88675481931 -6.20735615135 3.02473194863 1.16165837318 0.0300681509412 -0.539871780146 1.67424017196 -1.65367941714 -0.0664581386848 1.62338231444 1.35771283896 2.02056930995 0.810005886201 -1.26838871865 0.0854069431004 -0.0622176747161 -0.340315801823 -1.87484330596 -0.892589839519 0.264362973598 -0.000691959096318 0.391340213717 -0.138012239167 -0.47399984381 0.933789585771 -1.15227806879 0.799280177154 -0.390236653772 -0.811429444542 -0.781877989117 0.282274355101 0.632100785368 0.00162307211661 -0.203005658681 1.05906758898 1.23872701737
shreddedchees 4.1724608733 9.40362659826 8.76062708416 6.6197071055 1.49461034888 -2.33330351847 3.07783934539 -3.17716237014 1.96849597044 1.46152963218 -1.19322886858 1.85381748683 -0.179072647239 -4.41177525815 1.06665849376 -1.71519749733 -1.21147545097 0.234074621727 -0.643563717212 1.92869249458 2.16038931467 0.429559036969 -2.7259275602 1.5878800992 -1.02698557072 -0.426184668006 -0.622259633451 2.50008358248 0.37788103497 0.829488707914 -2.39681062799 -2.75967816338 2.52089241642 -0.486546607287 1.59551555527 1.22328116519 -3.74562380326 -0.685200675844 -3.12763435721 -1.20972048326 -0.375043305925 2.32095593749 0.866860649977 0.101450121284 0.659826368439 3.26183180616 2.1161482372 0.505012459229 -2.78262274729 1.5775227769
americanchees 2.41182612542 9.43477327909 10.3864138546 -1.13550346452 -3.14235856994 0.12104663903 4.44296615744 1.55227352594 0.976027395556 -0.453676917681 0.515146094018 1.94183171067 -0.684722551846 0.476176526546 -0.92357844122 3.53831106029 6.41508879484 -8.25477809265 -0.254527962067 -2.77195633094 6.01062798499 1.80467695648 -5.13724737616 -3.30447056034 -3.9053701823 -3.84595982964 2.23003824712 2.17633459981 2.05140701474 1.21694245468 -1.81419269865 -3.86157822672 6.64193771633 2.33858957746 1.13595823564 5.29009454241 -5.44374266879 -1.17634845025 -3.36777445637 -1.03252987846 1.23080192967 2.73838489851 -6.2798661166 -3.34074339742 -2.50372256928 -2.34234868413 -0.132693522708 -0.771152893813 -4.30389578539 0.778990584982
tomatosauc 5.4617198055 5.22520860592 4.06389631943 -1.89831885527 3.37188904712 2.88819024024 -4.3945599735 0.777271391805 -2.43283778253 0.915677061041 -2.15394676594 -1.53224679844 0.197617910444 -0.900556938991 0.183429239603 1.25772656589 -1.64296175585 0.685376222556 -0.154924313188 -0.687772779358 0.775784042351 0.756452456419 -0.369417004839 -1.11227228899 0.335551848041 -0.248729737497 0.0314712199273 -0.0564595962925 -0.0714718668645 -0.154105987267 -0.301309540793 0.734078580017 0.0275527348184 -1.08628418627 0.377319533312 0.181518079726 -0.865606816351 -0.663182506499 -0.271881670105 0.493547323704 -0.392303035752 -0.137480860349 0.159044155749 0.609343579644 0.335745082079 0.521227361167 -0.0392318142063 0.301802135048 0.688997666364 -0.110242532037
sunflowerse -8.85658774143 -7.1436822471 -1.26058815175 0.870027307565 -3.03177779068 -5.36653088119 -3.25243434263 8.32517760004 20.5104101211 3.55041958394 -7.56283283585 -6.5028123457 9.71755023662 -2.5700172965 -2.91083503702 6.89954457887 -5.83079126158 -1.50383788761 -15.9246039836 -9.97345430093 1.77606257977 5.87976500042 9.97559930692 1.3480893518 -10.2629605197 9.55388190558 -4.04246495252 -5.08368703034 1.23745089657 -3.46629642277 -1.11461844592 0.493832217186 -2.42218467975 2.99480247394 -0.00522167827706 -7.1412367397 -4.33239763176 -3.76538568724 3.31770213724 -3.06465183381 -1.04896258738 0.638009639302 3.11716356651 3.4816896692 -6.74930655485 3.21314884418 -5.85029189786 -0.836143981803 -0.400384471658 1.40023791594
groundpork 1.44901495814 0.783796908623 1.40125659814 -4.2550807199 0.177230620053 4.0089153557 -1.31894098635 0.181594349474 -1.87188072662 -0.958964619773 -1.4506270131 -1.23738966488 -3.16499341049 -2.14001834462 1.98415813361 1.00278640033 -0.225181785071 -2.59423680463 -0.258345916062 -1.49787290129 2.56565771991 -0.829782096667 -0.210331370809 -0.0240558053367 -1.30982242148 -1.21709027008 -0.407835190268 -0.0444298825391 -1.6771630047 -1.56456959514 -0.729868969908 -0.170233909488 -1.53821979632 -1.15550425548 1.43149680394 -0.285360298636 -1.52456462092 0.239896458372 -0.403175036761 1.2742193093 0.522476331871 -0.487832583068 0.370813554791 -0.385155122764 -1.81216833312 -0.414175324377 -0.579424608998 -1.48948686486 -0.152778869125 -0.00358690456496
kalamataol 9.14303719325 0.55278759198 -13.0470248628 7.56362996554 -0.192841935272 -5.11361327591 -4.06410762826 6.20964622429 1.46182499874 -4.51529876664 -1.38832531609 -4.48280930199 1.98017066334 -4.08752851568 -3.05823302031 -1.9062675918 2.5626809328 -0.676547253833 5.72864713609 0.503612048008 -1.72038884702 -0.841911210849 0.0436520451678 -0.121048982292 -1.17715915497 -0.326385407505 -1.95503756034 1.07273999484 -1.05073128703 -0.112812067386 0.565274722811 1.66405807269 0.33140710121 0.032324179281 1.99435502025 0.913218687117 0.325046763675 0.124936827659 1.87572898908 -0.559734366403 -1.21427946161 0.0150984103029 -1.87401618548 -0.286843747187 -0.865801633684 -0.463077209724 0.156149319252 0.745961694896 1.06802927314 2.04196835528
freshgroundpepp 5.92549659302 -0.365728811471 -4.57076593077 -4.87460958652 1.2484069627 -4.22805775857 0.347307526427 -0.797392172488 -1.33653867366 -0.544608702039 -1.99346723497 -0.670490414535 0.330795318787 0.455289119142 -0.0647272406464 -2.80350632312 1.56662474348 1.1995114802 -1.88692468297 3.70993807518 0.249727835958 3.42723682997 -1.5630127061 0.640322421023 -0.664314741607 1.72294389203 -0.265331457853 -0.767643229586 -1.24880039034 -0.169246163476 -0.279289900262 -0.463854239816 2.78421797552 4.52737393018 1.13054503278 -1.70207441624 2.79826314533 0.90835812226 2.6841565251 -1.07330235097 -0.114608607721 2.44938318677 -0.517480243334 2.68232645762 2.44293883204 0.322686864158 2.71300618904 -1.50869554643 0.893176043304 -0.632202362386
freshparsleychop 6.94096522005 5.22683382322 -6.84506435648 -0.0431685470648 -0.350476526551 -0.493740626572 -2.49879735475 -3.46467885774 0.222903869928 2.54136932943 4.1508958062 0.616996428655 0.520308357124 -5.11974970488 3.96092270252 -1.42810733576 1.51992449255 -1.56025941885 -1.82283073332 -0.185273337731 3.62891405564 -0.740327694271 -0.828119150573 0.552913497702 -2.43871789665 -2.30879150018 3.5615521217 -3.58354897962 -1.00952920836 -3.81310678473 -0.698966024514 -3.44752522987 0.228435866072 -0.80491023024 -0.417336265692 0.900814927215 -0.7808608364 0.784308465903 -1.6474396771 1.68830489343 1.11328032632 -0.779265880805 -0.593321981492 -1.45538930999 -1.72533228252 0.112113740746 0.669968062645 -0.878509403456 0.162606839324 -0.497025155857
yellowcornm -5.5322028449 2.64841759423 2.81722888935 -0.579301257347 0.929538853548 0.0512661325751 -1.97721461423 -1.00038249628 -0.178602422889 -5.1193645376 -0.180393290678 0.878473788919 2.94827485651 1.79903427302 1.35753934047 -3.21633778664 0.551933093917 0.717034217361 1.18778100858 0.685148925204 0.403139018649 -0.695898134286 1.07259181189 1.49603514292 -0.538769486442 0.10228934522 0.73038722048 -0.713491388472 -0.720671028966 0.512651872201 -0.533452227923 1.88461272027 1.58682728078 0.0152568919879 0.917461378202 -0.228582488355 1.59201804597 -0.122397513327 0.283600587999 -0.161015179264 -0.212422268504 -0.142319915809 -0.875598286524 -0.3955588473 -0.405074070846 0.404296683258 -0.828990839209 0.18181559645 0.141345670804 0.277436341237
crushedpineappl -17.8593410325 0.21566138781 -0.249500924759 3.00622437304 -1.60228531054 -0.475151305748 0.321109675549 5.79769435144 -4.30316560576 12.3033450827 1.15731742292 -8.88267549467 -0.710744187797 2.87521435171 0.570493042312 -7.43491277894 -0.490755364879 -0.757536092921 -6.96017587619 2.54656227728 -1.38777857554 -2.97893738433 -0.271720186861 -3.17179227094 2.33120644477 -3.49893722881 1.71278368557 0.549485592401 3.26976813103 6.04085234441 -2.00574883852 0.855462683268 2.66570186359 -0.455172199167 -0.317729452662 0.69569572858 0.0802292933373 2.85660274625 0.489028478237 -1.10000996177 -1.47787109653 1.27865798754 -0.784546977141 -2.27171717292 -0.0542329176036 -0.595134375196 -4.34019671031 0.905747837017 -0.0303514884278 -0.113562707312
prosciutto 6.84167269005 3.62024694569 -12.3690318348 1.84842922189 -1.54223678776 0.394534092321 5.22627569247 0.530064578377 -0.772055751287 0.0885730646621 0.287058127868 1.89480439174 -6.03905170732 -1.38566284 0.365388873656 0.629796717028 0.430802461605 0.419114086424 1.96870173504 -2.91723425145 -0.348831288212 0.163460634955 -0.0924096308903 -0.524761354481 1.07111629751 3.93233736231 -3.59839694403 -0.77762116039 3.62532741636 0.371724176185 4.73717927563 -0.84929468208 3.48232192571 -0.0703986632851 1.73454942695 0.829480368381 4.63982193531 -0.395281706938 -1.96757352295 0.751871831479 -1.09028813662 0.239851281943 -4.34139349127 0.37216382263 -3.51007993344 -1.35477217112 1.4697404397 2.23548724628 0.580104596952 -2.46336945848
garlicminc 8.16054877652 2.21430796529 -4.80580084821 0.763156721323 -0.759939460226 0.626261347399 -4.99642315658 -3.70719634252 -2.42106097723 0.837963799603 -1.86104881828 -1.39791500641 0.933629029417 0.025156936009 -1.46106416137 0.919481412379 -1.54323119916 -5.10580963542 -0.20180302977 -6.62687838941 0.882729960531 -2.13131305888 -0.220643848899 -1.33043486868 4.47214227418 -3.16629879945 -0.693387472247 3.67904755859 0.434685293 1.51593974055 1.40861219482 -5.71760126112 0.878452960926 -1.51073358454 -5.90469539959 -0.606597833114 -3.82269064349 -4.32950634815 -2.8720066755 -1.45966002633 3.74271685784 -0.0466832065781 -4.09303031688 3.24461533648 -3.76003045571 2.18671432771 1.40237847657 -2.41255604325 5.80026200615 2.30728574958
orangezest -9.89989266962 -5.41589890179 -3.87246946884 -1.5524902287 -1.39699572314 -3.44309747578 0.0615832366383 0.606731138121 2.29096966664 2.27433257954 -3.85892597488 4.51471661799 -3.04816661227 -1.3836535675 2.15067002054 1.107253266 -3.09662120369 1.04801866448 0.494565607943 -2.59606840053 0.990163121856 -1.74897177954 -0.901897103359 -1.59612965728 0.66201712604 -0.185567789902 -1.71738300886 -1.80692146614 0.572454110916 -0.0964142543776 0.99953721512 -0.103811961584 -1.43575112998 1.91552677976 -0.913668710924 1.25191214817 -1.04134101876 -1.18327650229 4.25774130901 2.06928076878 0.20863925186 0.796703509698 -1.59984382821 -0.209083361925 -0.170935358287 -1.15108822242 1.43228856951 0.547581547954 -0.631691022876 -0.980583706552
tumer 1.99363565566 -7.64348184376 3.66829063371 -1.94462262563 8.2551996476 2.44128300653 0.754270771936 5.10053828362 4.28960186948 -0.277690649832 7.4509205608 2.05469503626 2.30238025629 0.938110766505 -1.93093653362 -0.429188128003 -2.51551924582 -0.225745465167 1.00118449029 0.219806950007 1.75083521974 -1.22049021173 -0.325094098568 0.836233300642 0.487253447219 1.27016534647 2.41404759529 -0.0415490698889 -1.17011143177 -0.232568123662 3.13027387592 -1.69386537539 0.408214136554 1.38980936733 -2.0922257509 1.65315520558 0.527419328112 1.20608529378 2.01473961235 -0.0798205011228 0.907247697177 -0.350691564984 -0.394795206507 -1.87402268781 -2.61479922738 -0.253202350505 -0.0460176239498 0.798105131481 -0.130450968863 0.174281276139
cheddarchees 2.48871313625 7.34677661186 8.07197319897 2.74616465875 -0.310919249888 -0.57606773412 4.93191063709 -0.939741507741 1.58464683433 -0.0201546536206 0.0660609161392 1.47508635676 -1.10393702091 0.524419129802 -0.435762452975 -0.747733883179 1.01108797933 -0.414265147132 -0.171912839405 0.0749907327579 1.00995109679 0.59221061043 -1.35092572945 -1.04606386752 -1.01966644079 0.516639173867 0.877563532355 0.086948443378 0.370411673151 0.871890810493 -0.233434241868 -1.14011900233 1.04385480504 0.786857798555 0.396091447761 0.00357992725992 -1.12093797623 -0.490502867079 -0.874801753304 -1.66963085877 -0.306553380392 0.188848967912 0.256246568375 -0.0521381880485 -0.173183955344 0.451121597086 0.691986073455 0.40938773584 -1.28502142227 0.24026435901
mediumshrimp 8.59558955591 -2.22238000437 -7.27364328628 2.72682689903 -2.03664728908 -2.69062268601 -0.69898281852 -6.96699777826 -2.07731508502 1.48935997901 3.65758827171 -1.69343169206 -0.717714941157 0.349405442909 2.64909158694 -3.24504537614 -0.603970588675 2.39306580443 1.89673335495 -3.83235652238 -1.67177898152 0.689094778439 2.38849207209 1.22899872088 -2.07481273505 2.24604453949 3.01655532338 -2.05474581852 0.100112600054 1.12400746859 -2.98315106416 -0.290809083167 1.37972875895 -2.09437037433 1.01147811199 -0.626288720094 0.00531921862315 -0.12521617791 -3.3442886649 1.94073314143 -1.81898227507 -0.333486361545 2.16332506309 1.85692050782 -1.20301081599 0.778100498435 1.17878377212 -2.04091880569 -0.500367471899 -2.94203374839
almond -9.57790718795 -4.12900202672 -2.1483631705 1.33028242422 0.407887843763 -1.18695441446 1.8631563138 4.2514913824 6.18413239898 3.47780866328 -0.753324811577 1.56990896942 0.910269628283 -0.803225556302 -1.60095309787 3.20344806363 -2.38586638934 0.931870219912 -2.77877286766 -5.05755278898 -1.5208840807 0.233203617892 -2.15055927442 -1.59502589723 -1.76140589936 1.33656531391 1.57168368776 1.71460796847 0.769550115255 -1.58058391422 1.22475008983 0.540829462385 -0.17380553336 -1.46499318483 -3.62897791109 2.6598420317 1.13456498275 0.686239303252 -2.60455115606 0.88871953855 0.60437713255 -0.919260958822 2.96488284836 -0.447099302377 2.56411925024 -0.412065663338 1.79001560259 -0.904352169916 0.871118113924 -0.453653373534
bacon 4.19414450825 3.64980285327 1.71694944137 -2.19938075448 -1.56268247401 -1.13394727135 4.2544681237 -0.299661329935 0.3756457019 -0.0499814782615 0.283167948635 -0.493409247106 -1.14489244394 -1.02111602718 0.0611422886352 1.07679968232 1.17470530549 0.285336103012 -1.16883864829 -0.278577337062 0.117207713855 0.592182436047 -0.0658063247046 0.509488163099 1.42320001182 0.377698640421 0.836638826985 -0.358849811415 -0.51729356584 1.14355891941 0.78119555202 -0.671382776753 -0.986982158461 -0.336036034025 0.0335589890543 -1.18881924235 0.342191264768 0.22029111633 -1.58932658918 -0.0990064109545 -0.533536753476 0.212220351392 1.02589575232 -0.140248126622 -0.33278512201 0.48362489255 0.600194719178 -1.21613195944 0.0708825735617 -0.0109064054904
freshcilantroleav 4.84091962446 -9.86739060801 2.7903683218 5.79026030895 -0.106288451784 -1.37155787022 -5.35420990253 -1.63870483705 -1.31158213568 -1.35808859677 -1.88195626365 -0.489365996355 -1.19589923773 6.21482327674 -0.829774347188 1.55274095234 3.844083828 -2.25563256446 -0.692266609408 -2.93008096833 -2.62316457825 0.58675947641 -1.04617242619 -1.61121337712 -0.0655559766378 -1.03088002296 3.09860036085 -2.65622590575 -1.45098431118 0.947452718033 1.61781573345 -0.630888243754 -0.515621752168 0.400054103593 2.11110585112 4.38063965963 -2.12176615164 2.91265861138 -4.69654277283 -4.1167196867 0.755312182682 1.34562198515 4.06627465458 1.77942211379 0.139815582946 3.53425371098 0.339980471741 4.30557827953 -0.955861970014 1.8227242371
spaghetti 6.04759531201 4.83016129129 -4.0303827445 1.27316719418 -0.277514170402 3.62306820779 -0.981010321257 0.0737950997024 -0.69560139117 0.508948226836 -0.67040171474 -1.15087131419 -0.756189547717 -0.392943827788 -0.179091406505 0.743299011661 -0.61856092109 -1.45898671771 0.63413674885 -1.50911644335 0.196760540581 1.63606513451 0.54937043009 -0.110968046916 0.412656371824 -0.332633172777 0.25820656761 -0.205079295681 0.0753552848504 -0.823380361847 -0.271806868042 1.65127027056 -0.0647754659726 0.704353598873 -0.314964273889 -0.131646278741 0.509265650082 -0.430128138859 0.128365155124 0.307574427326 1.67539848056 0.625519250866 0.399538036897 0.121046023728 0.459238957573 0.23036790573 -1.00172830514 -0.831841835969 0.297726831326 -0.421717727949
sweetenedcondensedmilk -21.9143267422 3.31074179194 -3.67862344368 5.38602654792 -0.134899569721 -0.72398833902 2.6768769989 -0.812966022317 -6.13959378074 7.55578382401 7.34457633758 -8.28039638379 -3.1678128267 2.08039611173 -6.09398574664 2.90260576263 1.63929217045 1.17281050646 -2.62399471522 -0.914756301156 -0.946957770292 0.105835673569 -1.48782783689 -1.33054645256 -2.1100605558 2.25473695145 0.30239899551 1.32675493532 2.20153452612 -5.32451722765 1.43603437797 -3.25190038714 -4.14932763106 -0.026264007012 -0.729583844359 -0.970865666348 1.0473899505 -1.28672562091 -0.13476878465 -0.780595650217 2.33008696267 0.796360514186 0.0703847627461 -0.289149011134 3.30590536963 -0.757665082709 0.362980735946 -1.21088417654 2.40472078451 0.962096820641
tarragon 7.01940093269 -1.23069217476 -5.82134051812 -4.84844638999 -2.65109855072 -1.89828336914 10.4986241316 -0.709990426382 0.148946002791 0.0191095089549 2.39842170146 1.23308567269 -1.6185912542 4.7596419258 0.480460923677 0.213676995705 -8.99726516512 4.1712677734 -1.61228947142 1.10443910951 -1.07094568854 1.74941415816 -0.449899718943 -1.02981498723 2.55665892167 2.87775138095 -1.5631711089 1.43769618337 1.86714979641 -2.13235467031 -0.909888708943 -0.11390932491 -5.01257736417 -1.17588273241 1.85366026143 3.79418601471 -0.847237261302 -2.8269274732 -2.01593704759 0.108365254879 1.24074936374 2.91625952569 -6.03248807623 1.28976735231 -4.26206470324 -0.850126438943 -3.25246150484 -0.815448619876 -0.416370907674 0.30290310572
purevanillaextract -16.0701619321 1.55420213933 -3.09387062762 0.13244946806 1.81672848371 -1.50352686393 -1.63549059678 -4.71761246892 -1.37236024809 -4.72051553355 0.273450839416 3.64185357863 -0.269844592234 -3.13276188802 -2.7031061363 4.19256789723 1.27396903635 3.79719729649 -0.206541032585 -1.04916824478 1.86230770395 0.47244769653 1.74799022291 0.480656653691 0.409639756924 -1.83176268391 -0.232759435647 -0.537823407893 -0.737935586931 2.77572514002 -0.316575552897 1.18928149511 1.26153879823 -0.983391923937 -0.518272646389 1.1297680115 0.264878543011 -1.13514825516 3.24492900338 -2.26041079007 0.0694827890107 0.67432226006 -0.585148353922 -1.21853139031 -0.776396866855 -0.456344511463 -1.67005732153 0.0817145693515 1.51428793444 -2.32528096248
chilisauc 1.13170532489 -0.323337823005 8.27646775891 -7.62161838339 -6.77874274137 -1.70125958215 -2.60149664052 3.94452310495 -4.69097032556 -3.39565189679 1.07445815231 -2.83930305528 -0.905557068137 -4.41096463814 0.929383693905 -2.69741209066 -1.1818845959 -1.02969460483 1.60026829719 -0.925839529979 0.838698097073 1.55108386998 -2.72891782903 -1.51084412011 -0.796486514008 2.32792488102 1.05933360994 -4.26652159354 -1.39762601109 -0.427782597078 2.12684776587 -0.678292162014 -0.108943792367 0.402674280537 -1.99948790921 -0.0965001894451 -0.278480840777 2.03987784117 2.66277659584 1.95372674356 -2.40745315546 -4.52141725566 2.47402292761 -2.50190260077 -1.57932837608 1.16430642709 -1.48595853199 2.19609973454 1.22729665369 -3.387596266
onionpowd 3.34179092437 1.91405764982 6.51333215947 -7.95470917757 -3.61789843278 -4.05446554865 -2.71712243147 -0.738592487806 -1.64114037131 -0.247556219161 3.80738305952 0.25505353557 1.41894656269 1.26193083512 0.130351979088 -0.373512742372 -0.678815634268 -0.231760664873 1.53490833689 1.41670003283 -0.910266656953 -1.63546990946 1.93296982081 0.53706575765 -1.76863025539 -0.388815497476 -1.56814371465 2.54604045007 2.2107016888 -1.61276858305 0.725520442183 0.288923650902 -0.323214591279 1.1998937522 -0.367175699459 0.126927338601 1.79459775201 -0.664103200408 1.17172245034 -2.04445980285 -0.37895061907 0.74602748883 0.41785617357 0.521467387437 -1.11296030611 0.495887787112 0.222336121311 0.597052300051 -1.11695754671 0.268189705837
garlicclov 8.88602859319 -2.61610043335 -4.70767205789 -0.333336121257 2.19033202035 -1.86215135062 -1.98205421746 -2.57963865822 1.1041783263 2.46492435256 1.59785859735 -0.174609708797 1.02371764113 -1.14493509741 -0.055927023043 0.0952525748045 0.627872594773 -0.177664141536 -1.0651385131 -0.328763396858 1.11935474001 -0.21756644512 -0.888150524684 -1.62659874506 -0.151987610372 0.111016653948 0.720560449168 -0.576880645261 -0.358233548742 -0.167552408209 -0.278196817487 -0.00771822553847 -0.188542992355 0.0472074428149 -0.622490463375 0.490333995372 -0.0476754940905 -0.867425533487 -1.09492067946 0.274141921803 -0.457914750797 0.374969709759 -0.891152517126 0.370651800728 -0.661348682087 1.32293495298 -0.641959248081 0.816085270922 1.10152910051 -0.714087640776
choppedpecan -15.6059745553 2.93957777187 -0.463175434209 0.802526203983 -0.330171779798 -0.17652135305 -1.12049476657 -2.00927689205 2.29346903369 0.651702627743 1.76563287314 -4.10420761227 -2.45648494666 0.797984370127 -2.38076873147 -0.851678327529 1.67246374663 0.153653016472 0.444286345359 0.761790676055 0.237361937548 -0.940870127885 -0.544620858796 0.345360601119 1.41186932974 -0.317118771578 -0.526011572166 -1.52003124039 -0.222861443769 -0.131439688424 -0.809849004915 0.149414119594 0.620499567096 0.279986800005 0.796991493342 0.146559027602 1.65390896982 -2.26899606057 -0.627557291874 -0.0490261975519 1.62791750934 1.53553603987 0.671721415822 0.164817521153 1.8352800758 -0.632041079068 0.299542453522 -0.370788488404 0.822821724577 0.92620296976
lemonjuic -0.79933102529 -2.15370233226 -1.78052023783 -1.88776338773 -2.72598031835 -2.23335782826 1.94513575353 2.51118396062 -0.649638559304 -0.840641027015 0.792176705956 0.666247594402 0.11221225191 0.831279569694 -0.946703141684 -0.789240405755 -2.14129174001 0.892089924229 -0.00102819236719 -0.202432553019 -0.0261664495992 -0.149436075569 -0.0878330724235 -1.09589507797 0.143548786051 0.906026949238 -0.349090658735 0.722463891253 -0.524389763246 -0.780799504402 0.577128895161 0.13625401335 -0.876490991992 -0.512967430956 0.211378333941 0.415483340296 -0.437253086236 0.449168781275 0.151450179217 0.2502636503 -0.0957213434365 0.323563945657 -0.537415165664 0.0538117474654 -0.0127479011905 0.120794558215 -0.384210327758 0.391435301368 0.160249280379 -0.172960781006
water -1.44375732086 -0.470283506641 1.95122992171 -2.21080499677 0.420317733556 1.73892691389 -0.142749370044 -0.242292212004 0.529408896208 -0.00651911092969 -0.414206902652 -0.228812541597 1.12494727993 0.404338445602 0.886817829175 -0.252104047827 0.388539736499 1.5735776415 -0.777345573585 -0.802001545196 -0.149271286275 -0.375443224274 -0.77877660402 -1.36109178993 0.598248504573 0.393157623321 -0.322102480809 0.233087728518 -0.246038691231 -0.0688515637976 0.24119244783 -0.102377673766 -1.14070767417 -0.602767492808 -0.0501474282679 -0.133555076427 -0.173009202219 0.058084410046 -0.753348089895 -0.111640406036 -0.66180590402 0.250263257336 0.0306561976593 -0.349478145247 -0.121029635382 1.09409440901 0.483604436 -0.203660917926 0.320110404603 -0.0743494032503
roastedredpepp 6.59573627213 1.80170974413 -5.7526984328 1.53940283715 0.346991136305 -1.08475141182 -1.61291943617 1.94260289177 0.0327611922487 -1.65423431247 -0.133785628762 -2.17019629592 -1.48617884866 -0.712980932477 -0.368445136464 -0.114831888011 4.21991141965 -1.20851820455 2.5564702622 -1.476947075 -1.78491529496 0.335775695799 0.533207372549 -1.24707629825 -1.46224325171 2.23822029555 -0.196938362277 1.42725771546 1.97905810311 -0.460052473493 -0.210045185117 1.36118423542 2.06494530501 2.6101369036 1.90840898626 1.91010524604 -0.609988820766 0.00524058829502 1.48428952742 -1.8758266401 -0.200410639097 -1.51095381613 -1.01654808642 -0.211589159132 -0.597053230659 -1.54242897794 0.0183467390596 1.99090842059 -0.704847093049 1.55471548589
bisquick -3.16481155257 7.69993210856 5.44870092851 1.27003614332 0.31483870799 1.86507148337 3.86690476384 -0.197358031651 2.70298490379 0.829437228592 -0.323231815849 0.131871615214 -1.21366713165 -0.264709538734 0.269178736988 -0.421864599036 2.61844941187 -3.43086995468 4.49288944774 2.92463808239 0.0166112785396 -1.87535146691 0.0535494879953 4.89935161928 -1.65470334227 -0.6436980511 0.519518374006 -1.13548221827 -1.0081741307 -1.75689669778 -1.06203974586 2.44697045448 -1.22077462008 -0.95657506611 -1.14868671293 -4.49421035293 1.25671848314 0.399175830581 1.53814432226 -0.447065847522 0.806163485126 1.63675423297 -2.66578924604 2.07560402943 0.541860143769 -0.515099019229 -1.58674293245 0.190684311479 -2.41022149923 -0.884035632266
cookedchicken 3.78342829712 3.78647770893 6.68036645793 7.01063026 -0.909182984214 -3.97560951596 6.53308653938 -1.73008658978 3.60360432049 2.07600859534 -0.802950887765 1.38554075809 1.0811070878 0.904864145739 -0.526835566883 -2.03606268391 -0.311839530172 -0.580713118098 -0.453826065206 -1.58875011976 0.171374586838 -2.30814083712 0.782927443006 0.24522235307 -3.28817210891 -2.17487421186 -2.23322173989 -2.7984681408 -0.863847427948 1.47045655347 -1.40165847946 1.46989581765 -2.72125419787 -0.961901741872 -0.208326405952 -0.720991180446 4.1016955232 0.196229734199 -1.13153777349 -2.51632689528 -3.81377915689 -0.471081528461 -0.539014781093 2.49885496909 2.09486719437 1.75743330837 -0.518832193536 1.43401084614 -3.66352830268 3.60897613758
nonstickcookingspray -3.72312762882 1.78527919577 -1.10859596804 1.29504636662 -3.98482637506 -0.144706494424 -4.0186962278 -3.19583240935 2.01791005895 -1.65059676597 -0.119631176969 3.5963534816 0.133695083805 4.63524856641 3.06030227439 -0.993035915283 -1.91252680009 0.434449844096 -1.66573701097 0.127654276414 -2.56495765608 0.0243155115978 -4.49628871588 -4.72486951554 2.45742857697 0.154436604253 3.50114628251 5.79264436539 -4.71906473457 -1.06710652423 1.08434545792 1.98636380773 1.31409207006 1.18051862469 3.33912404505 -3.62145726368 -2.01122165337 2.385695685 -1.12531999611 -2.11258191449 6.4829380663 -1.29958278565 -4.0734865407 2.91621624666 -0.882565346592 0.0897085876346 0.662895558597 2.48538793178 0.0746948928807 -4.34793517507
mozzarella 6.0055989915 12.0218673264 -4.21371665734 3.62657989263 -0.48751482572 7.50870459999 -6.1784590558 5.22374225394 0.207638715746 0.0826733652275 -1.0656881727 4.29655637956 -3.79086883452 1.84780522899 0.40818808622 2.09615594766 -2.0404948489 -0.174584650514 -2.89814873274 1.82108477331 0.356358542302 -0.0543041103472 -2.20811027395 2.31363901975 0.328627598077 -0.691234361934 0.0208331220559 0.164731817993 -1.02051444332 0.081737771632 -0.221863220712 2.19304420597 0.0301514224623 3.15119723642 0.0928209275319 0.483093257287 1.31705750812 1.99339793909 0.0829078934672 -1.65721789276 -1.71010785681 1.69143765009 2.21761836029 0.988103479098 1.2940560267 -0.618533611669 -0.607409538744 -2.43046664926 0.633871564432 0.345869567259
whippingcream -7.92558197939 1.66900922805 -5.70809830614 1.48130719379 -1.00514495143 0.177504162649 3.61750572141 -2.42226084039 -3.33959504029 0.623804710804 1.98978493243 1.57790407948 -1.15132090444 1.09077361503 -2.80090042734 0.938442809254 -1.80332975279 2.89440951384 0.399569436264 -2.23078105908 -0.863971967847 0.595782069017 0.0417066082056 -1.15970061435 0.912541706206 0.397425220867 -0.775722606743 1.43656317809 -0.272525801074 -0.0668387475963 1.69528444544 -1.23370831233 -1.32878542043 -0.881691079249 -0.581478215815 -0.688220329473 -1.60154131409 -1.08767697195 -1.08345866226 0.0900223851662 0.0859805606579 -0.836372460105 -1.20110935936 1.14887134713 -0.529680816177 -0.160661810839 0.528365492757 0.22929420652 -1.16977905742 -0.488774840887
vinegar -1.60575768118 -1.5306872128 5.32282932933 -3.58437304479 -3.18606831081 1.57611401231 -0.746315479531 2.83815450012 -1.81142353375 -2.17141813651 -0.503399473 -2.04661797857 1.08747871379 -2.57432994829 1.26850115049 -0.497620450563 -1.09075033917 0.692737585314 0.114783293214 -0.131749119971 -0.235860247562 0.501276707841 -1.25179693153 -0.795319117756 0.537072937697 -0.124957214064 -0.934663157075 -0.810403764672 -1.30857483454 1.50181409494 -0.0146037490286 0.051121498189 -0.715185225191 -0.126278487612 -0.476471296044 -0.635924223855 -0.00204238819496 0.693855613686 0.956769466214 0.550959728911 -0.0914286227995 1.11592354172 0.197515918667 -0.911395821373 -0.180180900237 0.194718685744 0.268916659325 0.543837848592 -0.0615039737209 -1.253126687
lowsodiumsoysauc 1.26697151237 -14.3815863553 2.66514480827 4.95846122346 -10.9548985414 5.65086708144 -5.29256923182 -9.73456857778 1.83018062173 0.591075653049 -4.54821386838 1.25136852582 -0.0379410073013 0.622886706799 -4.58051452854 -1.42015803505 1.16983631185 0.749059951053 2.86184832827 0.904642420603 -2.18339285719 5.10605193022 1.41037337815 0.858576741259 2.13588928302 -2.66147025884 8.71874582835 -1.71784213747 6.1438965065 -3.87628633721 -1.24400885873 1.53477478783 -3.3884967993 -0.856059742725 -0.792481631425 0.133695793556 -1.7501551646 -2.27446990186 -1.62915612835 0.684764377721 -5.31233029885 -0.486810844721 -2.8765185878 -0.203206609394 -1.24481474812 -0.089344649429 -2.23948817658 -2.41711173454 -1.04643011528 2.29103825506
cookedric 3.20977980071 -2.67307269546 4.776958952 0.948944472075 0.025928342588 4.4711192123 2.54114840846 -1.3258907374 0.0274183631376 2.01217465852 -0.384651284128 -1.19873862693 0.855567711923 -2.04903998464 0.320046858888 -0.84740133701 -0.0635330440384 1.3996599064 -1.42916174299 0.199590388265 -0.565588782926 -1.22089990629 2.05467317887 1.12983485416 -0.918899927402 0.159256741372 -2.85190212131 -2.37463293707 -1.50079206634 0.63136532295 -1.37732822291 2.2730166164 0.468827671074 1.34083214271 0.0368814667194 1.92192117351 2.22881932105 -2.31168079447 0.0215417014451 1.25210820175 -0.620908619441 -0.571461013153 -2.37143757175 -0.336255046177 -1.18199164215 2.10224222586 0.213727668677 -0.0215112365726 -0.574207327655 -2.11537113985
cinnamon -12.737074065 -0.314025815625 -0.164303742709 -1.79305340665 2.36582975928 0.70471085314 -1.05851901501 1.88844067029 5.51570953219 0.00733640422181 -0.204620635376 -0.57632861069 -2.4397466723 -0.14531090222 2.20428326221 -0.231569888769 -1.63450379116 -1.46769833263 1.37042562922 0.137766116305 -0.237999848256 -0.414055813696 0.298772152592 -0.271768977424 -0.146390135457 0.468119487949 0.0210064345841 0.770819923307 -0.787326920195 -0.625642997327 -0.231194599061 -0.327772108495 -0.041937534438 0.0470167432519 0.692703141688 -0.28920040938 -1.20978303767 0.888376701924 -0.622275011347 1.49174869308 -0.770133889008 -1.02249164632 0.100094548133 0.462265341125 -0.516202058101 0.691874666815 0.477097585429 -0.330664741834 -0.590561074991 0.03932944165
unbleachedflour -10.3783763325 1.07687358626 -0.932780104315 -1.33621349511 0.0619123400808 0.784848009615 -1.25050701776 -1.2026031808 3.74834281798 -4.41150328436 -0.0825850296666 -0.170891989203 1.47163200521 1.40311988149 4.57555956052 -2.63990448116 0.727667451076 -0.0401449162336 -0.319088605608 -0.881494365809 1.40737903098 -0.657022688538 -0.457896791097 0.302207953818 -0.966841922218 -0.0317326755296 1.0767636984 1.36812169825 0.680217873259 0.277790846392 0.00563343740371 -0.647006066767 -0.83546264257 0.547792687382 -0.748589123112 -0.298254335934 0.231906707411 -0.110927861086 -1.35199558014 -0.0164453481782 -0.607654935162 0.546011041572 -0.306459494749 1.19382024395 -0.416686671425 -1.22082155334 -0.531792092276 -0.928737816418 -0.938881341892 0.501313850805
crackedblackpepp 3.42153095614 -3.1658932185 -3.31858909478 -4.62883558857 1.22489364072 -1.49428284334 0.97426954928 -1.09037827822 -2.89498891888 -1.62049411758 -2.08894457325 0.0101934047589 -1.09245396559 0.513151485974 0.21285198697 -2.37731818346 1.88538555882 -5.45987570728 -2.27878833113 0.71840871047 -0.0743295609298 -0.827415665073 2.67664436941 -2.37962874388 -2.00452156903 -1.28928606905 -1.51311617168 2.25754375863 -2.50119317289 -0.182572246711 3.83131660369 1.79752015983 0.64681644909 3.9467559908 1.01459310705 -0.989834499528 -0.237961163949 -0.129906438185 4.03837022649 -3.66790720122 3.25798820011 -0.548539560127 -2.03825604494 -0.141451107653 -0.401552463105 4.24531369745 -1.10057634513 0.792901691943 -3.45919270155 4.45806291819
beefstock 4.26470528003 -0.318311932798 -0.2592687989 -6.08864906377 5.95073891769 4.69867608479 1.27386290277 0.677791637558 -3.66570785724 -0.662935458406 -2.86385946719 -2.49759467397 0.147228359196 -2.2380791263 -0.425796888895 0.417906909378 0.661017176122 -2.07196305371 -1.52918668007 0.165284583374 -0.399406500141 0.367442813563 0.160220954713 -1.00254523104 -0.268194637448 0.128597048162 -1.44283363772 -0.354223620939 -0.523218109483 -0.218397013298 -0.402265882872 1.33997846026 -0.346253609361 -0.209793721746 1.83463437995 1.04079736776 -1.17063890697 0.183947661316 -0.743329982314 1.25257475247 0.896109372782 0.444576631495 1.82003323109 0.501777901362 1.23541033502 1.18730471209 1.07928743205 -0.719732161169 -0.00733536068728 0.754720861818
hoisinsauc 0.0121865595679 -15.311016408 4.78877648899 5.060086184 -10.5254239116 8.79727951274 -3.08192094366 -4.79674440486 -1.48161875318 -0.617072372785 -4.4510574999 0.906103113709 -2.66162292684 -2.1196552276 0.311962961529 -1.25830271875 0.71399701742 -0.930189113456 0.178984419517 -0.666222516227 -0.073851787453 0.484040827557 -0.861245542685 1.85062976209 1.632796828 -1.86370081012 1.89341523368 0.186403695355 3.51544354101 -0.0818890570711 0.38813033432 1.10320863767 -0.337742232923 1.64342707536 0.328456401302 0.483090625351 -0.593280421059 0.984568595626 2.48504440969 1.64709423041 -0.61540960379 2.13215503929 0.631660547561 0.881090634439 0.239898188382 1.3144094966 0.39083046272 1.74208096672 1.04369275118 0.881972296969
bayleaf 4.55649072876 0.113269533157 -0.52276817683 -5.66804886165 5.0631933444 3.47687436304 2.02637811802 -0.133351674404 -1.26397013597 0.780814965707 -2.42049133056 -2.19549200204 1.12003763387 -0.287141417662 -0.119053354832 0.536036029686 0.639956494943 1.34191066353 -0.156217418473 0.0739932670714 -0.358393019923 0.22759070142 -0.151357929654 0.103279585343 0.223159333234 -0.73950290759 -0.554761378196 -0.305511714603 -0.614135965947 -0.642486553986 0.0212707471241 0.645348780414 -0.262461205105 -0.298209214234 0.474616425031 0.576696331968 -0.891875810883 0.349084878676 -0.354410606597 -0.406552843707 0.0896478898724 0.565226882125 0.998169658018 -0.0315062478848 -0.765910222462 0.549547666059 0.596337787955 -0.21823204936 -0.120365347772 -0.177489469104
stewedtomato 5.05082451704 5.02969066249 4.70090927211 -1.43908803641 3.89659488085 4.17271138846 -1.43977105057 -0.72588675637 -1.98307510571 2.0014449973 -3.1240861036 -2.18722000155 2.10965153255 -1.03646077927 0.601463421111 1.15455826864 0.180727398297 2.60725229652 1.24516609939 0.841064976173 -0.226900548943 0.938407290947 -1.19454414248 0.0677744293669 0.268569943525 -0.0619262607777 -0.255887737171 -0.716973910511 -0.414914131332 -0.55025942028 -0.516587924367 0.605086006672 0.821191955913 -1.64098878982 0.274377498508 -0.769861187104 -1.49990633594 -0.661999425773 -0.888047332143 -0.420292856212 -1.42643982804 0.790904086733 -2.06430616358 0.528598881015 -0.0854601401771 0.296442602723 1.20652254712 -0.233007915357 -0.643161861086 -1.01631078647
chickenbreastsbonelessandskinless 9.41521524269 2.96420066743 -3.36128778321 4.83860069337 -4.40732217188 -3.75414399834 -0.498729576859 -5.89644951548 3.33764127859 6.24984030981 3.98093998276 1.95989847227 2.36072181181 -3.29310263012 3.71319364086 -0.821413677307 -0.765252190306 0.696133266268 0.840608975546 -1.38633650009 2.31174481757 -3.0265423205 -3.60476855622 0.672768346174 -4.9107522117 0.662600504465 2.02049581084 1.18572707626 -0.382030094895 3.50909401711 -1.62200963681 1.97249306486 -6.04311899078 0.612459832601 5.88534747445 0.796479066893 2.72675296531 3.37137744734 -1.01633757689 -0.096687019962 -0.343118463821 -2.89324088196 -1.43241124577 1.32236986821 -0.251792711027 0.92660044731 -0.94290353877 -1.73428748329 0.5489751007 1.98237031512
powderedsugar -15.6843303491 2.89486792735 -1.2826066423 1.78545091178 0.27964879879 0.878746555565 0.282487874343 -0.987900510533 -1.36896556828 -1.60077281124 1.58601448061 -2.26920688887 1.04096998311 0.600440257612 0.0809436727837 -0.791736860074 0.222401702583 0.218019031132 -0.171056808967 0.241610877878 -0.823479503726 1.01468738885 -1.02296215799 0.65282977523 0.02107637044 -0.657057704332 -0.565738579631 -0.281604161023 0.201089478898 0.470923645201 0.178268550942 0.779777082998 0.36963184553 -0.607053853173 0.117226149413 0.905546222468 0.10949878215 0.882039493268 -0.131111763587 0.590757672146 0.0785695726788 0.576982703986 -0.498060496621 -0.678530886084 -0.23941368278 -0.680310297115 0.511385484201 0.487808901022 -1.49099356762 0.151418836828
bayleav 5.41965823857 -1.34665586306 0.140980127176 -6.12290045167 5.53168577902 2.16701538054 0.468563466819 -1.31888028697 -1.70154116769 2.68637134275 -1.34520561009 -1.63080278531 0.774415753976 -1.23941061152 0.888641594575 0.603757655348 2.04454419636 2.05637734617 -0.406525959398 -0.516663527258 -0.380440956137 -0.260250362019 1.3552871145 0.683646932546 -1.03610391233 -0.851121405914 -0.189335389043 -0.616640982342 -1.85107880724 -0.023085999445 -1.3413798289 0.652040013354 0.216603820943 -0.41613699305 -0.220219184723 0.641579622165 -1.26251671214 0.182821519497 -0.248454278239 1.21889289393 -1.29188858009 0.110485751725 0.34294477103 0.407059352148 -0.889130369002 0.472660378876 -0.0146043840103 0.24479260542 0.116639728871 -0.0929272630507
buttonmushroom 7.43672258783 -0.282353101975 -6.52373256281 -3.61689594965 4.33326943149 4.49779612576 2.36760230462 -1.84957328953 -3.09133918709 1.14485666866 -3.35331316567 -0.0592700514819 -0.929830193063 -1.99981781687 0.275121136045 1.01308650747 2.4946671262 -1.59847303007 -3.93744409954 -0.809090554029 -1.72735161508 0.0632782334539 0.740981553052 -2.22798775894 0.520912952887 -0.526115013146 0.24452119946 3.75584224907 -1.54774452794 0.544666765073 0.14932928507 1.60898712193 0.434897149055 -1.01081245317 -0.20947057869 -2.89750937211 1.68554234706 0.473124686877 -0.193285935634 2.19034644895 0.781232865139 0.949248955241 2.69501607672 1.66523122146 3.24328926755 0.478090153665 -2.3037906388 -0.936907220221 -2.57631872354 0.599447404175
choppedonion 5.23684472355 4.58188989154 5.13404971417 -3.40379982987 1.27086152674 -1.40754436407 -4.73800091974 -5.1723992405 0.122896632073 3.73262010808 1.34990987018 1.4787571176 2.82921159035 1.2598926605 -3.91102627174 -0.883223208985 -1.3667703189 -3.97822194701 0.0362840135403 -2.85296322592 0.450822324677 -1.19607505849 1.83942883877 -1.11205642417 0.36095788539 0.740412063599 0.38608900547 -0.241096375425 -1.09531762917 2.4825070027 -1.79976935517 -1.62908107154 -1.55546830795 -3.17047133047 1.62681466281 2.8631604428 2.02442194455 -1.53009775094 -1.0443931092 4.16506164103 2.2175866656 -0.0265772382703 -2.12620666411 1.38508783376 0.311159260615 1.29575344624 -0.0268269240053 1.22845274353 -2.43429611717 -1.39052960239
lime 4.52816561242 -10.2964608315 4.63456026713 6.93989957977 4.64358808883 -4.9659376132 0.156595484778 0.303116425108 -3.56750373615 0.342779929047 0.995067905113 0.157404810548 -2.50653258772 3.4734375708 5.78116896271 3.20136005819 1.9891436968 -0.189186310821 0.42539677859 -0.303283844875 -0.943316213964 -0.3917151804 -0.838479298798 0.75684991391 -0.930886902926 0.0747418445588 -1.91693691982 -2.34515389495 -0.503651621002 -0.425493118889 0.063973699872 -0.916801781423 -0.565610852344 0.406959263284 0.388394243057 0.58444875958 1.05927515005 -0.19740877277 1.65137675946 -0.237605770854 -1.58610484546 -1.13856138295 0.579073053404 0.207018969601 0.800038731223 -1.12887866441 -0.584567136194 -0.602685728352 0.221828518205 -1.54405427478
groundturmer 1.8986019477 -11.2128250894 2.74167980922 -0.913262161462 9.78382041012 0.316007970561 -3.53351084486 0.313415971584 3.27975277114 0.771618388798 5.81748610563 3.70447513215 -0.574781116674 2.3944652215 -5.75452434508 -2.29172095344 0.490800028253 -1.99573638251 1.1448716937 2.20082747511 -0.241956687311 -1.38981018099 -1.01112617624 -1.56622302014 0.525723306277 2.17275219732 3.58659658546 -1.14499432463 -2.3164495926 0.405674493355 1.32819703725 3.4393728837 1.72894980723 -0.141468093117 -0.291364672351 -0.597528942656 -0.820941525744 -0.768250034546 -3.25391069662 -1.63668260207 0.312874683968 4.3817218118 0.0151995101638 -3.13492328268 -3.45820719843 -0.352511064063 -1.66725741 1.04197317005 0.443060985686 -0.159822790132
blueberri -13.457119584 -0.112719476471 -2.09399970059 2.06520452801 0.57615360296 -1.61757857156 0.861408902156 4.06113940256 -1.90516796574 1.10967775176 -3.76818129513 3.91095767759 2.48184660687 1.16143665947 3.83963268401 -0.810191423573 -1.04552275483 -2.90739000517 3.18016910567 1.88302354396 2.50355928878 -0.0348337920937 1.11648743479 1.85137309123 -0.435349421117 1.76291930396 1.65139346568 2.49007747412 -1.21829161468 -0.941116534395 -0.726088927747 -0.158177064785 0.0515978044387 -0.658135185906 0.250765033131 0.114450430713 -1.52703653187 1.3824696307 0.637604733885 1.13765404439 -1.65083524064 -2.70695600253 -0.886395783145 0.652309928496 -1.36145242334 3.7421131378 0.680885067153 -1.48856792401 -0.618656105578 -1.29678778392
oliveoil 7.13538586696 0.190547952025 -5.28162715555 -0.182584860082 1.35404255785 -0.481342256487 -0.429504112299 0.276667761707 0.0118701987663 -0.116231944505 -0.535770147497 -0.898194878404 0.287583333178 0.537958796408 0.0462812611835 -0.158462518858 -0.376829948369 -0.0292640142756 0.460571469986 -0.411458210252 -0.369068095968 0.0574335143118 0.107140870913 -1.10260540807 0.723836278828 0.0309425596784 -0.547050277292 0.593378480493 0.106941136176 -0.332041953501 0.465747326696 -0.116129774875 0.100140473322 0.33666851373 -0.302158457622 0.457341766003 -0.598795594706 -0.0736711503433 -0.335548531719 -0.0784357381734 0.108611909112 0.179221637786 0.158516758813 -0.118474214065 0.166527319621 0.340216093169 -0.121208976923 0.315830039057 0.239398518354 0.426067056255
garnish 1.04194620026 -5.97511068875 -0.155517526002 2.71031391361 0.233905034018 -2.48409468481 1.86998942093 0.174178099522 -3.06585815218 -1.32540645946 0.774815590469 1.06297264309 -1.18464462908 2.22597307673 0.545075196405 1.30741576166 0.469618352997 0.947490100865 -1.53370686025 -0.278597129594 2.09025451156 0.580204197477 -1.01101996564 -0.0526878498729 -0.389722566626 -0.552787380646 -2.72115910886 2.07298370643 -1.28694048459 -0.395041393469 0.0243028604469 0.213266485622 -0.450796574728 -0.0250577922149 -0.134733940343 -1.29938938587 -1.2686335953 -0.983361757479 -0.424142784801 0.809168488681 -0.227844636249 -0.337460555017 0.908862701696 -0.0144494214258 -1.28622050448 -0.512494532254 -1.30930808288 0.798217554544 -0.556885770485 -0.286097839313
bonelessporkchop -0.76966385458 -2.66494220552 2.14315054447 -2.77478317543 -3.1819488729 0.779263693064 -1.60112520731 0.609544138827 -0.217254745415 2.58470216273 -4.4537956754 -0.492463992381 -0.46436139565 0.159138928197 -1.22284881594 -3.27809437504 -1.06893643837 -0.550328566549 2.68721950244 0.368989021907 -1.67717597103 -1.52095911727 1.77950101198 0.642370900457 -1.07706384527 -1.32184669666 -1.86383469073 -3.14105068332 0.087567025867 1.45830758809 1.71556713012 0.903234719822 0.411960156773 -0.826352607664 1.79490415522 1.02191513745 0.713182104191 0.469191991939 -1.52480283781 -1.1909340113 2.66291344905 -4.05793278866 -0.671900544487 1.77626970936 -0.784072786029 -4.23214729051 -1.35911315655 -1.32502355555 -0.50704923853 3.59266315345
cinnamonstick -2.00362637543 -13.4269465754 1.72141441394 -5.55978307107 14.3700660297 3.6625246396 -0.347028385602 9.06808480223 2.21409233029 5.04997281556 7.44019041001 10.3383253966 -3.70432518974 -6.80554687477 -2.24441858732 -6.15948303467 4.91629625172 3.72658651196 -0.956994919561 -4.9406221529 -5.58906557728 6.00612915444 -2.22957417169 3.42761892697 -1.19252137368 -4.32746651081 1.05292554364 1.76425173043 0.907465962195 7.58968870741 1.47379770204 -1.35524692208 -2.19559471359 0.325871328171 3.05779570697 -1.55729862936 -2.49901139926 -1.56809683857 -2.22723415272 4.79654248406 -3.05635600822 -5.88315808024 1.16176310411 -0.336326502176 2.56444135086 -2.69234350948 -1.58601970182 0.247808220198 0.566018844506 3.97660332953
greenpepp 5.33741246682 2.66732782691 5.40394619091 0.169943456728 1.23205337676 2.39379819706 -0.699396937245 1.62422115551 -1.37216480694 0.580148818526 -0.5166158073 -1.55851896669 1.26025616985 -0.924904832128 -0.0823252042815 0.690381553646 -0.707717821448 1.84479715962 0.6810353724 -0.0278327791591 0.526495339513 -0.0900880224862 0.368890214693 -2.36907284665 -0.649600925674 0.447120306445 0.224282740393 -0.722819484028 -0.496150355368 0.651860163992 -1.55568441869 0.96874938163 -0.121119123587 -0.160790646686 -0.400171641891 0.698794972207 -0.106918439213 -0.471261212679 -0.202675392189 -0.113824719991 -0.7244452699 -1.27055127968 -1.07744182608 -0.181031080838 0.0941184484884 -0.0932455942307 -0.89308155695 -0.541086375775 0.029373068161 -0.893125501404
pecan -15.1176911059 1.83253164122 -1.26417477888 0.58267661117 0.392242167276 -0.249689751591 0.183370214176 0.308625952348 2.01708048903 1.20286865874 0.897043518755 -3.40597136873 -2.1894491395 0.36409293491 -0.188399326672 0.273166760005 -0.186478909462 -0.706706869761 0.220401818289 0.802223685901 -0.658911869442 -0.398448976159 -0.0127204416157 0.0333185004313 0.0758052571431 0.170448889 0.239492801861 0.661436329623 -0.00282371181539 0.019062050494 0.176973464866 0.0143179800392 -0.66763908313 -0.352430826669 -0.580830550296 0.836839288222 -0.173362482635 -0.331994152745 0.84085156944 0.363167195508 0.148165422501 -0.413378134835 0.0111287094156 0.527291141238 -0.337071027148 -0.696730885693 0.347497242071 0.475078669042 0.113644255223 0.37973147566
choppedwalnut -14.1463046703 1.76606184631 -0.976476236167 0.316639357626 0.511932219624 -0.585941852464 -2.38183283824 -1.19288294361 2.6834894593 -2.24768306516 0.473581877831 -2.2816030841 -0.547086301179 -0.790430553907 -1.04493031512 -0.044274810817 -0.11442972344 0.209068239799 -0.0149073619707 1.02017660571 -0.122822717262 1.99771952652 0.42325856858 0.642933010853 1.02234085259 -2.4608147736 -2.17409313919 -1.68222114143 -1.57351016559 1.11890660274 0.185300974721 1.38636747386 2.82107368519 0.812138742218 0.686305388061 0.991097844544 2.35188755064 -0.948698770505 -1.87530631954 1.32399277377 -0.816844720698 0.501814568453 -0.15950221474 1.54593359788 0.37313963933 -0.253625303562 -0.983147541557 0.071149121576 -0.335146034753 -0.775214663269
orangepeel -8.7883158512 -3.3868313942 -0.827854365758 -0.175953742869 -1.56128712538 1.26639873819 -0.00933713437124 2.28615692923 0.822883409819 0.736079783554 -3.46429829971 2.20067800914 -1.39601392874 -0.895083339432 2.21180212372 -4.63427534104 -2.57480100505 1.40668787838 0.301427053956 -2.72847446944 -3.76362883721 0.731436511405 -0.74115452803 -0.37448232661 1.05712326687 0.818374931205 -0.224131082254 -0.60804794779 -0.0554292746221 2.40524938855 2.21970875288 1.50114099711 -1.04625468545 0.98761638669 1.57558907637 1.54046560961 0.796841825663 -1.43545355031 1.77790919365 3.05327967835 2.87616545731 0.485030565112 -2.08087240324 -0.945072357491 0.749689470597 -0.21340453831 2.48349938022 2.34224698193 -0.66814088193 1.06045469448
celeryse 3.16931896789 0.222789203233 5.92839444571 -10.9037331846 -4.23803631129 -4.4574023465 -1.88235817316 2.38948814799 -1.12678415841 -0.284619811776 1.2919211387 -0.594132145326 1.02134328923 -1.90487940187 -0.294891048458 1.30771869706 0.408936714151 1.82900182877 -0.871766054727 0.819953661621 0.342874803708 -0.973411795607 -0.329314532784 1.98718344729 1.35693177632 -3.34378567706 -2.66284812527 0.164722726604 0.743314659745 -0.178155384623 0.0658065431747 -2.15293712524 -0.537687421803 1.87106309015 -0.891353799681 -2.02800001661 -0.849137673103 -0.369220236153 -0.802963092104 -3.28898897878 0.160813994478 -0.127657065334 0.491996596225 -0.439053172564 0.248149940248 1.71930765404 1.54402821508 -1.1645090895 -1.71381304 -1.99052011747
fatfreesourcream 3.27939719417 1.7619298092 6.13475447395 1.31436639278 -1.07159488073 -6.16644050958 -0.616875192611 -3.45676059602 1.65565625942 1.44781395904 2.17780638708 8.25893248227 5.83879268976 2.48054297413 -4.88632191166 -5.81156988666 -3.74987426277 0.00993730052054 -3.80831227486 11.5464601453 2.99066664516 12.4778410913 5.48402049694 -4.3938755418 -0.232409592716 -1.0617928095 -8.47905739902 -6.80244850747 -2.21081175302 -1.68716230022 -0.741213680641 -0.908914851524 -6.29311752016 1.5358072128 -0.628875950755 5.296953619 -3.65625783456 6.46927261414 -4.74614732483 1.61826195677 2.1379270681 3.3982616627 1.55070027567 -2.4552070434 3.00813263606 0.245941608611 3.23026973985 3.85836102077 6.15593259321 4.09661376345
freshoregano 6.73820900287 0.253420469027 -7.44960318125 1.07314820759 2.75691140347 -2.26980404819 -1.81396222434 0.125530218775 -1.29589031548 -1.87598067851 -3.02771809661 -3.69293593964 -0.822135973234 -1.21155244476 0.612846449454 -1.36126436687 1.01744514348 -0.749524595425 0.356379035857 0.276261084798 -0.330955761188 1.34153911895 -1.83724711621 -1.44492325164 -0.404998573559 -0.37577056751 1.42278138508 0.277862205118 -2.44613113853 -2.09424375152 -0.164606156643 1.35215317077 0.940923229229 0.515695772212 -0.327641859017 -0.817395431549 -0.215142677863 0.45104518036 -0.709551365395 -0.123339244419 -1.40729666751 0.351415801714 0.809856694871 -2.64790140552 0.742872560898 -1.59528938477 -0.788074112358 2.57499033166 0.375349564362 3.10168158142
salad 4.46056365597 -7.17485774248 -2.29194533515 6.5347272729 -5.12362802589 -8.41063049206 -0.593318157201 7.81840948679 1.52032733688 -4.146487056 -4.67963770602 -2.56141988308 3.8740076203 0.617686792464 -3.43806881573 3.03490617554 2.09296772299 -1.48673315711 0.944078123747 1.08289086532 1.41661609932 -0.248154669774 -3.0868991145 4.25273495789 0.674457269231 -1.6368517243 -5.29296825016 2.10232438587 -0.71792936958 0.556580663096 -0.735128261829 1.766791678 -4.13474281318 -3.87655083485 1.41450744517 -0.643471170367 -2.57614212414 -1.38213907389 0.615543534181 0.803927026782 -0.299255194153 1.62325715118 1.66598190377 -0.246458146773 -1.07413599945 -0.925983735153 -0.651022307806 0.528212582221 -0.370323934346 2.17118382873
meltedbutt -9.86516315464 4.59847972983 1.01578851573 -0.137828740678 -1.15848247599 -0.758319244606 0.192091253249 -1.09951299793 1.90872398984 0.281807347695 2.38205920399 0.292038346497 0.670397808324 0.188847452093 0.530517377079 0.0529469372678 1.93035710281 -0.590110743017 0.418508607934 0.0152867278414 1.59122473058 -1.57226403024 -0.0356910970554 1.03066845258 0.62740285597 0.047098144158 -0.379946971583 0.355535512075 0.254935086467 -0.811955097116 -0.142895082553 0.089874637664 0.121389245496 0.685752338598 0.903863225563 -0.0829630414568 0.127773517655 -0.786294486251 -0.365915799685 -0.404334793763 -1.02075949361 -0.119311963118 -0.293939299131 -0.303163116411 1.28247883384 0.293338326772 1.01525569636 -0.726742389543 0.532185782656 2.57551339167
beefbouillon 2.65998217591 3.69280204418 4.96589004377 -6.33788032275 0.468601694427 4.46287970478 1.79266790976 0.812247570767 -3.52930870337 2.21222370847 -3.84250603223 -3.73201645388 3.44602445863 -1.88649077942 1.67872289693 -0.347241925302 0.87552656857 5.22715663272 2.54271458791 0.8128092693 -2.45504522595 2.36777692215 -3.06010048741 -1.06416378922 -0.636479950156 1.17522373744 -0.75875222668 -0.443818939588 -2.89380707764 -1.81188781301 -0.18750280564 0.256021561231 -1.20541062841 -2.94529829264 2.09652257481 -1.69660398231 -0.365913273969 1.58847309864 -1.5282184577 -2.12857340322 0.971333421982 -0.699904536762 -0.380333435217 0.430042868267 2.13696693591 0.306823031156 -0.810248011124 1.4125917108 -1.07554958667 -1.85134725046
freshtarragon 4.93162533924 -2.78083317853 -10.7151966341 -3.01741369792 -0.766017596099 -5.53021631382 6.77779216162 -3.59560694189 0.544876784832 -2.80998333748 -2.15043926488 0.787776876585 -3.51457200771 -1.40864446955 0.49921520231 -2.98591913901 -0.486596430081 0.905897134838 -4.23489794041 1.41392633981 -0.269141190984 3.07141257492 -5.64611331583 0.970274703058 -2.32926333464 4.26864057619 3.26345376214 2.05989827342 -1.42968652621 1.68395187939 -2.04634612722 -1.68385214401 -3.10220401997 -2.01313646934 -3.07226304118 0.828871400408 -0.508002208075 -2.50689117472 3.69313176598 5.07308940183 -2.20363510951 0.893113531707 -1.66370042253 -6.22212827922 2.04222401588 -1.71917783814 0.269188396749 0.999531431417 3.42167042294 -2.38349835758
unbleachedallpurposeflour -10.3592195651 1.33269777904 -2.27545990411 -1.978953718 2.88299206468 -0.406844433963 -2.03148634444 -3.31236840082 1.75837263882 -6.29902107259 -1.71774380905 4.38188693201 0.921838435368 -0.029605762357 0.44015712765 -0.292172848283 3.50351176708 3.3324028666 -2.19871706976 1.01202385688 4.83038379039 -0.274869416629 3.41805584777 -0.856928885226 0.949634152826 1.45991312417 1.10297794311 0.332557235007 -0.296674624697 0.684720542287 -1.16978211378 0.465820567068 0.566897634672 -1.24892668285 -1.23450679609 -0.531191365713 1.14420334966 -0.951934217032 1.55973793181 -1.06772472341 0.368715771828 0.412177547018 0.763191814641 1.4748734927 -0.640381746894 -0.144133078704 -0.360964169167 -1.11654933761 1.58848726836 0.179811142788
seasonedsalt 4.3153991649 5.10133567655 6.91679800291 -6.39875032468 -5.40359287453 -2.09947973323 0.663782234541 -0.674898512362 -0.967489246854 2.37508507283 1.11946301064 -0.414663451796 3.05713731437 0.758020666194 -0.760124511567 0.229611768364 1.15016575304 0.736520313647 1.06658774157 2.24410661385 -2.53031208784 1.50941043819 -0.655970423146 -0.685047667056 -1.33297706021 3.29766817424 -0.644445582176 -0.214172065037 0.334486248631 -0.370951456109 0.886119638467 -1.18198586898 -1.59534523938 -0.599980747393 2.31328332113 -1.98881199509 1.85520258375 -1.90574240208 1.02827551558 -0.506237923011 -1.08734371465 -1.52558870533 -0.725061558858 0.336494873109 -1.5906037266 -0.563136814217 -0.985463913434 -0.380267528448 0.487391262011 2.24115578815
oldbayseason 4.29507401462 1.99173437142 1.59761765704 -7.64785990996 -7.50272851497 -5.84068323905 6.75756041221 1.96165173265 -3.38668394184 -4.59703097904 6.7074709839 0.49883527315 -2.75352795671 2.05235261241 0.190309816473 1.59454408367 -2.55465755045 4.57831133739 -3.21749405807 -1.10886784894 1.44106123369 -4.3438706712 4.83498789051 6.22114818484 -3.4119266678 -5.24082051424 8.02125413182 -0.404134811041 -2.90602873034 -1.34510497948 -1.36163311784 -1.10858409672 6.19308244419 -0.364663902885 2.3833776923 1.38841798167 -5.5830178496 -1.05140960291 -1.00977434648 2.92674018069 -3.98113995615 0.785469064178 1.0321574893 -0.231116471258 2.97859057059 -0.654666200061 0.0294727549181 -2.25491225659 1.91069842448 3.86563397918
beansprout 1.28416970061 -13.3419624802 4.5258048837 6.21915149852 -5.5088213559 11.2776111317 0.465350188156 -1.89971583092 -1.6234822522 -1.05591338513 0.482504591294 -1.04454933295 -0.271047255937 -2.31567104267 1.16772518169 2.29415723462 1.78387563703 -0.864200979851 0.141882945444 2.42612404966 3.06521543927 0.150573240372 1.55817239014 1.61219572668 -2.30685079796 0.68284792914 -3.45979263602 0.640454815719 -1.71321967286 -0.438887834618 -2.64503289976 -1.75295056847 1.75256012357 -0.455586281816 1.0244032375 -1.74734291253 0.601814153539 0.375114838569 -1.1536337613 0.607201320102 -0.429163046958 1.52173541531 1.44284253819 -1.89400560138 -1.06587165852 -0.565056765592 -0.00293790063336 0.621950390335 0.700580500905 -1.83018296177
lowfatmilk -2.592654884 1.5395457505 -2.17590040419 -0.129019350392 0.0330953395515 -0.629045459935 1.05595931585 -1.25121473188 4.04047340481 -1.97155753053 2.42025605725 3.07030141676 0.59362659218 0.610392674088 1.82541943564 -0.48647731707 -1.79870871183 -1.80902687161 -0.818320347834 0.0241542681657 1.60622513945 -0.253549469534 0.273598403185 0.358342150126 0.0974960173903 -0.733649643713 -1.25251486969 0.114725150317 3.96108345469 1.94721844624 1.27212078733 -1.04693540873 0.403580335943 -0.261107748815 2.01129702966 -3.76603575157 -1.59908757854 -0.356815215114 0.576409389533 0.586483655084 -1.53710424844 -0.498618213238 -3.17162796666 0.456805046845 -2.18211411904 -0.461318476571 0.455236814106 -2.58595683982 1.07003139034 -2.56581056561
poultryseason 1.26474920941 3.72257652775 3.66274835498 -6.27145354414 -1.13618101895 1.16920739638 3.11898648088 -2.594696657 1.79886596066 1.74605168394 -1.49027660889 -0.0068493739199 1.46160398269 3.6540498088 1.24131204781 1.43881911346 1.56243209384 -0.979792896578 2.30027100195 0.920664208538 -1.92145205118 -2.19210633663 0.340903182484 3.23849009429 0.281437302694 0.363751609091 -2.9142914568 -0.50076773762 0.533040336709 -1.05363977914 -0.42969571554 -0.270078617568 1.2082023178 1.26980785146 -1.40052459393 2.11515163648 -0.0401785036423 -0.572410273457 0.38517689141 -0.719718060025 -0.656999103616 0.19574282967 -1.85802946599 0.223517376259 -1.8292210739 0.56713830586 0.915411512995 1.83837053368 0.555057914236 -0.668491266382
vodka 1.06926450333 0.570390812542 -9.58736239084 -1.27588961182 0.256577668285 -3.00379711506 -0.921565420674 1.69296222592 -11.7428139077 4.63218193124 0.76686409943 2.97243436134 -3.12046008464 -1.17419601141 4.87752187024 -2.37045374955 -1.12700023752 -0.413122036469 1.38759860084 -11.9439381819 3.05089523191 4.92829996334 -0.0365412776832 -2.5354621001 4.34062689778 5.00099192981 1.47241563568 -1.85719239472 2.52223529211 -4.88382855536 -15.3729554995 1.47620329752 3.52725340107 -1.01884315328 -7.47744709205 -3.33943415888 9.05808079254 -0.821567606925 0.634491946458 -3.3950377022 -2.83667475256 -2.94534034527 1.31399651727 0.34894387688 -4.25197862007 -2.55504005318 0.480137380295 6.09361747078 -5.17909311464 4.5120081335
freshgreenbean 3.54505793571 0.567633844299 -3.99283318306 -0.461243298431 -0.224070753778 0.212830733618 -0.13697548467 -2.90739922649 3.68773383528 2.34932108664 -0.789675156512 -2.16046967152 1.93365361872 -2.75189389676 1.14544495379 -0.343925900903 -0.57124429116 -2.15866593132 0.103236606717 1.13625443668 2.01970934488 0.356857340086 -2.08550528057 2.57789429832 -2.09630863543 -0.976740645018 1.2639337205 -3.55730155776 -1.4166050529 0.699098446584 2.41834805545 -0.603775654144 -0.618129136638 0.483065379496 -2.13397556714 -0.659143644303 -2.5445007682 -0.623319357632 1.82704216876 -3.67092000188 1.10450229985 0.188413306431 -5.26024781429 2.87340243194 -0.0064145497173 0.572848961077 0.549728825946 1.54388580906 3.17366594958 1.53201257061
cornflak -5.36021003364 5.93039325103 4.55250374011 1.1061864774 -2.92023247999 1.133429598 4.12492963019 0.254477958202 3.02940556457 -0.146519791744 2.32308197635 -1.11218460613 0.628684218684 1.49830770206 0.13000122695 0.308729052923 3.37818973251 -4.7177219008 0.581789680665 -2.60504838046 -0.0279575835934 3.37645204767 -0.0595480153751 1.02976695464 -1.57667195512 0.809205613376 0.527716778176 -1.0396811704 2.22712638383 -1.01542775066 0.576724036043 2.66241080339 0.490495918709 -0.70115506442 -0.638979253485 -1.06970532576 0.279773784638 -0.649585685146 1.32689155622 -0.290759808169 -1.54610835949 -1.84580133415 0.663840681208 -1.90199012553 0.671319923606 0.5565891154 -1.27188638545 2.43270775303 0.917306326584 -2.98704286306
brownsugar -9.71450520221 -0.614076919999 2.46364071871 -3.58665037308 -2.11333908322 -0.196881566847 -2.41677320899 1.12199281735 2.55281818274 -0.160693161936 -0.0721895389626 -2.31294460328 -1.25495814353 -1.15808849129 1.73162972393 -0.0264530390614 -0.875250098287 -0.804275313059 0.360116617836 -0.172829884853 -0.865196993656 0.838778465318 -0.470733403607 -1.24881423544 0.156815789861 1.00559412301 -0.415079798922 0.883950458831 -0.110919083379 -1.05810170804 0.459342415154 -0.769705293628 -0.216092886769 0.00457907840301 0.572779775054 0.258680010035 -0.367384391838 0.925407597281 -1.07046446501 0.910409063358 -0.610449235016 -0.241456077006 -0.083825303201 0.117506192899 0.3326665085 1.04278262548 -0.308751272915 0.00510185542511 -0.0855305423999 -0.288699470898
freshcilantro 5.48297527016 -6.70261494296 5.20066190879 6.95543167755 4.34852320362 -5.16949289879 -2.15158135963 -2.20975382013 -0.839200150904 -0.867062636371 0.353202687353 -0.552162208784 -0.987338321627 2.83205198712 1.16468706136 0.662978498867 -0.193690701132 0.127966789756 0.215639429817 0.117909568485 -0.157249112935 -0.172498227606 -1.46791266673 -0.164638361703 -1.1824683774 -0.146309621419 0.734887485532 -1.25190349973 -0.59406277632 -0.758914498072 0.867692434076 0.495828283995 -0.286804753828 0.513500551271 -1.06300658237 0.181018662061 -0.000897004032077 0.548791418495 0.721906522798 -0.541077382524 -0.298603615694 0.482007746616 -0.169726570798 -0.735154763429 0.509950625914 -0.724449677368 -0.478366504787 -0.0926957945937 0.102143453229 -0.232871068805
redbellpepp 8.14063840679 -4.0170306232 -0.395952742951 3.3413667851 0.433377728886 -1.83921976181 -1.74283341007 -1.86218644687 0.531132211486 0.182733963422 0.508299232467 -2.51526631008 0.789504425782 1.58760185926 0.398759477004 2.35682188719 1.01130173869 1.50388658836 0.85538386617 0.956677355343 -0.888047376367 0.368332914036 1.40587416762 -0.945569744254 -0.0487811696761 -0.593945826233 1.1967307526 0.425412380662 0.716726971151 1.00593960097 -0.303332284938 0.582971279185 0.553753988128 1.20787839053 0.0798387204035 -2.09973066743 -0.699092273389 -0.0236181172849 -0.597158183051 1.55787757791 -0.909652834855 -0.299199349675 -0.144118439122 -1.45746069553 1.12177607261 0.620008324047 0.0496375529197 -0.344181398605 -0.283311652572 -0.872679034081
packedbrownsugar -14.6452892762 1.29859161252 0.0897646509987 0.00255221165381 -0.761541316613 -0.875856908343 -3.04907945508 -2.6365083357 2.48280545741 0.455503415841 0.82892435731 -2.08314831714 -1.13782298782 -0.344398396345 -2.26378971466 -0.425527688121 0.454395173784 0.413936868251 -0.132098315609 0.826191206319 0.244924242577 1.3009199934 0.332630771829 -0.973047694818 1.65040852768 -1.34814682633 -1.62488387106 -3.03907167185 -1.29478482874 -0.638597240087 -2.0835834743 0.751821899031 1.40872169612 -0.97198705365 1.53032355236 -1.0466856729 0.873436753506 -0.560941639534 -2.4336800801 -0.956889795274 0.00616542837472 1.40481299759 0.160291902025 -0.143150764297 0.24392776739 0.136751388628 -0.0863636136431 0.0377495695603 -0.92079779431 -1.00177516418
honey -3.7860488311 -7.67077670809 1.41334950964 -1.98141729942 -4.30503384685 -2.85616801652 -2.86484135739 1.84888934859 3.47229014872 0.313525953511 -3.02100722381 1.1190626789 0.385914946611 0.541929129808 2.07194025377 -1.1819193842 -0.0610202842232 -0.393960960258 -1.75631032291 -1.12650209618 -0.597928029919 -0.276567915878 -0.715720100856 -1.63574900266 0.980576328891 1.14490435776 0.111236778889 1.01890190493 1.46315596471 -0.511415048771 0.73688967651 -0.625731567898 -0.481796455146 -0.389675688271 0.754760276756 0.688599875035 -1.01403176314 -0.0299802195793 -1.42740678486 -0.26056439611 -0.501062056458 -0.39970086228 0.00439030663485 0.000373859488118 0.951324949518 1.08806291634 -0.142641625633 -0.835518338702 0.859927819998 0.0373136436976
carrot 4.82374637458 -1.85055395684 -0.243088707598 -3.57942365527 2.6894496183 3.85651418716 3.16094600739 -0.57476807766 0.717173554945 2.41044389226 -2.34259882558 -2.23514144221 1.92017252242 -0.641427816016 0.318099449796 2.19218747338 1.44921209013 1.44282745394 -1.16746299434 1.53498908009 1.09696296343 0.864939417828 -0.192064273589 -0.777443738906 1.29215246078 -1.16674960341 0.032985267539 -0.0589813771912 -0.765128885625 0.59935054124 -0.491641048426 0.279801123042 -0.476551684669 -0.014482669741 0.206350786796 -1.07561369465 0.169828455317 0.515204627185 0.221598974334 0.687379099498 0.0423866728737 0.0190221601993 0.875630549903 0.333314638405 -0.558646713985 -0.0806807663935 0.718690788701 0.0291011011638 -0.358689639954 -0.739374426569
pestosauc 8.46182069839 5.51004154476 -14.051696642 10.1464505977 -5.85008335286 -1.18262982889 -1.73128061654 -2.59396224344 2.95575319997 3.25451040963 9.72555347634 2.52314989287 2.07306756419 -10.6248671807 7.57397659578 -7.05095814971 -2.31225403584 -1.95467330643 2.21409592575 -2.10702954784 0.631581202677 3.2542798224 3.23868082296 -1.86305988374 8.97190437929 0.0231379673699 -6.90967759789 -5.14060026361 6.52397173785 -6.73531169964 -4.57301380325 -2.30997199679 2.74814894338 -3.59471653439 9.16605950086 -0.960064820656 -4.76429462516 -3.17241134667 2.85363580243 -4.40432754549 1.19822131351 3.48980489646 4.41748636803 -4.8057058144 0.317346082067 -2.36331981076 0.151893296874 -5.37922046781 -1.28987140078 1.16796238411
dress 5.92697160922 -8.42100311683 -1.43810722915 6.2696257043 -7.65050214298 -7.74853517372 0.00386309946783 8.33711551323 2.66976418233 -2.83984047639 -4.59979857801 -2.32300135287 4.01808807846 0.55248999653 -3.54214772885 3.83703143642 1.67233900744 0.647761208547 0.185273643856 -1.55365044361 0.651900474316 -0.752567978905 -2.23773943845 2.6829096345 0.471773192707 -3.86209442949 -5.06086259133 3.20822045345 -0.0262569731178 3.01503623207 -1.95300512243 0.610751336421 -3.78259365959 -4.09176394757 -1.57927247752 -1.9399583842 -1.61683021546 -1.3890133491 -3.35223992341 0.580057411141 2.65891087709 0.0347439119675 2.85499121627 0.555901682246 0.559509822017 -0.22404163042 1.9185985885 0.0676502822609 -1.3703377964 -0.4326809049
drysherri 1.83865126275 -7.68125953429 -0.92835961345 0.767025856529 -6.90150548136 6.02914860258 1.15722780054 -5.0637661811 -1.09204398497 0.0500225786853 -2.5358802243 0.76431280479 -2.02469206593 0.0931536616806 -1.6039380899 -1.68292455818 -1.1205457331 -0.57765286411 0.571333424712 -2.17217144443 0.0510594487027 -0.317126493456 -0.40883342279 1.66603524826 0.102325546538 0.916812977185 2.71939906641 -0.174708512336 0.141494588947 0.134785484896 1.38571915206 -0.246802416799 -0.790289658033 2.33144585353 -0.382389543348 2.31616326019 -3.51721329449 2.73182358918 -1.4291319548 -0.911794885234 -0.00458824334788 -1.28618596658 1.17808265651 0.30289964875 1.03104581473 -0.148957387347 -0.967531822493 1.1684401573 -1.08546205638 0.901001416729
flakedcoconut -19.5759896351 2.46363437011 -1.06826010719 3.33123468007 -1.01856837575 0.102486472154 0.187192132036 0.225211947698 -0.997308965085 6.54575791106 4.95900019398 -10.8760218799 -0.691949235959 3.43452317925 -3.81061817311 -2.31168760179 1.42074974529 1.49889188252 -5.43934330345 -0.379702854875 -1.22734632894 0.34345634314 -1.50349574272 -1.4266423472 -0.534641218019 -0.758920852023 -1.07639529458 -1.17979794632 1.11354136502 -4.08874342269 0.233580891938 -0.518018838256 2.13775765336 2.46391298859 0.8812226007 0.0286719765508 1.2374810433 -1.49258210287 -4.79780572568 1.97227092926 -0.247751451789 0.298621773382 -0.642016988192 0.863953378086 4.57853899615 -0.42877072785 -4.12293785984 -1.33349938255 1.18958762197 0.977322691758
whippedtop -17.097082015 2.82359436018 -1.2610933279 5.17243034811 0.271012666647 0.21718707241 2.18923014888 1.57123314813 -6.64729128158 4.66360877662 3.87639052817 -7.06145524081 -0.639445918927 1.95704046797 -3.47482397898 -1.67013327641 2.42891741953 -0.511559464492 -2.32193198488 3.11908968315 -0.47061032629 -1.63234640088 -0.948241375428 2.64809372898 -1.13253593352 -0.729124764158 1.40972814564 -0.686798504549 0.561786435227 -1.62403684301 -0.96848890904 -0.939962532088 -1.02777182143 3.35326433179 0.607718752096 -1.49323703668 -0.766956106883 -2.61110477989 -1.93309012967 0.133828106186 3.06623727041 -0.309838581914 -0.913446090319 2.12033722728 -1.87389136898 0.00687121629754 -1.32984352651 1.17445388137 0.214379690823 1.3933662123
ricewinevinegar 0.954739782691 -11.3675922038 2.92009612407 5.0836001168 -6.88648537895 4.90251818852 -1.03705875277 0.0909131630042 0.438636274649 -1.05041813497 -2.36293499358 -0.678715464146 0.873191397961 -1.35418438663 -0.962387770512 0.633327844292 0.200530322724 -1.14920545471 -0.555499981572 0.201037527311 2.7927654181 -1.12558378587 0.228829162469 3.87223757096 0.000292077681138 -1.09127611368 -1.05341091328 -0.150951728656 0.609225842423 0.302979842768 0.0715492767648 -0.615144401638 -0.322700455471 1.75724722535 0.514720969835 0.713676355484 1.47607784126 -2.11419046527 0.555796358908 -1.17196833618 -0.251893584192 0.10932947058 1.30555034404 0.00942649689481 -0.309910693256 -0.0329437637962 0.0325668600281 2.0030026117 0.919223492002 -0.624942258226
cherrytomato 9.16949868314 -0.287249163121 -9.15931444895 7.41564740099 -2.78719980334 -4.37755328121 -1.65811998074 4.53337907144 2.20090152582 -2.77271015093 0.291442134022 -2.56836656831 1.83513524737 -1.58523193568 -1.68490787028 -0.235441312587 1.45260423703 -0.042873088385 2.94737867372 1.47688877313 -1.55817042433 0.551439236728 0.0804091947488 -0.878539423696 0.954129399292 -1.83734204051 -1.01570339187 0.607596795837 -0.587967254156 2.07679496166 1.47737235949 -1.25588115149 -0.691483342824 -1.43837740405 -1.36262373219 0.42766321456 -0.354210770669 -2.22733139338 -1.03222155723 0.524715762732 -0.263781305884 -0.563098754396 0.517810188395 1.0124467426 -0.43559163329 1.6850285947 -0.287300562999 1.84476722591 1.09409192096 -0.189692817105
freshblueberri -12.3325354947 0.306459935333 -2.19730418458 1.55532387178 -0.664924142554 -1.92671849424 0.33650488926 1.49731161027 -4.00916953285 -0.0196878467402 -3.61591679125 4.98349333515 5.09761541506 0.43957018575 -1.68260943761 -3.75108750004 -0.504344671093 1.24131176732 1.78576001464 0.288995558217 4.24785421666 -1.73078756107 -0.491519066454 0.4596447407 1.74387650066 0.431827597822 -0.281208977251 -1.28233704313 -0.826475118384 -2.96712886621 -0.474689976857 0.709383863453 4.63572525403 1.35872778896 0.100566482021 -2.12245655885 0.647219613557 2.82359686616 -1.18744891113 1.65946142185 0.272245133602 -0.857970882012 0.923111289917 -0.611369549654 -0.722208279609 -0.397962319932 -0.58722052905 -0.203819278171 -0.685876674895 -2.60692136356
piecrust -10.2394110239 2.76044920181 0.203724380555 -0.545185607162 0.597344501076 0.711829941352 1.48706169868 -0.0793769616694 2.36614208913 0.511746038504 -0.117995620166 0.000835434267246 -3.75503823233 -0.181761974703 -0.437289259335 1.32384753316 -0.23005300517 -0.472564967633 3.74671768429 0.505398075645 0.958088641291 -1.08904528069 -0.245162124701 0.424931462006 -0.0946880709276 -0.0781965881158 -0.589606565137 0.0160714376584 -0.263679283704 -1.80382071331 0.432827450461 -0.104129147915 -0.970410361957 -0.804295607879 -0.511135759963 -0.910784989038 -0.349039230731 -0.466218293635 1.49983215076 0.309124845787 1.25984289302 -0.704922485944 0.0431473125893 1.25698506511 -0.453504253571 -0.82001302131 0.403856809406 0.238899637789 0.846586025438 -0.488332131633
freshging 2.34313582066 -14.1589948681 2.23485759523 3.79315276211 -2.81372012106 5.15038821542 -1.94735208586 -1.44290332537 0.147158713394 0.266159865269 -0.213570157649 0.79885108519 -0.150514395391 0.02133303524 -0.839222242257 -0.111578311131 0.0583893733543 -0.339039434997 -0.735040167471 0.284938047443 0.717099445723 0.0537313878525 -0.875172568109 -0.362007604287 0.167820220496 -0.247174774318 0.662518857309 0.11754279627 -0.0444151775642 -0.428388121861 0.857862528557 0.649554802153 0.137934771095 0.939867103494 0.0558098389122 0.180632803549 0.876240951823 0.273844166318 1.48988970718 -1.11055257247 0.812402112969 0.785553844122 -0.430419073158 -0.877870179713 0.398536042002 0.528569512782 0.6062627785 0.782166764222 -0.52408144958 -0.114652555518
upto -0.496205342421 0.0870172159769 0.334866127293 -0.77113434996 0.0140527363835 1.31192491775 2.36895899815 5.41004260661 -1.33504441518 -0.164154788578 -0.549557395914 -1.17275064871 0.297340211742 2.9413722774 1.42313547326 -1.29862195319 -2.43031672458 2.67444140488 1.66539405884 -3.70734930498 -0.956675197016 -2.09275098924 0.556223603224 1.21070445046 1.07282044077 -0.100353014868 -0.570115938495 0.780937749452 -2.65229644203 0.377371745011 -0.276958468793 0.768215107544 -0.397606163334 0.917171648166 -3.10076846027 1.79129804709 -2.49453159309 1.44427724122 -1.21374421277 -0.10722443108 -3.32816691435 1.512359821 1.71095051668 0.133000360038 3.84525959374 -1.75331504016 1.42670704764 -0.510393843978 -0.563093929138 0.526980900346
miniaturemarshmallow -18.5810877546 2.76424609125 -1.26868178187 4.12047510975 -0.488827953468 0.26622237614 0.844903761563 2.09729720326 -2.729924435 7.6911180681 3.3846246655 -10.0885318473 -0.264293584589 3.89344264851 -1.92941261275 -3.31746323882 0.56017664947 -1.10467995584 -3.92486777004 0.0942672981046 -1.03187572503 3.03592322796 -0.0729353940234 -0.459664887417 -0.463209870209 -0.795003019973 0.554030963514 2.32473884296 2.45536308921 0.693822963033 0.94050004693 -0.346758479858 2.317789475 -1.8247096154 -1.1336570664 1.54285972179 1.82518397574 3.75943379251 0.295816934217 -2.69344450597 -1.90388015252 1.45986345936 -1.58727555174 -2.11865788776 2.55801352208 -0.676886450015 -2.45956704414 1.52299526288 0.964771343815 1.2706058338
mincedgarl 7.53412224469 1.10047809403 0.331983262606 -2.84125272184 -0.0976122164067 -0.839681585994 -3.87674099449 -3.87092547195 -0.665970975101 3.51965593575 1.72706488738 -0.0464669479754 2.29129535999 -0.349357654717 -1.9885943487 0.874355629709 2.37482400192 -2.97097108254 -0.298646447899 -2.76759944694 -0.333342634086 -2.89535079001 -0.13731940142 -0.132615765657 2.44219719013 0.675150286228 0.304620308125 0.625278556119 -0.422342818565 0.730854720601 -0.295979911634 0.0159655789838 0.544874940177 -1.38115660054 -3.15792438648 1.71038761756 -1.10248043018 -0.991512149485 -1.4011581833 1.13298956553 -1.02982874463 -0.986053175847 -1.7671045065 0.319810246328 -1.15523042395 1.67912460772 1.13736509832 0.717093565921 2.83575762977 0.4519127966
hamburgerbun 4.03929330028 3.48402220643 8.66958209278 -7.23267474819 -5.56926800722 -5.22675541885 -7.05442705844 1.90669663578 -4.32439499269 -2.500052871 -0.412663197424 -1.1945081301 -3.51551899373 -4.21853100823 -0.987531915347 0.836240616848 -1.5891580051 -5.11818303539 -2.30417352717 1.41504361319 1.5981315241 1.93386996971 -2.31801588005 2.34996787199 1.46396183138 -0.718941226645 -0.496416615122 1.32999248764 3.98250085841 0.168213285259 3.47063022386 -3.84430776813 1.63331535456 -2.65488704565 -1.00181003156 -0.688458471267 -2.44174993871 1.26529001327 -2.24306928902 -2.40495700947 4.08153938415 -0.8367633564 0.0975836061712 -1.2653784921 -3.76676923649 -0.068700543792 -2.61812575865 -2.76143090191 1.03530976856 -2.58699263902
bonelesschickenbreasthalv 4.36088411489 2.96917678852 1.71771040983 0.754043680011 -4.16404050093 -2.776688042 0.333762285034 -3.14339796257 2.5379522076 2.71920853078 2.88589274748 3.39177060603 3.14476961111 1.58123071804 0.813905443667 -1.61086926491 0.35030728872 0.457490935812 3.00251668682 -0.38615285064 -0.818059477648 -1.71566547106 1.95224982026 -1.41463440836 -3.01305680423 -3.33630398976 -1.85030112978 -0.284773366938 0.00357285460629 2.97619413802 1.20950889575 -1.42539622202 -1.67318842535 1.33973873206 1.0002900497 -0.709339684629 1.51491140818 1.15860375899 0.485056079366 1.94896449101 -2.038435201 -3.02475157019 -0.232182746966 -1.41240705751 -1.32548644595 -2.05334508515 0.408650547126 -1.41044710302 0.847422795552 2.84993828994
maplesyrup -10.027958516 -1.74099238672 -1.57989992186 -4.27087513401 -1.57584243807 -3.94190969993 -0.836701215136 -1.0447219533 6.81824713089 2.40992398189 -1.4661656512 1.60276296571 -4.51907828196 -1.27864778062 0.28206309983 2.45681117092 -1.43400982215 -1.45242526135 0.0998660745938 0.11106052622 0.393754723676 -0.934097552319 -0.41054238842 -0.141146683688 0.164034402414 1.46146827141 0.107471649085 -0.264711940722 1.09871109596 -1.11391274846 -0.519114346987 -0.394134326307 -0.523260177093 2.1057909501 -0.659456100439 1.84520031703 -0.337190337974 -1.54675761217 -1.43000757449 0.409912122815 -0.175584163923 -0.711481252493 -0.514800864688 0.557504473592 0.500698415229 -0.31985048972 0.678146267438 0.253596268075 -0.577822091876 0.199060005069
goatchees 4.77561384652 0.200581659494 -9.17895106837 3.6180614274 -0.581105214291 -5.83064069648 2.34712929334 -0.0576117133301 1.77575579357 -3.39914874873 -0.694524642842 -0.232017858097 -3.84841466883 2.66539946782 -1.22115842295 -0.394572689936 -3.11177869896 -0.000193981229823 1.00752606463 0.421879019188 -0.985601198925 1.47369014371 -4.13266962914 -0.286879110813 1.03830843545 0.442214536444 -2.43655701914 -0.398376302968 0.503637018167 2.61636292868 -0.411499892219 -0.891365532389 -1.24716312459 2.4202925063 3.75464067992 -1.01687369149 4.06693854365 2.33872534034 -0.516083207253 -2.50925950638 -1.7933390396 -1.24679814589 0.770969954612 0.362808416014 -0.284734384064 3.80952455282 0.130958135388 0.2595094271 -1.22876792243 -2.02493980219
salsa 5.04375202725 3.06304303291 14.6241650599 13.2276069901 6.24945378309 -6.77911693809 2.19932446966 -3.89366796786 0.0941928791325 -1.20507810935 -3.60776279569 1.43825758744 -3.79379579284 -2.09736230589 0.941813158943 -3.55161755755 -2.02837242227 0.960550213247 -1.17213958292 0.29403583448 -1.11918932725 -0.506649526902 1.56983969573 -1.79598575393 -1.58202681509 -0.193082540577 -2.2640767654 1.7065113895 1.11192988154 -2.00518985099 0.806836519535 -1.96248258567 1.14677698744 0.216423184042 -0.148504930571 0.343414602803 0.909379483417 -0.204410052717 1.2287448773 0.39925953356 -1.26151037074 0.169566464529 -0.14211272399 0.755208729352 -0.581907205735 0.535574047817 0.442682388634 0.492885891288 0.134557423106 -1.03383462601
whitevinegar -0.665385747835 -2.49745302564 3.87001673682 -2.99640361447 -2.39098374806 -1.39496162663 -2.37140902797 -0.134887328421 -2.46444693502 -2.4696611763 0.264821162059 -0.741299006091 0.917592115953 -0.39337636885 -0.377369708813 1.40409525114 1.20402100819 2.51787340224 -0.708727964193 -0.24803173037 0.347240775394 0.529577783791 0.6428219167 0.00753316712448 1.02027778172 -2.03751215679 -0.107518378645 0.564962977833 -0.478356586305 1.15950291492 1.31346540133 0.602325170421 0.220542217051 -1.07580956161 0.713473261977 -1.28344733193 -0.654069610535 1.20268453111 0.215123989611 -0.701828550882 -1.86009930735 1.85103410935 0.728488985401 -0.224575646577 -0.285503247486 -0.681556489456 -0.988481711315 0.551312778797 -1.3163281968 0.313334140264
pumpkinpiespic -14.5967070511 1.60390152904 -0.705630593594 -0.546828744404 1.44065086678 0.186269401652 -1.85755021019 -1.21471756998 5.05000112617 1.01906911151 1.58978824077 -4.26823543428 -6.29682763886 -0.222489766694 -0.840491371297 -0.41474800182 -0.754579880182 -2.06585009137 3.14100158421 3.8778922175 1.84581830387 -0.33115144108 1.4406852222 -0.244549652211 1.90357842337 -1.51840331041 -1.09375218378 -2.76886998437 -1.6649290767 0.868098363055 -2.20893841517 1.11668144616 0.182070823745 0.939029537561 1.60280702122 -2.86114516025 -1.33730648938 -1.86283141036 -1.38058352101 3.0682013413 -1.70923998455 -0.399079361862 1.80741158173 2.09335483839 -1.78425152813 -0.609978441408 -1.09329811897 -0.0184011060142 -2.04177314254 -0.504241029591
corntortilla 4.70022698455 0.770884523429 10.5755242593 9.33187493714 6.94453509591 -5.30110329521 1.23187888275 -4.37365189638 -0.640775318798 -0.289816874017 -1.42046093565 0.33630795588 -2.51177625401 1.64269582578 2.14588261314 -1.20143100285 -0.290684171985 0.828772366145 0.615965081107 -1.56551027429 -1.61834655138 -0.148110865682 -0.823106587754 1.95898345851 -0.881784426417 -1.44502917975 -0.480183952788 -2.07239243635 -0.0838807048083 -0.760865218497 1.24098242243 1.60578075047 0.583647388061 2.00774422002 -2.59732599346 0.236198112233 1.4735434389 -0.211294641494 -0.978063250854 -2.03125845979 1.77271495016 1.31408359741 1.60576559157 0.614655449102 -1.85475718792 0.588257508033 -1.61074746093 -0.0891908149884 1.58765014793 -2.12766988692
tomato 6.45722399374 0.832749953712 1.85656664733 2.96058187286 3.17459579867 -0.421186382493 0.492139572077 2.81037910438 -0.0833703464714 -1.11186172034 -0.713108176208 -1.32723428503 0.078847953705 -0.245272356302 -0.386597310998 0.501667675833 -0.198746805748 1.59231957642 0.73516691285 0.276922733418 -0.219692198803 0.317530595334 -0.0123258917128 -1.251187022 -0.481820136568 -0.771018803667 -0.0482594889955 0.00373285259811 -0.17630481939 -0.144766351976 0.602496245451 0.160297052419 0.101030265569 0.0483836088731 0.129760741747 -0.132359793767 -0.237336915356 -0.111577525822 -0.0701231594607 0.41837823924 -0.382588953741 -0.163860020219 0.0823236567275 -0.0428001699407 -0.347354201121 0.100370817265 0.20880162975 0.318005630921 0.237867571468 -0.397807505327
chickenbreasthalv 2.75787976245 1.47546426445 0.440576582486 -1.31380604944 -3.86164042392 0.548732763872 1.88172091032 -1.70819569342 1.49863806377 1.61776679908 -0.322387068686 1.99698403618 1.45826055719 1.92527038968 -1.3486531804 -1.49099808119 -1.31456751174 0.251546334266 4.0640026617 -0.176963760996 -2.61854014893 0.772067352655 0.344824628028 1.0595933579 -1.90833219453 1.11660863373 -1.34432086379 -0.894424888167 2.10004723189 1.96889707016 1.65333275116 1.19436474816 -2.0179869338 -1.92030850961 2.12747633444 -1.07323387736 0.88519970682 4.2640547184 0.259081277545 -1.79799689216 0.171369122873 -0.755764221921 -3.897204451 -0.446392243907 -0.68674371149 0.791004478361 0.366098121978 -1.28055624208 0.916242700532 0.555490121408
heavywhippingcream -8.57371595558 3.40356729489 -5.19027052624 0.649905659225 -1.04516738027 -2.71195709152 0.113694975337 -5.3285661364 -2.34639222751 4.00437798403 4.78231795838 0.518587402791 -0.186118171089 -0.846094140903 -1.89096717287 2.09315222628 1.25148854722 3.56879989993 -0.606310524869 -0.855781834831 0.864051108647 -0.667563994663 0.841010929274 -0.59272701669 -0.949880786677 -0.691806422037 -1.76608029765 -0.322081201659 -0.593954708062 0.962159297148 -0.453694039892 -1.38108849865 -0.707995909155 0.345545884471 0.875311763934 0.424703209415 -0.450394277392 -2.10608630914 -0.153473635702 0.587560993126 0.48665937288 1.69016456659 0.161730777234 1.26066423731 0.0834355819633 -0.301191217065 -0.423045089686 -0.697716648379 -1.62692495216 0.128007042869
italianparsley 6.20838750459 1.85083927221 -7.64910333432 -0.829754025173 0.0309345607759 -1.14294176194 1.14144120421 1.06955641872 -1.63922086205 -1.94833738819 -1.23117507946 -1.79566966747 -2.0723329209 0.386792141125 -0.114331181009 -0.528798341734 -2.61855760655 0.308681954504 0.238489730604 -1.00568255246 -0.188279115493 0.179232700941 -0.507833186695 1.39493406633 -0.766475653887 0.0771867922069 0.647334776748 -1.20639746522 0.671537114519 0.363112073378 0.15588779178 0.873062874421 3.59647286758 -1.25959414197 -0.194591605345 0.319902958415 0.541687856266 0.180968471179 -0.827126941979 -1.05723860363 -2.00809062393 0.102744390254 0.276553945526 -0.288524885077 -0.153198144468 1.57488492405 0.0116838493842 1.8930437576 1.05103892827 3.43672630163
romainelettuc 4.46225322313 -4.61910027715 -2.83272290179 7.85758970431 -3.90175144054 -9.82291263228 0.0592736283333 7.06383507755 3.81383361675 -4.05731658124 -6.70272029987 -1.23724082176 1.07037780671 -1.18520879347 -6.55226225666 2.78313434821 2.58637358973 -1.81882152688 0.300003382578 0.534279930272 -0.53094437001 -3.69465072589 -2.6800690037 3.13184846521 -1.94141472959 0.350039970303 -3.97668236557 3.01257969017 -2.55255890081 -0.975948043277 -3.08578544604 1.19410335508 -0.703945152783 -2.34644541864 -2.126782916 -3.02151091873 -2.98534036931 -0.0313266736663 -2.56615084026 -2.43641182381 0.751514104275 1.31352921494 -3.65621862573 -0.506259427936 -0.356939801434 -1.68299351354 3.12683665511 -0.863442984743 4.31625727631 1.12498220544
