the -0.399035639782 -0.21793776719 -0.75958758639 -0.125189110161 0.400278840857 0.0396070376156 -0.0678867381308 -0.322198013217 -0.346550945019 -0.444213497388 -0.320772877611 0.709740619628 0.0309815521491 0.148584091956 -0.216313779868 0.83212016513 -0.257133219912 0.262241981699 -0.00403145263845 -0.299003704091 -0.0331654956486 0.00369164103719 0.0915869123744 0.157361261078 0.373393490159 0.00229312545999 0.183430680969 0.658937930487 -0.224857939549 -0.367219724185 0.447340854717 0.155712529956 0.369942046988 -0.182497221267 -0.050663174236 0.103798898823 0.18850387599 -0.262347471501 0.364750874309 -0.41707862158 0.184397896632 0.332139218866 0.866181460997 0.506828984116 0.227548638268 0.376464209491 0.589990896527 -0.702201914099 0.0719306947166 0.228803246498
to 0.437364724349 0.279575482642 -0.466644698707 0.229265615649 0.931277265149 0.399696456532 -0.231242145837 -0.398937266657 0.146283127293 0.0264956543325 -0.436623959365 0.383660719013 -0.255175691218 -0.269371011258 -0.335337426157 -0.18330489391 -0.62881935547 0.034654055673 0.0889546207184 0.71695697714 0.229349147379 -0.291553702373 -0.209047249055 0.553944466695 -0.277032478142 -0.196484763719 0.277872617435 0.0542707757744 0.131373049835 0.56335354196 0.615584460665 -0.0521831625943 -0.749633784388 1.03637475675 0.0727018473275 0.218118792227 -0.0977846385785 -0.836450832417 -0.129326805098 -0.179593818645 -0.248186976844 0.253826912615 0.393942830745 0.574528818776 0.0379517832903 0.097921794396 -0.125084914125 -0.212270896769 -0.305629492135 0.535592739421
of -0.361530067589 -0.127323997957 -0.682373534657 0.0192899591485 0.1620938927 -0.0541773917949 -0.236842415175 -0.655257182682 -0.147607448332 -0.234315222823 0.0486058564305 0.178698880418 0.0262810468468 0.315598105257 -0.106526212814 0.290054883704 -0.311034798494 0.117306104359 0.420573673687 0.170510369341 -0.356155595917 0.113700320149 0.261135411555 -0.0531092706231 -0.16860651068 -0.494328705071 0.354858796637 -0.347528461079 -0.175842385946 0.21923916807 0.529917373326 0.269505664678 -0.437577637577 0.492882740534 -0.244130796538 -0.0677636644337 0.51680253635 -0.54108732784 -0.0869986780121 -0.388630159639 -0.335281425069 0.385984492076 0.391669762362 0.214645795455 0.181698043785 -0.0775271197782 -0.0583137643331 -0.458765083939 0.0512498355645 -0.00738179124717
a -0.0608956198403 -0.0810425612771 -0.600392486951 -0.138787156647 0.527936314061 0.218611934599 -0.199054262025 -0.121324606376 0.292503189635 -0.637626257794 -0.57780140543 0.749211015302 0.642822317651 -0.159928958777 0.00130001216343 0.337426302461 -0.805923145515 -0.00101531614495 0.101409837914 -0.6287896068 0.542550672585 -0.168991967096 -0.212138848134 0.42619913306 0.65508408593 0.191614834951 0.904976197664 0.389039097305 -0.362039169086 -0.328990175842 0.167765221064 -0.12022616737 0.134609883635 -0.0909789848481 -0.228335346828 -0.284093648532 0.539738960937 -0.562368858371 0.615073908861 -0.103588761124 -0.351572050672 0.506323420243 0.720540322693 0.0576003506124 0.366620907527 0.513879385239 0.466259494395 -0.387959908938 -0.676803617127 0.292624552075
for -0.0875956279736 -0.035240831728 -0.149569387834 -0.256553657517 0.301886375122 -0.113916581096 -0.385816538748 -0.773990252376 0.229750129725 -0.172497762404 0.0594208243688 0.503807340903 0.0312585914541 0.142857869645 0.114069878932 0.517234330987 -0.275174371733 0.0799658634113 0.31371931074 0.487188772491 -0.152410097737 0.082605172214 0.129944612174 0.194379821088 -0.111194920482 -0.672633852937 0.292388011502 0.00924669505104 -0.325899591292 0.12244204242 0.728503769469 0.230657903365 -0.444738669364 0.48839339666 -0.152958877275 -0.306860756222 0.205305957086 -0.526287428747 0.239988494837 -0.311682441074 -0.497921661207 0.095917231841 0.183706169288 0.272869052498 0.358537877105 -0.197782979051 -0.141087605708 -0.664533250581 -0.0380158292572 -0.106866209931
with -0.159959317148 0.0820499141291 -0.265067213764 -0.0356950533173 0.470657122475 0.00288000519381 0.159598179455 -0.327641153904 0.227736067957 -0.441105640611 -0.129526023423 0.225226589055 -0.329010866544 0.583371015301 -0.00236810681014 0.556578070362 -0.559391993144 -0.124887281826 0.262688736854 0.386752617224 -0.173213514519 -0.0130019043308 0.477011733022 -0.0454711201657 0.147188147077 -0.532334822975 0.0329587647545 0.300595382931 -0.168004720117 0.193679841238 0.694477233758 0.358880176332 -0.265650634057 0.579878594472 -0.133616384062 -0.186689418477 0.482069559771 -0.478513215363 -0.0909840671252 -0.152264048124 -0.506335855565 0.0101074855323 0.475950792142 0.254808842677 -0.144515784268 -0.166454279501 -0.0887298739244 -0.698853215103 0.236146936896 -0.290328938426
into -0.0655971039109 -0.187447436777 -0.14720847549 -0.13834941978 0.327607970449 0.0890406383579 -0.487092623632 -0.505391190581 0.117643949174 0.155715668838 -0.3511601606 0.345509818158 0.186520285296 0.224733350046 0.224153368646 0.30094683149 -0.0877954914098 0.187300969749 0.318726247603 0.938830267442 -0.613039094214 -0.261218952846 0.0134109128096 -0.0398364944916 0.0481573132019 -0.302335773439 0.34647713396 -0.295762136048 -0.0748655982134 0.121566721904 0.643834721238 0.137676715976 -0.445216805274 0.449370054996 -0.32233147827 -0.24034556977 0.209992785518 -1.00267822146 -0.417254599393 -0.162598445399 -0.114569615273 0.0389309906082 0.196307403192 0.557939836346 0.270093305769 0.00619796251903 -0.0863073690761 -0.686075060697 -0.115519447697 0.187983583175
all -0.0622402384817 -0.343908319335 -0.199853991148 0.386466636528 -0.113586282039 -0.89591304774 0.652993887049 -0.679753656589 -0.179906490262 -0.531577832273 -0.41158410825 0.0730113947569 -0.199824595491 0.301732725855 -0.342567363357 1.04821675549 -0.151129168432 -0.397095805309 0.443493305036 0.552744024184 0.289174858001 -0.0413923645015 0.0423055217737 1.01071457272 -0.0835928984122 -0.634546361709 -0.282205006735 0.136342339629 -0.267041307371 0.299466229995 0.302831300333 -0.0230242316569 0.231064305254 0.644994000091 0.62948966641 0.256644005493 -0.0254512556856 0.0657597838444 -0.0422692324046 0.839338537084 -0.0939088102458 0.0661823150028 0.600659580924 0.127042669351 0.285917659034 0.0181818320692 -0.0766303248295 -0.410094176104 0.437118891418 0.395493853211
oil -0.675997202416 -0.262090324313 0.310395142637 0.483761137919 0.416139197752 -0.24349925633 0.622972375431 -0.870941743997 0.255541358306 0.21245614511 -0.248186595437 0.298210663323 -0.138991786427 -0.372254752536 0.0826075184478 0.49388890236 -0.363912247555 -0.598951724483 0.332533028957 0.190366562613 -0.248025775144 -0.0645055815377 -0.3340879032 0.156908326803 0.142493844152 -0.447889785353 0.167934250548 -0.329256696266 0.371719982164 0.0965276138228 -0.0970434054948 -0.146819408589 0.516404346846 0.276043209822 0.62781256199 0.381429061915 -0.0347596969122 0.0637463054502 -0.0316902562453 0.604631541847 -0.262290678509 0.155466961263 0.443287258162 -0.0485916455575 0.35029949063 -0.107829161188 0.238599934514 -0.467949030848 -0.120835342251 0.194319177165
stock -0.769740018813 -0.0615252202925 0.138396146322 0.470887157415 0.331907033842 -0.0549541387349 0.29427409236 -0.335781942355 0.00451960382975 0.285584563973 -0.248385371216 0.337592016068 -0.619152194154 -0.149366593693 0.384107081179 0.146141815417 -0.402187812315 -0.480201574644 0.811552456089 0.152046047897 -0.203153088204 -0.269330015242 -0.742178672437 0.0375549488146 0.149572171488 -0.312822788625 -0.352137702968 0.339927792866 0.0899473282681 0.230135017152 0.0583045829211 -0.293492242972 0.431893258435 0.761760268635 0.321871614809 0.230368511092 -0.297739699826 0.307764087463 0.107912513316 0.372575982524 -0.193446694874 -0.0531545386212 0.391054957762 -0.248702934728 0.657766179159 0.249160538946 0.256581102804 -0.545691857166 0.37136563354 -0.366389751971
1 0.221820162192 -0.527339738208 0.101593753966 0.667745654383 0.599234130701 -0.116264445506 0.0645237440792 -0.499228476534 -0.0797693703753 -0.318027848371 -0.332217922119 0.0417328385008 -0.168138152245 0.199673861476 0.382709805569 -0.533849798622 -0.715572133997 0.214404565419 0.535914924161 0.217558301059 0.203486113029 0.559807256853 -0.34445947844 0.017218115105 0.0976183080767 -0.186565634267 0.556156153447 -0.232095370175 0.216081252364 0.465895467346 0.06161726435 -0.105265790805 -0.350832300235 0.326788771487 0.151602996254 0.362549775389 -0.360814507741 -0.0459336406498 0.127076777658 1.3671818101 0.704082831343 0.815662776012 -0.0842972654668 -0.190935584055 0.328359549207 0.0685230947783 0.433400870619 -0.818970415896 -0.0743250631381 0.194953236009
large -0.329147941776 -0.065359100029 -0.0308782849397 0.420410462461 0.259268934751 -0.443838459029 0.149864808261 -0.288493500341 0.122859652851 -0.141063925315 -0.745827195406 -0.0417368090147 -0.339815484578 -0.12519252622 -0.215589633117 0.740482868128 -0.371992178408 0.0362682802894 0.301679763941 0.446685935093 0.15707737868 0.0835399191474 0.0395474315327 0.37248247468 -0.157725450755 -0.198248045386 0.3240478095 0.250121543029 0.179887232242 0.329833535908 -0.173232152137 -0.3171085706 0.00107210859592 0.534043408694 0.418953046695 0.149988308489 -0.107604357381 -0.211566376136 0.202711316966 0.497221753596 -0.0204292634414 0.49878603562 -0.0132613938166 -0.214588749861 0.236374601491 -0.188834089534 0.433050047295 -0.616449730861 -0.338907899867 0.382018317899
& -0.829197109444 0.627573883686 -0.238743612239 0.373941950205 -0.00462048606576 0.0895686132406 -0.0220826393159 -0.165591480884 -0.406685492946 -0.0192213909328 -0.24108928026 -0.61948618648 -1.09693678673 -0.195746477927 0.080301078681 0.043730356249 0.088210969823 -0.142151913729 0.175162415161 0.595681635072 -0.117611098367 0.430060697097 0.21904214928 -0.178983969065 0.0902640629557 -0.590857404043 0.279977211207 0.137466836776 -0.0173876111836 0.634278735159 0.143949320387 0.102257074123 0.119407326145 -0.448173247936 0.393140048026 -0.316170882136 -0.0520263857717 -0.738250604339 0.00524282465776 0.0621325869806 -0.453944791058 -0.184914401839 0.551237381523 0.401275550322 0.303342160072 -0.2639150987 0.0302590031377 -0.609937347925 -0.0695918556278 -0.11790070286
2 0.0795962772763 -0.327827016682 0.099048288366 0.560642399966 0.408765883739 -0.150108117151 -0.0524101477584 -0.216924563068 -0.00792767354416 -0.0443325277858 -0.331519049573 -0.0336609145838 -0.242356647708 0.0972987275776 0.329855129081 -0.028407967137 -0.444730718854 0.210781341252 0.768034447142 0.188230376142 0.278879666619 0.313735150455 -0.126453904315 0.13427694874 0.559931727359 -0.280164197126 0.658492981538 0.04543247889 0.15864916965 0.161679131798 0.172307744416 -0.0221670003645 -0.152857837247 0.280027351999 -0.0170181510887 0.450860402345 -0.437971776364 0.0506550382181 0.206881127776 1.02962545783 0.514505827288 0.508768582309 -0.263718256678 -0.446309331204 0.289963532604 -0.14972659136 0.327498694922 -0.727171517584 -0.120440345488 0.339652618881
water -0.352279944838 -0.332988515911 0.369914014005 -0.115204171857 0.306512861448 -0.50804423018 0.300727531404 -0.820581219621 -0.120118878061 -0.0201766805707 -0.265010039013 0.350142345897 -0.0565706777096 -0.0999274024005 0.228050179079 0.441050362981 -0.343859423723 -0.670604632694 0.324044859162 0.335758559856 -0.14060197165 -0.209679166217 0.110854884716 0.129217611093 0.180096916616 -0.144561837491 -0.118275665901 -0.162260020166 0.355058035795 0.315616892478 -0.337638204889 -0.647000737797 0.0713440154427 0.523139311737 0.413071196414 0.261334479862 -0.0882022250328 -0.0101022563375 0.0101464637955 0.508006677852 0.0440188893485 0.122488607916 0.166309646964 -0.0721754461326 0.453344576145 -0.101179684225 0.0015473634698 -0.147528501718 -0.0668509650064 0.434906226002
fresh -0.628985003903 -0.495949571208 -0.225211870567 0.110906573112 0.122384618807 0.132049075523 0.0495058420031 -0.0387601856812 0.0581230744384 -0.187900182346 -0.449331826295 0.219454602358 -0.0665653657142 -0.115940705623 -0.0691251407006 0.803361887408 -0.265460135202 0.0523590897784 0.512837171083 0.0330514870061 0.129668571737 -0.307871703685 0.281021493823 0.266016039343 0.283628789871 -0.157491802924 0.0505470855189 0.435324434481 0.214629891492 0.451873764591 -0.0622086077472 0.00747921619402 -0.051070740092 0.652704912349 0.789648236585 -0.0171419783642 -0.0494359512311 0.507254908791 0.0114512170242 0.166316987248 0.0136317693984 0.59488421504 -0.0265026560725 0.32390802751 0.2501259635 -0.241768286393 0.208679730635 -0.533412933527 -0.172262876456 0.35189304549
ground -0.11412458151 0.158366077487 0.474553803806 0.303770376138 -0.0474472624489 -0.249202708238 -0.130048145991 -0.298093699912 -0.118468509599 -0.236064352143 -0.0110302410227 0.457552683552 -0.111127373512 -0.355590520669 0.147761668195 0.235797708075 -0.547172801154 -0.345589906295 0.216278582958 0.0708718353639 -0.237856651637 -0.284172761539 -0.0173885124445 0.297629572561 0.301783786567 -0.123227983324 0.00101297379364 -0.0254739645154 0.215323799983 -0.0127566742868 -0.420125954989 -0.187506747015 -0.342380969057 0.669939158154 0.49719828356 0.102038683771 -0.0428753762677 -0.157645577267 0.329758649091 0.59557924073 0.116415120973 0.147826570157 0.187729274541 0.394606585037 0.434221500252 -0.24944751864 0.0466076260559 -0.468557456034 -0.0852892737029 0.00529612303143
; -0.445824269759 0.274253152387 -0.0683121666056 -0.114740894864 0.524139912229 -0.0984082039068 -0.00459886363879 -0.491997165312 -0.175114723714 -0.25151691233 -0.199204887002 -0.135462457504 -0.422788749303 0.315088927327 -0.0356258287396 -0.0210759462073 -0.176004585545 0.0750857711982 0.217315865232 0.512232158568 0.0669157250281 -0.124752784152 0.0218023658732 0.294588177907 0.220953683082 -0.580662913706 0.196854390161 0.515864896842 -0.323704221264 0.360283636822 -0.24029334907 0.11967713796 -0.196680591816 0.249822823476 -0.245672434236 0.0735987782522 0.00592274214374 -0.239036798456 0.338833796618 -0.131145815225 -0.572627307809 -0.279848069388 0.575271354381 -0.0269860010547 0.169293322127 -0.149071523849 0.130890130535 -0.201158105849 -0.188323020364 0.0828763696579
sugar -0.871232034512 -0.0146882513096 0.238410850335 0.125305774942 0.381583440894 -0.525776598006 0.332995587976 -0.469891420179 0.190512852314 0.0839426050467 -0.185542236737 0.292951162511 -0.120672613382 -0.307016896924 0.0705893081372 0.358988973883 -0.442557947883 -0.595914661994 0.573682728366 0.100689712757 -0.296636162857 0.0232918853896 -0.166876333397 -0.121752532834 0.225166182314 -0.324458751257 -0.120697202996 -0.225914998287 0.187411793133 0.269212959848 -0.264731685173 -0.158778973088 0.198324042765 0.356000187792 0.537775363103 0.256340695761 -0.249935662833 0.135422809296 0.188118252696 0.431561964047 0.0803157488582 0.232318730513 -0.0708667701449 -0.0167616135711 0.500053620279 0.0349537076591 0.18575751043 -0.440934510327 -0.142565249749 0.266598283815
coffee -0.626609915328 -0.179390298285 0.327837343731 0.00358023959206 0.344202967638 -0.394816139689 0.364112093411 -0.603262827822 -0.11663075454 -0.125087236877 -0.462547388137 0.107715257687 -0.274243281385 -0.0858051205286 0.228327290244 0.223291864254 -0.405317858226 -0.558053281552 0.557680705326 -0.0624908188601 -0.103751934143 -0.0914826045796 -0.0902481333935 -0.00620591330129 0.233715138612 -0.0769215439531 -0.261956000092 -0.320312317524 0.245558081993 0.0795905837979 -0.392913498246 -0.177564159425 0.207234885916 0.180820766816 0.628647080394 0.20178601957 -0.26787087355 0.0656103981516 -0.239026447775 0.676060919007 0.133590159683 -0.0500025227381 0.195664743241 0.0714241133034 0.257036362322 -0.0370696168221 0.225841064906 -0.47555627095 -0.196398292399 -0.0212443922333
corn -0.495799455275 -0.0848636294915 0.0161804975882 0.0537727928703 0.0460172555542 -0.349032175837 0.299317588744 -0.461429972357 0.114567477383 0.33682071213 -0.343815325399 0.300606154517 -0.140202704848 -0.0132481128431 0.131935277221 0.337809167188 -0.718380574967 -0.334431210589 0.122582885323 0.0987219636568 -0.0766427062326 -0.191465839654 -0.0865737120696 -0.274796001917 0.10265518107 -0.152785408051 -0.0903040999608 -0.542727911503 0.165360222534 0.282434669046 -0.262448237171 -0.31494939234 0.213455272666 0.16787308557 0.820150162746 0.221184150182 -0.803165430873 -0.157206128657 0.131293958282 0.612706536324 0.213337494783 0.147919746157 0.192455319442 -0.287425222465 0.170567943557 -0.107278203814 -0.0490626104252 -0.628542482494 -0.416320617741 -0.0529895310173
black -0.10305806285 -0.0786606975746 -0.112514563556 0.292982286013 0.118877005343 -0.801357405002 -0.145852137491 -0.355779166379 -0.455277849958 0.111121774725 -0.200707261117 0.231343916888 -0.30604300988 -0.225954689337 0.170391241055 0.31357622256 -0.422883030895 -0.456216353558 0.901729435136 0.118731255157 -0.266306869984 -0.283326613417 0.37877786228 0.238063401018 0.375478371558 -0.29043941458 0.466472334017 0.217145645283 0.262028663832 0.0598551735912 -0.075123651424 -0.133824036688 0.193951330152 0.681716178745 0.42280180645 0.0937689055941 0.0677289790148 -0.0715538542618 -0.0575969052018 0.572688816108 0.32071616564 -0.0910672346072 0.219373897291 0.0472605525269 0.101456164617 0.0429981859551 0.560652585787 -0.214674758446 -0.239954328812 -0.0456176967666
white -0.358805676906 -0.147214782101 0.155558152658 0.095896078348 0.0983177969914 -0.847477548092 0.0577728676392 -0.300261376757 -0.582207236982 0.0387356756619 -0.0632552537796 0.306813412583 -0.1421004441 -0.3175590519 0.0941518738858 0.247906390482 -0.462574687926 -0.652390272967 0.609873440204 -0.193718044727 0.0144171478778 -0.236079321732 0.420471796661 0.214471540166 0.3109646681 -0.238195611154 0.405443786355 0.122848376144 0.391014848805 0.0946733846604 -0.433433413826 -0.0517685039577 -0.172752325033 0.193918323534 0.755796289933 0.205839320752 -0.00462817441007 0.353060627075 -0.0368252020184 0.539566277618 0.162091240584 0.298876692613 0.316598082528 0.115299010035 -0.375671087383 -0.102273709421 0.755059506584 -0.529845534146 -0.0637710977557 0.00351089402996
beef -0.586256596812 -0.174140118225 0.274305035521 0.0628390355154 0.41651568653 -0.311616687639 0.251304778561 -0.545133113726 -0.00798182070672 -0.219137331543 -0.457431715702 0.0810440463388 -0.179699850087 0.100893078349 0.257322334877 0.336400207268 -0.32373507182 -0.581776195957 0.352178049665 -0.0330575237116 -0.146043671441 0.0493985110136 -0.0024661193913 0.111296116887 0.209780794914 -0.199780335492 -0.193989984223 -0.312722829698 0.00849512449874 0.202738050025 0.079727573785 -0.603686028687 -0.0876365330435 0.436827998579 0.639972255223 0.44620023072 -0.630741301095 0.31892640181 -0.116450660692 0.552226615034 0.0996942258638 0.0549452577455 0.258953711614 0.126839768686 0.333984390884 -0.301824039792 0.171066639158 -0.179868957167 -0.185484644236 0.313247616353
red -0.731292339982 -0.485309330079 0.0784997095886 -0.191789720968 0.138347325878 -0.477558950767 0.0667283576871 -0.244288684037 -0.247313688512 0.121251447215 -0.181829927585 0.458620703339 -0.320355557712 -0.106529078107 0.343144264585 0.235610324478 -0.49166557325 -0.347383262619 0.276378988999 -0.0943932104195 -0.307736354888 -0.247721480828 0.152481678171 0.1474892525 0.653658909669 -0.199407184451 0.147858131467 -0.129529559869 0.230840994785 0.141730583621 -0.304848597353 -0.297775862909 0.297612618899 -0.15785113527 0.462597079686 0.105508876192 -0.00941557581644 0.0967262410259 -0.231006339768 0.704221246585 0.236647896348 0.151946519527 0.402759159857 0.221251463447 -0.232524523125 -0.381547877176 0.631757139061 -0.184649129405 -0.224177792624 -0.21547090307
rice -0.668344095913 -0.194166575351 0.137845978053 0.0221305177258 0.275349929527 -0.343287437749 0.258578678313 -0.552715974927 -0.0541661278674 0.213127110337 -0.512800625667 0.0744421573517 -0.0594101164847 0.128079126331 0.284764511525 -0.0234926446467 -0.304612285216 -0.513865432689 0.175391480991 0.101691336425 -0.325781894254 -0.185808546901 -0.0921921953226 -0.028961432492 0.187442381325 0.0364939245906 -0.225682445118 -0.278915096299 -0.106625023868 0.122473115484 -0.136582942146 -0.246707650272 0.173705768985 0.227744674138 0.369596470262 0.206169062853 -0.509044638478 -0.0276780218436 -0.18450602156 0.616952745925 0.071317715814 0.327757771144 0.0142048542801 -0.114955706492 0.239702163234 0.00922267995438 0.216628518811 -0.280085894149 -0.278432093262 0.104506572747
chips -0.558767565803 0.113395357362 0.279562522509 -0.0451610792072 0.331698640338 0.0353350269069 0.11370504804 -0.191371186135 0.450022592512 -0.086415399154 -0.129085733907 0.197084545548 -0.335938452427 0.166829292347 0.274697868003 -0.103177953141 -0.0868633296907 -0.322472722311 -0.133112309676 0.00650942515471 -0.29607767882 -0.00236398744523 -0.205624448137 0.0263862978773 0.168096652518 -0.447369868305 -0.357889721238 -0.650192476825 0.215755628028 0.344404467422 0.109411657519 -0.308625309897 -0.100660211645 0.232821552617 -0.0216042196812 0.0704708752511 -0.398833476114 -0.183144899705 0.0649932788142 0.0837917021419 -0.333278042643 -0.117647297831 0.208685612412 -0.53724866913 0.230279940183 0.145012028291 -0.101707411066 -0.0893243457988 0.237551409187 0.20172474754
medium -0.514844048786 -0.134668206431 -0.442491370507 0.279169829929 -0.0299434460188 -0.111354239962 -0.0084350185994 -0.445670626933 -0.0779806052133 0.304352314838 -0.545169296361 0.439648551963 -0.0570435299372 -0.242970674848 0.0598523137278 0.492268949397 -0.346837323912 -0.470686182983 0.370458640014 -0.0725980564248 0.113950790643 0.008475648541 -0.0428340883105 0.123767764072 0.291398918737 0.317557498745 -0.100842652603 -0.146268153394 -0.00142070197126 0.0734332615673 -0.0845999650035 -0.582306662414 -0.0518582534735 0.391267261193 0.383301346084 0.263648752488 -0.254441800352 0.120832094257 0.19123737271 0.538784052304 0.234922064972 0.257309954447 0.00205259789394 0.28964253733 0.406818743768 -0.0287585461328 0.164632366231 -0.434988279858 -0.281808881408 -0.0116686474411
meat -0.251663795443 -0.0831747628443 0.207126178729 0.201051901352 0.1407893929 -0.469065483474 0.185033043703 -0.780483523363 -0.0703389745162 0.130542367068 -0.508362712484 -0.133965941173 -0.310439049122 -0.14462093015 0.236435252652 0.456851787542 -0.266882221862 -0.518772366218 0.0667819385379 -0.0168924378472 -0.0475276973741 -0.00656892865809 0.146360226919 -0.216754971612 0.131564423132 -0.362883816058 -0.145678459541 -0.425455197014 0.158923103376 0.230988417275 -0.0352118498954 -0.209882021053 -0.0900100047689 0.303191491048 0.517278457057 0.27380307785 -0.2377738097 0.0828970165949 -0.0692197133526 0.520888371638 -0.196767582258 -0.00273620027053 0.169640351523 -0.0657178968912 -0.0379829657267 -0.131772868782 -0.00835848129435 -0.714607029636 -0.191220536913 0.230192225489
cocoa -0.557522700635 -0.148107002744 -0.00885493598707 0.0769847554108 0.482048115597 -0.176108044216 0.265564874166 -0.390852354582 -0.010830674897 0.253470623731 -0.47909696438 0.262837411158 -0.09165836666 0.181176202442 -0.0941011124743 0.242260241265 -0.170443190341 -0.241389939452 0.111901439864 -0.0471194083183 -0.23835388552 -0.0251774879737 0.00222961396132 -0.424209818678 0.129435324408 -0.150458110516 -0.0864860945763 -0.409074717425 0.0196190407632 0.110472814774 -0.178713821648 -0.462322905712 0.0639457761166 0.35813721058 0.406417140891 0.114395268072 -0.633157045692 0.30748232152 -0.106135256599 0.45477993649 -0.17033383965 -0.0268937580086 0.0942431467133 -0.224346209992 0.145526784415 -0.014999576888 0.228279170225 -0.441287679654 -0.190925366723 0.0525712946476
green -0.430324277382 -0.000686918581211 0.0366233089722 0.0448638751816 -0.0375590010116 -0.568915674107 0.0366390068539 -0.393997598266 -0.197048077235 -0.115129348567 -0.156557430052 0.145564464529 -0.51800015446 -0.116716897811 0.48257392192 0.243203556417 -0.383108212578 -0.396847241919 0.0604658511529 -0.113831125369 0.0017208167674 -0.196896904923 0.173336546095 -0.0553696507583 0.273456390801 -0.00665070426409 0.398409199348 -0.0685864092956 0.0256029057536 -0.0792738777721 -0.157156149124 -0.271645985201 -0.24811552338 -0.0242720604996 0.847999406541 0.190322198154 -0.0651932744658 0.0535957195538 -0.0642845839034 0.346566635131 0.369472385784 0.235528847346 0.352409690692 -0.00657330167517 0.0643431938104 -0.24606265419 0.437008837352 -0.537232150557 -0.0994463264913 -0.129140752505
hot -0.323115347026 -0.560959888042 -0.0233859859071 0.0918867500716 0.0418279135859 -0.249648510003 0.0382342271119 -0.44675501553 -0.0918449406161 0.153457783187 -0.501994138322 0.35034738233 -0.238925180319 -0.0585096216961 0.403490023841 0.4319364002 -0.301630452929 0.159279514055 0.0573847677609 0.00193235875502 -0.127991902662 -0.078284624078 -0.0866981031207 0.216655976334 0.630210701176 -0.143609776236 0.432835815113 -0.0043703170751 -0.0417046927532 0.387283010355 0.0958796267388 -0.565415290639 0.125848784612 0.272257127604 0.551945074092 0.0301464458593 0.117574741168 0.0965148152056 0.02819487506 0.531712135185 0.604179430454 0.259511344157 -0.243672160707 0.118950647049 0.0861203602074 -0.0230835120454 0.311698814194 -0.173391477251 -0.443826436433 0.433544288771
beer -0.24025176333 -0.11329553506 0.244831660468 -0.20205898674 0.338143178729 -0.25790720942 0.142711042361 -0.643006434385 -0.0725318655779 0.36202070665 -0.324643240323 0.115466905838 -0.0436786801891 0.179843325336 0.425731112759 -0.0123797167493 -0.292070099623 -0.610542729596 0.272260242368 -0.0119183433657 0.0510436220247 -0.200326233626 0.0183772158045 0.146157419955 0.0766178146219 -0.297290645212 0.0920517563943 -0.289592568702 0.263561413805 0.184060299592 0.0367122497925 -0.272190238375 0.0454237443467 0.308172152367 0.528466868685 -0.0811228839726 -0.0930837595114 0.000378691115711 -0.0658099766827 0.6178538779 0.285909930395 -0.0915466971554 0.0628824038848 -0.349250063187 0.214623859826 -0.170006467848 0.0660731764429 -0.245074805148 -0.291564572811 0.120749038941
frozen -0.165599410506 -0.353465691413 0.0200025641376 0.270578298756 0.0739995551123 -0.350291508896 0.225320861517 -0.274431434695 -0.0142321466956 0.243429674781 -0.284796137448 0.0317057060656 0.0329747227892 0.0424179936999 -0.145456702193 0.421905925215 -0.392573051452 -0.31726531957 0.370730620984 0.317660630305 0.0068713856851 0.00312593686717 0.190922804462 0.0332181395604 0.170623919408 -0.381892485484 0.290639516226 -0.242519270839 0.0742490234166 0.431699227303 0.135038499991 -0.5103654875 -0.156187089808 0.146951626186 0.46813040279 -0.144209854358 -0.148734932377 0.0529188876571 0.249741815642 0.371393340544 -0.148409607703 -0.0828227857702 0.0315848859702 0.119674675309 0.02014200292 0.0823219125793 0.0493771467237 -0.329814300515 -0.0919239668252 -0.0414974459156
dry -0.35858713163 -0.147242111783 -0.105977351404 -0.192957522729 0.178644491629 -0.176897246755 -0.119535670157 -0.441912544972 0.0266699073243 0.0992596975645 -0.191292463111 0.478478554217 -0.0358961702688 -0.0708260071148 0.212379902741 0.381637182156 -0.168105214579 -0.0662359680167 0.152977895015 -0.0837814372568 -0.183604945547 0.0482756002574 -0.166238429092 0.203665768187 0.641255384112 -0.036286941807 0.158233031879 0.00116795470357 0.263814073621 0.381971006593 0.358457530103 -0.460997521636 -0.0187822891609 0.485951792175 0.41265024938 0.116666107355 -0.157540315106 -0.0723894984499 0.184160623679 0.467315603278 0.463062143434 0.208592932385 0.154303520527 0.102786368725 0.18416334225 -0.274360279148 0.245210671309 -0.247403630343 -0.176777590544 0.425877231736
dates -0.190497973684 0.190672111261 -0.0299812330146 -0.0453243802776 0.371471846651 0.0885952983538 -0.309017328659 -0.605691300408 0.0840967605564 0.0291176951227 -0.040185841894 0.658020293255 -0.0233289815622 -0.000114153522356 0.181063648021 0.294018652101 -0.103036674299 -0.281852502493 0.014657620609 0.35468040936 0.073629028068 0.30858749266 -0.387554842127 0.120119498685 -0.0153029020609 -0.275134501095 -0.209952038892 -0.0945409934785 0.0178501707184 0.365890489863 -0.0385883579611 0.129110230861 -0.358818421706 0.185572484961 0.502484701138 0.603199996229 0.172281296057 0.161997423207 -0.0328987938157 0.43877529204 0.016313130154 0.0293926849082 -0.0410373989952 -0.104632776344 0.387152259941 0.267765426125 0.0590785147394 0.0690776769155 0.103595311515 -0.0787888038428
beans -0.264540596802 -0.264459871453 0.143999454688 0.213255220345 0.204487292453 -0.295042629382 0.262882067599 -0.466741595001 0.232670973555 0.0315589574307 -0.370053203568 0.0898222369591 -0.111013313638 -0.0404605784999 0.339701924116 0.215154233493 -0.393321345278 -0.566290361084 -0.294951630095 0.100474546626 -0.149861530012 -0.169035278217 -0.190336378841 -0.0283648874244 -0.1569830676 -0.260235765636 -0.0715001370639 -0.581339797737 0.119273505052 0.177292417495 0.166505520625 -0.119376040391 -0.208395628752 0.0496624645199 0.360717101373 0.465153892049 -0.294622384223 -0.177940808185 0.146953166704 0.449108437108 -0.0950094717703 -0.0651049337303 0.332935090156 -0.168922825611 0.266103530449 -0.0453923336154 0.0933579656783 -0.013131128349 0.265062184943 0.0592642332443
leaves -0.173328698362 -0.280315311813 0.00507737059224 -0.134556375322 0.231060262371 -0.109426388781 -0.122661003136 -0.394200197242 -0.0549930742064 0.0916396996648 -0.111594727218 0.204281307985 -0.107700933698 0.00749191251193 -0.0429018311752 -0.00978212113548 -0.272160050719 -0.131159876843 -0.0116351070678 -0.00177458943161 0.136300287268 0.107125827643 -0.233252521042 0.282579966092 0.660843659579 -0.505240562795 0.202966230734 -0.159533896113 -0.0757835839043 0.423385449585 0.3387153367 -0.13442178422 -0.47290138012 0.00512165601805 0.219176230255 0.200043090512 0.236095255821 -0.341041743701 -0.0341483287034 0.36768568407 -0.515048178913 -0.276358411082 0.179990884603 0.0254342541486 0.241491180083 -0.0561295755495 0.100564675391 -0.353810766395 -0.28881408804 0.16310549625
fish -0.0650216018685 -0.0560020144418 0.00597564895711 0.0200760254242 0.312300698414 -0.302385231167 0.110371379981 -0.558520648358 -0.368885165315 0.209718607514 -0.298250823896 0.133582704332 -0.254998361406 0.122075490969 0.198996261933 0.101121786662 -0.309406013869 -0.527485413202 0.0790104954788 -0.0114807325393 -0.094282150339 -0.427221390943 0.277311897639 0.148336985654 0.155371021328 0.00316249274138 -0.0173312168673 -0.298381318076 0.446239186147 0.174851365767 -0.210016132731 -0.334657051455 0.115603043208 0.38108447538 0.363488546913 0.185206731736 -0.265843713711 -0.00672010386655 0.0727007099099 0.528668654627 0.239767807786 0.00877945057098 0.182917491405 -0.259430754457 0.139463148914 -0.135235418235 0.242426995725 -0.0600890503955 -0.358560517971 0.395158720245
pork -0.389631247238 -0.136877010048 0.109653880679 0.178685558214 0.445870091691 -0.269164987699 0.165810225282 -0.364119556339 0.0355879914511 0.190814742047 -0.413693495311 -0.16657000167 -0.247849029574 -0.00898784602178 0.0271859018605 0.278505365156 -0.501082412004 -0.453265796402 0.157771600865 -0.0362715232346 -0.00562998957336 -0.0733414116261 -0.0616074007365 0.132358442873 0.035456354086 0.142611769951 -0.184656484164 -0.0646255995425 0.00867137170295 -0.0507975844618 -0.223123336324 -0.231862741983 0.0192756408214 0.140127571362 0.657280761717 0.494828745154 -0.45649462028 0.188235987775 0.222547183757 0.550368019128 0.0962911583706 0.0775205986434 -0.0962691631509 0.0206881011858 0.189519614215 -0.173787069974 0.000760855034793 -0.248595053512 -0.219031888223 0.0897199852835
mix -0.603737907164 0.0116723041127 0.000814940244894 -0.036789140998 0.406481934287 -0.260763875714 -0.140760932864 -0.330913181782 0.0113955010491 -0.00529701669248 -0.220538625338 0.121257320919 -0.235957237646 -0.0718402557621 0.42583634732 0.0869131208186 -0.247161111154 -0.182258140401 0.131420138779 0.0973561077112 -0.246189511688 0.16543197385 0.201343497575 0.0846178497952 0.164531805608 0.253730915433 -0.371171131729 -0.100077858017 0.0804986303643 -0.120690231376 0.0462476455075 -0.566698962608 -0.438055876053 0.46940915253 0.256544889883 0.115366034856 -0.228840950434 -0.250642683374 0.499860028916 0.263146458701 0.100408212422 0.0293858296325 0.388440482115 -0.153793736022 0.1654806619 -0.189323385011 0.0452820296052 -0.352491019855 -0.189609076557 0.0374290617612
wine -0.44950009702 0.0396127034786 0.200357032866 -0.01023404395 0.302347818115 -0.524274688674 0.137565138414 -0.573153965391 0.0540577379154 0.0673178591621 -0.541004829279 0.35030520799 -0.288576987574 -0.143483639149 0.194558214357 0.227349442239 -0.319598996783 -0.43718153394 0.478067373146 0.0065622814855 0.055248899015 -0.23466438809 -0.0021739296601 -0.0667970622132 0.00959305236519 -0.190470490825 0.0464447045324 -0.188773716903 0.154011070131 -0.0362185759153 0.103875169263 -0.349660160106 0.0809668373452 0.121253147612 0.418847640497 0.0315424745208 -0.478281447598 0.113305398238 0.0634065767625 0.587222540838 -0.0466429889943 0.145063301002 0.106672396937 -0.111049626963 0.229253273575 -0.100016859804 0.176067462181 -0.145119636723 -0.0878906503787 0.392488287882
fruit -0.384692616719 -0.18026908187 0.196811162724 0.0332840084762 0.229126738462 -0.463514350829 0.118034443668 -0.740893333435 -0.0932266435447 0.104887477279 -0.167146026383 0.0532184625551 -0.155064816021 0.123383388953 0.266841734405 0.196454400486 -0.101631818229 -0.497613402487 0.142499954556 0.10274007708 -0.0560842660155 -0.244434553436 0.252037941731 -0.0169696737549 0.0669709107587 0.0432279337789 -0.024348398937 -0.110425277542 0.177741744911 0.223552213385 -0.124121906864 -0.479320924082 -0.0025017078217 0.14334261396 0.440452702629 0.085480882872 -0.226743345022 -0.0547306280315 0.113138233384 0.351185928886 0.238455309733 0.0553205510862 0.137868515285 -0.0934969955302 -0.0106253041258 -0.32431146569 0.228324529716 -0.170744573966 -0.329903604261 0.00896710819745
milk -0.37016131983 -0.150464962802 0.136290756935 0.0963437197693 0.178821452744 -0.210737370357 0.302617881393 -0.5178323877 -0.101594519504 0.040795413304 -0.0712607426301 -0.0547721583983 -0.236043850301 0.105304200481 0.332674576595 0.112649294078 -0.174058198469 -0.543782080743 0.167308225377 0.0228074250543 -0.0502678760608 -0.23501114331 0.228159285614 0.0579314867581 0.0307176680188 -0.0814331046927 0.027900862324 -0.211766330577 0.0218782770647 0.229126398338 0.0971712055242 -0.410805204224 -0.0301781748461 0.172192624009 0.260346252853 0.253244318225 -0.449933193487 0.186638102955 -0.136963922987 0.40533185563 0.174069052838 -0.129916946786 0.293305134034 -0.139615502139 -0.0534763383694 -0.205162335533 -0.108397716451 -0.208375032928 -0.0185302929091 0.104617432081
ice -0.133067446062 -0.333939605494 0.235922436108 -0.013026167708 0.25935364517 -0.477207058894 0.0844600213767 -0.477359286702 0.106856513893 -0.0209642087091 -0.177870132717 0.368429162155 -0.192762402903 -0.256504649492 0.537919358157 0.0920033141581 -0.20024678157 -0.329355715683 -0.483477143726 -0.00958226358898 0.220426828811 -0.228348465702 0.163096251463 -0.0449124614752 0.567779112252 -0.0841384498471 -0.0984228633169 -0.489096645483 0.0207145472075 0.241348827733 -0.227309885995 -0.364413205973 0.372056008917 0.23294269851 0.55448194948 0.142067114258 -0.0650564919459 0.138732886612 0.265038415183 0.465290230086 0.329019870179 0.0738250309438 0.191807185883 -0.0772747263258 0.265204054719 -0.143719967596 -0.140303588387 -0.305524123331 -0.132271534046 0.0458356486414
bread -0.342849285234 -0.228855011396 0.127055315952 0.149383053058 0.31438127425 -0.327331021457 0.209814921225 -0.565487517069 -0.260140309213 0.0616667267113 -0.400876720453 0.0671934620057 -0.0908048448204 0.0747064544273 0.314301421297 0.295332820389 -0.446426800787 -0.133542944829 0.229436408522 0.0987039239225 -0.114853335883 0.123858678629 0.367111909402 -0.0577675710482 0.040337224668 -0.25551868001 -0.0201158743605 -0.116928407698 0.128851386428 0.284567107951 -0.0664860914245 -0.366196137227 -0.116845330882 0.369939465553 0.239541450567 0.391548043601 -0.30229553315 0.437086061142 -0.0719096088737 0.150092075573 0.0407459703508 -0.0320279692551 0.116030270836 0.109892837355 0.146617964267 -0.0149207912826 0.128086150146 -0.275510348038 -0.0710269713121 0.201244741467
vegetable -0.417187515394 -0.0626289227382 0.133150259579 0.095448331476 0.132073132976 -0.374499216314 0.247290513066 -0.392831671811 -0.245613918647 0.253088549281 0.0343499665891 -0.178439712039 -0.064064334146 -0.159946283539 0.320081316613 0.170173420402 -0.282930751752 -0.452424506681 0.377074628555 -0.273877907143 -0.162143893885 -0.0355766085103 0.268652910625 -0.215135870164 0.430181239131 -0.150261258549 -0.0373320403621 -0.189317835651 0.167136449138 0.193892063142 0.0726000283614 -0.179188653944 0.16701895131 0.26166321016 0.255388603911 0.14850368344 -0.428796841192 0.14868044547 0.0184384824597 0.241138130608 -0.151004030817 0.0607621221905 0.262434654858 -0.272571748713 0.0992791785214 0.0107734516391 0.0641466620294 -0.166283232885 -0.299670652618 0.316711300994
flour -0.438500197965 0.046806367155 0.211942007622 0.0451723586707 0.322553046961 -0.634725389262 0.0395909350525 -0.519745185886 -0.0571179533857 0.0248397370655 -0.246683893756 -0.0102981209197 0.0153219323291 -0.0469463262427 0.0429830121899 -0.0120788312537 -0.377996041822 -0.320735264015 0.268971051274 -0.191019401453 -0.348539749995 0.012444776507 0.109940150261 -0.170833853406 0.157108470491 -0.266727498073 0.0361788919991 -0.26513229933 0.277007710445 0.0549256193525 -0.0723577173795 -0.112672463359 -0.0815598803018 0.330212962699 0.154584354539 0.148677798624 -0.369971297865 -0.00599816823449 0.0421999575833 0.291643617377 0.0499765363466 -0.147376552809 0.109185364212 -0.157297316244 0.223567309506 -0.176989799916 0.0990861938498 -0.239867598277 -0.174440459771 0.288159523994
juice -0.343483525977 0.0200884607409 0.275973545918 0.143478629037 0.239169091943 -0.19572312565 0.240403304104 -0.708489902529 -0.0290261087378 -0.100861313869 -0.20203002751 -0.0541511299791 -0.0756872901169 0.0604318190047 0.206814992607 0.0843284974421 -0.162878475262 -0.373095411945 0.0984569024919 0.0081936683633 -0.104315984697 -0.161374646758 0.059380865372 0.206771073859 0.393258593822 -0.130779212167 -0.134212686542 -0.0101589258886 -0.0752894404267 0.102056294025 -0.142256459148 -0.1407932131 -0.12850403413 0.16629830301 0.0516586210549 -0.0516358105943 0.0358227171241 -0.135242847654 0.302998744224 0.24870495223 0.0950889619024 -0.0528253255963 0.0862255569337 -0.0254888621613 0.185828049885 -0.298415397411 -0.0121724164291 -0.383088113155 0.176304563245 0.0874794559513
crushed -0.0800447394431 -0.116421827741 0.0693996007307 -0.258092849364 0.0648836498133 -0.337264200333 -0.13805921321 -0.305350153192 0.183538559227 0.0471865335108 -0.0459075252509 0.15718787167 -0.0180758196453 -0.0938773317008 -0.268403120449 0.100205593706 -0.167283859909 0.183025273753 0.0730718536667 0.0342114038086 -0.0463872614499 0.222460699749 0.405048291671 0.0397077882601 0.323668529744 -0.351268283547 0.315257873303 0.0290894217533 0.122574888716 0.363021838677 0.444196999062 -0.254558838592 -0.120949763425 0.155091498636 0.160666487888 0.116928931586 -0.00599564391862 -0.259551347107 -0.0327748330154 0.436812441014 0.0211639811033 0.00991986675201 -0.049909118094 0.0730341314003 0.0892870274374 0.003287223214 0.408885595291 -0.0852582350578 -0.266869084722 0.199358021836
sweet -0.419299426023 0.0934840995133 0.161517573912 0.0588191069739 0.0643032840513 -0.255431259563 -0.0883056185 -0.20908098995 -0.0618355266567 0.062785030615 -0.300893300892 0.0554009454628 0.0285961039648 0.0772290127832 0.0335981194394 0.15707213973 -0.331866115971 -0.186472868962 0.102736064205 -0.260381864254 -0.163108479804 -0.504856119383 0.101465465754 0.0422059372851 0.0957901647135 -0.0687520814556 0.103336040732 -0.132971841367 0.372864611677 0.270422124066 0.224790661153 0.011912712776 -0.0077872655041 0.552511745778 0.248699565765 -0.167074601675 -0.166739546277 0.118888450941 -0.011055250112 0.48183794798 -0.0935269774459 0.135429222253 0.0287559516966 -0.0581214210555 0.137233381587 -0.0750371880575 0.205083265394 -0.221134117545 -0.156814181769 0.154089147307
soy -0.214263525508 -0.0523027765784 0.0949287715808 0.235737055668 0.243836435949 -0.255311180368 0.0998491093341 -0.433858104552 -0.000956337853316 0.0964740198719 -0.244082618852 0.18419574188 0.0658845593804 0.29594918197 0.223171196216 0.154797471149 -0.369830316196 -0.42122025744 0.145196822372 0.0495654305658 -0.116090307378 -0.182197523495 -0.0783319342941 0.0895542797101 0.127298144802 0.0248673420773 -0.0779709788568 -0.134240123969 0.119452126713 0.0235637778738 -0.044853386357 -0.281838627925 0.0745361357059 0.116359631907 0.392534367128 0.0328961839343 -0.41662437227 0.0297807814111 -0.114004236245 0.344132266118 -0.0178430431522 0.0744437809475 0.103520178076 0.0236715577066 0.0981262199271 -0.0466921427466 0.0523742003102 -0.139662127561 0.0169486276305 0.0743887471439
chocolate -0.241548497827 0.0578840096353 -0.101169116943 0.0490916477528 0.327456900672 -0.0890788560409 0.407045787621 -0.449468107892 -0.196760654966 0.0467852722122 -0.25097626687 0.180967470046 -0.0519707056121 -0.0297524866005 0.356639060327 0.0894201287191 -0.310150754797 -0.402336151265 0.346824198047 -0.155337247451 -0.11300800663 0.0565061673274 0.0589155505411 -0.0517718507874 0.0664422572802 -0.135848062381 -0.0957970165081 0.0479551556045 0.219646627281 0.335635292435 0.0113263839207 -0.247641856567 -0.03925386223 0.0851111790983 0.239106118619 0.0574902269213 -0.427308687646 0.0420734892506 0.152254518836 0.437012866667 0.26825776837 -0.222206469799 0.313880777006 -0.243676125139 0.0233070010299 -0.105525271949 0.169896404771 -0.0915802085839 -0.205423332372 0.201226437298
vegetables 0.0602939310378 -0.165506335463 0.154423977104 -0.0160863856022 0.423667125477 -0.146049834963 0.204904228474 -0.429912309297 0.0743324406406 0.185635067483 -0.195198012685 0.1827791549 -0.237266330491 0.00485383467634 0.257288544278 0.00547076874859 -0.330820376695 -0.395813744833 0.0638060299651 -0.280943359325 -0.112481304131 0.0631143058748 0.271305814958 0.127247688312 0.0576411224153 -0.291129023945 -0.142111913799 -0.109056472189 0.155456673902 0.0953005482217 0.0420532959384 -0.514473116455 -0.218785646444 -0.0865534443202 0.0471671662852 0.129861035392 -0.413991399266 0.132437305049 0.031663807963 0.0510194338088 0.212496178381 -0.0281702048311 -0.0450544921242 -0.0953589756361 -0.020327658167 -0.190424717269 -0.0462703547389 0.0183044434906 -0.263607482324 0.24177705302
coconut -0.439817128595 -0.0763421006062 0.155456033558 0.0221338555887 0.145834035574 -0.0962435970098 0.275661499446 -0.41800908874 -0.0939984178528 0.150733074409 -0.268624282277 -0.0399055956152 0.0279917513607 0.300212714638 0.237767279369 0.0483100626809 -0.37049419843 -0.127833534331 0.167092233237 -0.163383409421 0.00278493497504 -0.132360395868 0.173612837217 -0.164752375417 0.260706937353 0.061369175409 -0.136714425337 0.0116377153517 0.274998580458 0.0547827579312 -0.0816999061619 -0.0219891650523 0.130802003198 0.15594437226 0.30679459298 0.169486821534 -0.392022960139 0.0727011932044 0.0499087514694 0.300831847156 0.00810006160069 0.229071998031 0.220374606898 -0.128267857215 0.0763782786657 -0.00331666595589 -0.00688764291051 -0.135949434261 -0.258035068343 0.0821879971977
filling -0.181554187551 -0.125383106669 -0.0146753759517 0.00271621560353 0.157020026103 -0.257547986275 0.195954102848 -0.469910833763 0.166383414835 -0.140557047677 -0.19454442597 0.142427974725 -0.0467939651157 0.184158809422 -0.04419671943 0.106049929293 -0.247031762221 -0.107870455933 0.0361616108011 0.260628865414 -0.158291945535 0.0908275400503 0.317468238454 0.0908439329889 0.411694730633 -0.2832022062 -0.160980258503 0.123060973753 0.00233054476897 -0.00879949658241 0.139398532816 -0.170529320761 -0.0535607974782 0.13237927058 0.318409231979 -0.10132945419 -0.227457194544 -0.179406457166 0.0933913134683 0.377255593588 -0.0259456323595 0.0944055723572 -0.0500968112093 0.320887904955 0.0483590592423 0.039499208276 0.169847161585 -0.400174027501 -0.26338092902 0.061896587126
orange -0.0895578718956 -0.063583158136 -0.00914452571811 -0.279888683702 0.218037660576 -0.2009890104 0.250283372144 -0.262222818812 0.151135412359 0.341593476322 -0.303549063266 0.0454780562237 -0.135336943033 -0.144643703007 0.470548482504 0.210570619482 -0.258183124099 -0.241546743843 -0.102321129369 -0.0419940118888 0.137164907534 -0.110961768907 0.188647999273 -0.0864263563384 0.181328066723 -0.0917603095011 0.0131157920168 -0.0841755625624 0.18706151129 0.136931032607 -0.0788886189788 -0.285008212447 0.240784305818 0.132584515179 0.351142589229 0.115705398337 -0.219179729491 -0.240967324763 -0.124411670247 0.338246254544 0.400031114167 -0.0740387771029 0.218959518021 0.0509396633583 0.00135952168963 0.0815174594336 0.102169847044 -0.249767074818 -0.339890050074 0.170585973762
eggs -0.299163240054 -0.157794113619 0.367578031896 -0.121672048797 0.0558062315663 -0.163970572509 0.180490588658 -0.641911520185 -0.189857743341 0.140232502862 -0.276349823928 0.192200791363 0.00583802632396 -0.0596622066528 0.382876607133 0.0430927158328 -0.321868769693 -0.255192070967 0.0619924340141 -0.0534377521518 0.146150717971 -0.29194766706 0.0992370898858 0.16454470095 0.119844125372 -0.138739975678 -0.303955793391 -0.228978609666 0.0819108131866 0.139706191961 -0.0837511804573 -0.192525204781 -0.335730475915 -0.141668255429 0.286764991894 0.289736714259 -0.258552347942 -0.305919470798 -0.126861979854 0.482651908094 -0.0188901879598 0.108724708986 0.142416090866 0.0146651549101 0.0840432347976 0.015723601779 0.131666386501 0.0187873793563 0.0482347696182 0.121457783993
seeds -0.178227312783 -0.0246399288037 0.217459884891 -0.00785234288182 0.23090533458 -0.342973124806 0.072989020408 -0.552316931198 0.119641576604 -0.0205672478111 -0.35006715546 0.222282530931 -0.0985545940712 -0.224880804089 -0.108383029641 -0.0192646962358 -0.316107262348 -0.272843992818 0.157060573546 -0.178460643728 -0.0497383869044 -0.0466454225668 -0.0367382703804 0.0712640206747 -0.0265346375994 -0.0274479101419 -0.340925861052 -0.16911066996 0.197421871333 0.0126722310631 -0.104359154464 -0.257952877142 -0.265704474818 0.180351652825 0.159239916583 0.15055390976 -0.17887148835 0.0280120634539 -0.0299238346103 0.262463202211 -0.0312082444618 0.0852912617531 -0.124322560579 -0.0659863679737 0.274627916103 0.0377103140957 -0.137296265848 -0.0647143753795 0.0634774761943 -0.0343163805745
cereal -0.369803351656 -0.061500868946 0.144989165682 0.302912587588 0.297349999298 -0.184812427807 0.0420410391412 -0.227678538335 -0.186601330493 -0.0078961303424 -0.0679890649588 -0.110687338571 -0.168408911952 -0.0543210342962 0.308086787305 0.056822622261 -0.373680334737 -0.232714684934 0.170998328224 0.0432185518805 0.0304772804578 -0.147074339001 -0.0241687354006 -0.0903265458191 0.261429029982 -0.0105532782474 -0.00616899743911 0.00334172031189 0.0889491013008 -0.0125631742016 0.0735639548944 -0.263083007802 0.0882618138213 0.288244506825 0.349165013434 -0.00927978836624 -0.363052721284 0.134357407017 0.25553061295 0.274060402867 -0.193668684171 0.246239507198 0.16388724245 0.203041868423 0.0955024678534 0.01127486605 -0.0913640275795 -0.183929234963 -0.00619502406845 -0.201157898434
dried -0.140984319411 -0.274078354762 -0.121128433972 -0.0849259739923 -0.00698716605879 -0.212612326949 -0.0510404595229 -0.267902979927 -0.171598687584 0.313545871663 -0.352110669762 0.161898967666 0.301688554989 0.256290837408 -0.265571801777 0.148728758742 -0.173341264902 0.0651849020588 -0.0127654037918 -0.171476154897 0.0219748451036 -0.0337291095706 0.0431552624065 -0.079712539432 0.412518633979 -0.0578441703531 0.0429263782581 0.038658380086 -0.00185642002123 0.247894293857 0.229177078557 -0.458108871268 0.00201408060763 -0.0200527225453 0.258634143415 -0.0443968882035 -0.118802469401 -0.134543586692 0.216279143497 0.559074454772 0.0209893188439 -0.121133852488 0.153010679081 0.239968799246 -0.0394996374437 0.00346950267879 0.142351015681 -0.231094528266 -0.0425753568137 0.0753947026808
chicken 0.0612773428977 -0.111865370009 -0.0230411341029 -0.00484504117213 0.318484622333 -0.378952423205 0.0429164418174 -0.283372618307 0.0532223064879 0.130691397702 -0.103276231253 -0.0254488431741 -0.174512005284 -0.0156727493078 0.219182530599 0.161090340638 -0.359393582651 -0.248298489686 0.292015578568 -0.198765378353 -0.207281876608 -0.0266193090786 0.504444452265 -0.15321474452 0.28003880063 -0.13020834011 -0.0857796289793 -0.100428104758 0.00909821822673 0.0165916320719 0.00242417418931 -0.160248894953 0.141135730653 0.268687131231 0.0711420235846 0.148124656711 -0.241977470204 0.124396703634 -0.0166018606487 0.154694152205 0.15450902751 -0.0343852378465 0.172151110981 -0.0229121102248 -0.125724831659 -0.312138746348 0.188783154375 -0.131593921765 -0.196420512417 0.360395387405
dressing -0.472924656729 -0.0932148545715 0.0219322136642 0.000489824084262 -0.142543689942 -0.291618253293 -0.061349687587 -0.421800273772 -0.267421480885 -0.0761579880201 -0.411704919793 0.346568474977 -0.0543421639761 -0.035056672712 0.204017980967 -0.0107118921873 -0.196698718979 0.0314108778413 0.105017016282 0.241150679431 -0.137869175697 -0.301127794963 0.176059900693 0.054080089398 0.214275777825 0.253467342415 0.0596662905253 -0.176440235225 -0.114099638486 0.224657301465 0.0740940430781 -0.0725937556208 0.0102871039648 0.486625138213 0.0871370947946 -0.0233019251713 0.107564143454 0.0589713458905 0.0570199000097 0.50092744982 -0.0428982100543 -0.176890295467 0.0332809942124 -0.0227924578196 0.179646245495 -0.173063659879 -0.0520437080006 0.129567819881 -0.13046852873 0.184080456073
salmon -0.0549091857898 -0.123937180991 0.212465704947 -0.187979754412 0.264865306735 -0.276503741916 0.0244654829016 -0.389739427689 -0.0840042324487 0.120117298556 -0.303828783271 0.00156272449331 -0.289103720932 0.12858120782 0.226146587276 0.101002047308 -0.192466478564 -0.471134422855 0.13871819363 0.186295412296 -0.248442501156 0.0163020458507 0.294836348143 0.0151608614817 -0.041910726353 -0.139905397555 -0.0567215098754 -0.273803178856 0.163996701063 0.204344309309 0.333288975538 -0.127702599549 0.17289450505 0.0523396739987 -0.0391573858713 0.136089827432 -0.220080645085 -0.265043686114 0.0277478085499 0.104811052875 0.00325074264637 0.106283648112 0.128483876392 0.00434198784313 -0.0442793042457 -0.166594928996 -0.0956221164241 -0.313765724245 -0.0751051707123 0.249272932662
olive -0.212493380579 -0.203245170814 0.296367003316 0.0352754448432 0.29334800407 -0.122624374587 0.334856919366 -0.144683171361 -0.0187142159004 0.133591235729 -0.231905105104 0.151711125767 -0.00764678644146 0.0346233028851 0.136704386076 0.0864942774215 -0.118068409702 -0.324559267215 0.100550348002 -0.0766274932917 -0.0308011076024 0.0438153060773 0.175371244115 0.0953687548547 0.221870855204 0.0227506648731 0.389894999382 -0.0576852850363 0.313664207615 -0.00262924806733 -0.118848418821 -0.334376394389 0.151774738082 0.139247898772 -0.0429464604636 -0.126263598367 0.042999270767 0.114948762451 0.142452378447 0.436517883678 -0.0536562275606 0.116544026026 0.213356593972 -0.13198039137 -0.107478143262 0.248196044699 0.258064035659 -0.272605355788 -0.289716703043 0.123706515718
cream -0.184547753841 0.191619518173 -0.134082018468 -0.0974959746618 -0.139775673421 -0.286861807016 0.0825599624484 -0.601830790706 0.131178719804 0.0301503752851 -0.106920281049 0.0467348060945 -0.0499422797512 0.0216133398182 0.371055560665 -0.261697307146 -0.10879951304 -0.312253829005 0.157504808013 0.132814785469 -0.217321074023 -0.442808708455 0.231619341485 -0.209577170229 0.271389059362 0.0881750178544 -0.217674324209 -0.236600844275 -0.0578131579961 0.167170651234 0.184682147866 0.0234171900277 -0.0795989223612 0.216232754329 0.189895807806 -0.0493828271063 -0.0472535377872 -0.140229470425 0.061125036834 0.189962404121 0.0601052860063 -0.224356106867 0.398821850643 0.0271176511515 -0.17011127127 -0.365534037091 -0.0432053962705 -0.115023618211 0.082530979059 -0.0228473075858
cooking -0.245406353573 -0.169389707745 0.202229768348 -0.0556258382401 0.114755325335 -0.171493099515 0.153083292004 -0.460458904229 -0.172843980047 0.0292560506398 -0.405974413518 0.0455246002229 0.0892181620761 0.221821834429 0.164162979574 0.0611461069807 -0.222666974936 -0.361567330068 0.234433952654 0.0564640371038 -0.274850766073 -0.137936120109 0.394030387806 -0.128743539301 0.235876954031 -0.119394502597 -0.355586298607 0.0246408141669 0.148550670154 0.271037015032 -0.119342547971 -0.212929545817 -0.00668564409215 0.199911228966 0.179180981831 -0.0716783157768 -0.0868516360155 0.095347875801 0.046010086284 0.2795926119 0.131912282846 -0.0935290795228 0.00228639445876 0.0187979023056 -0.101124599986 -0.0651026393146 0.127661759577 -0.155270121128 -0.166034750886 0.131496322658
bay 0.226911233383 0.231721456803 0.131467016203 0.104849864333 -0.107727946579 -0.213905459036 0.163489937682 -0.309365292309 -0.0452041817564 0.131936972161 -0.195173723106 0.191275353088 -0.396201085411 0.155275957476 0.217219221026 -0.19986349278 -0.135726811551 0.153313513482 0.197585972566 0.224540262149 0.0667850389 -0.0871595995584 0.20786804789 -0.192528171494 0.276132587745 0.267307849547 0.0708402352879 -0.242489880352 0.0336071045788 -0.220426007014 0.0932348749614 0.0271536829304 -0.138786327032 0.513875753493 -0.193662140428 -0.0816124074932 -0.110806046689 -0.339833544716 0.037761216566 0.432053074678 0.0479923985947 0.200479638614 0.322958429267 0.105197605044 0.508217124987 0.0369787290429 -0.172128900336 -0.053504059617 0.356720844605 0.130980301345
apple -0.147088914191 -0.13693844828 0.223059703576 -0.0653778747364 0.0743469842154 -0.0885022379664 0.193696640806 -0.427236551501 -0.0345846404295 0.0815096407054 0.00134305289183 -0.222681027975 -0.304402912244 0.0950278600449 0.384906657445 0.0957445933614 -0.129866519213 -0.470846431412 -0.202698352087 -0.0280951358387 0.0639350853067 -0.255122658989 0.127626108686 -0.00791677670603 0.124624751479 0.0776588779493 -0.0571135012655 -0.201736131768 0.0375685617049 0.0497498607177 -0.184479704459 -0.364973033397 0.222724546763 0.131165070094 0.391602675277 0.183339951703 -0.229318257545 0.198093860138 0.0145571795831 0.373814392347 0.147858911537 -0.287849110601 0.224349331542 -0.0645566076977 -0.0270422835417 -0.134214009948 0.212553213333 -0.056383733451 -0.235447781676 0.234485828549
cheese -0.19201396421 -0.0637287535397 0.213779953456 0.0465251837591 0.23280850478 -0.202031544649 0.220982396453 -0.44261967943 0.0567115582955 0.0680257379156 -0.112507003632 0.0935646791494 -0.111927742241 -0.0483293601767 0.222266311382 0.00406241327021 -0.432285448755 -0.210565031627 0.166045973645 -0.0646859314572 -0.130114463864 -0.205325955875 0.119139979219 0.0474549036874 0.163157882034 -0.163639295922 0.0258075543169 -0.238943551768 0.184693520143 0.16692572777 -0.0514367959164 -0.282804259189 -0.283694977435 0.224981240352 0.150446116031 -0.0597917008444 -0.405051585306 -0.16865675279 -0.0768186781965 0.226571003796 0.11137016139 -0.0861852640224 0.220927833623 0.0286191754572 -0.0489901051543 -0.085650163718 0.200965854408 -0.161563723708 -0.0386371588666 0.0940988744563
butter -0.213530236413 -0.0369257686038 -0.0157599785023 -0.101340861408 0.314822839186 -0.0768668450848 0.351834542699 -0.38571956124 -0.0770058973333 0.101807131224 -0.114247492186 0.078903857726 -0.0805204779555 -0.0511803520563 0.251901748482 -0.0234482091496 -0.337740481962 -0.451231949859 0.0398749635186 0.101770548195 -0.127157845486 0.0589429263501 0.260659448966 0.139603905557 0.136830512663 0.0575187719187 -0.157778588198 -0.210417217559 0.0140602309185 0.142082444616 0.12353516418 -0.128791072057 -0.107639467399 0.163068518809 0.176539199811 0.0942453301084 -0.367679587475 0.00361646743294 0.0326008868631 0.283020869338 0.101340871616 0.0301449350802 0.0625882911688 -0.140930912524 -0.00322986371394 -0.146773017424 0.0179951775142 -0.166180408821 0.101291493436 0.261018238592
shells -0.0198641666846 0.0606986214473 0.0366056632824 -0.0142339459113 0.0296515641412 -0.394077450934 0.242695553435 -0.517002659631 -0.0901491486774 -0.0497589503328 -0.17626717801 0.216437859569 -0.106801014659 0.0824566937722 0.0155227409353 -0.100762576526 -0.101264053838 -0.233643693232 -0.0663854835687 -0.0630950818403 -0.00320399220485 -0.10367438134 0.0671019393927 0.274268688503 0.0757737087222 -0.120126086372 -0.0786239469054 -0.037805332196 0.112208364651 0.233213011965 -0.0818421533009 -0.117862243884 -0.0656073696505 0.127576793464 0.0120358461363 0.372542035388 0.0988510685323 -0.145360469522 -0.177873723308 0.325177344371 -0.0515452878408 -0.11119000617 0.0628036060668 0.0927024935459 0.12030026054 -0.0324479459779 -0.0203041215942 0.152562857579 0.0144271753982 0.0734908085554
margarine -0.0692321080007 -0.12369055746 0.244057247126 -0.0715935661039 0.486318843506 -0.296771555695 0.302497393933 -0.3635621541 -0.164192040412 0.244452899443 -0.295267338045 -0.23139143882 -0.139690034213 -0.172184521699 0.239279337519 -0.14940532674 -0.423466367664 -0.497990237355 0.182307020887 0.0862924736001 -0.169856979874 -0.0755292998771 0.00258758507613 0.0871285235171 -0.103635907469 -0.0434674068704 -0.142714686457 -0.206216114825 -0.0168688032297 0.144420649949 0.000996496959443 -0.185571153589 -0.337548665468 -0.0661499968236 0.107757802871 -0.0762714996867 -0.293993215262 -0.0427842085098 0.065276226276 0.222792924429 0.014310262018 0.148894368862 0.212339508939 -0.182885373274 0.159579329905 0.0342841474914 -0.0802716357962 0.089420376112 0.0637713624144 0.0432823554948
topping -0.243591179777 -0.176727711618 -0.0753273489151 -0.0969618444163 0.417801566341 0.0367271169896 -0.0563118668575 -0.228895053045 0.0346224224441 -0.0659972824488 -0.135352146402 0.248834012483 -0.135920267614 0.104119023248 0.0187271049796 0.0153043348887 -0.255657373416 -0.0406270266845 0.13146180767 0.110154875237 -0.26294960734 0.502356491563 0.0901520636457 0.350732329988 0.285104200576 -0.211687637555 -0.0386400664299 -0.15901764106 0.102465330803 0.396692367737 0.250741506277 -0.0088129859158 -0.0282192577648 0.393662673068 0.0474695291371 0.0580411543868 -0.254234014 -0.122091919577 0.0229955373672 0.160664842166 -0.245716844908 0.08626751123 -0.0688689870607 -0.084684573322 -0.182497896305 -0.026835146763 0.215056852324 -0.139103982734 -0.0671669872587 -0.113223471577
rolls -0.173800261335 -0.0173551102887 0.0039677136362 -0.0348959424288 0.0938212136956 -0.0732034605306 -0.140374841251 -0.311382104636 -0.0542987992082 0.0113469477886 0.122625707882 0.222944666397 -0.116010877104 0.0351066854768 0.137860590056 0.091130865884 -0.0706388152344 0.18867321877 -0.150498500138 -0.0387094907809 -0.0314979468074 -0.0363198497282 -0.0998200405472 0.158644659032 0.16009452148 -0.0652509273284 -0.0425172848998 -0.0325536082395 -0.141263642328 0.218313460256 0.10359719546 -0.227562269111 -0.202420768599 0.177833213974 0.324516672285 0.0780517361806 0.0328707384244 -0.331205735806 0.237336715772 0.233411672419 -0.186048179059 -0.023207256392 0.141261486701 0.0843436906935 0.20027140842 -0.167535417848 0.0503264281136 0.019839723458 -0.01187317904 0.0245640313529
powder -0.205175379406 0.0700956436303 0.138778180341 -0.167402214367 0.0676809712551 -0.399240959638 0.0258279984519 -0.387594798789 -0.0702377981978 0.0928367881355 -0.239651470267 -0.0766126181868 -0.179055074503 -0.0400150659751 0.247040546888 0.0437294771536 -0.108056377715 -0.192114994454 0.0257909858106 -0.0877179764234 -0.0547463079058 -0.10605228627 0.0346191744086 -0.299287918066 0.151219556411 -0.0471467366911 -0.161845913741 -0.1256735002 0.136643656461 0.420112718388 -0.121457401462 -0.425504347631 -0.168025201297 0.0548856321097 0.209453984159 0.0461356538231 -0.0315384681342 -0.160907589632 0.221719445287 0.261998255489 0.160613968781 0.00799217958673 0.0746512724444 -0.133231310671 0.0118306705967 -0.416147445015 0.197658148902 -0.0969134834119 -0.0557296850929 0.237987825696
salt -0.281506534868 -0.0818818076908 0.156687030573 -0.123399458647 0.163735507849 -0.264012289843 0.347788357692 -0.444358113809 -0.290146911806 -0.0653609203939 -0.245268845193 -0.0408315102635 -0.190327254426 -0.0609788115709 0.279657901809 0.0277505152541 -0.118165882125 -0.270598775978 0.193084051834 -0.043658949873 -0.101256188851 -0.363660264507 0.113227309151 -0.182927207174 0.197025333973 -0.0378766681676 0.115705529561 -0.0399833155811 0.285517694089 0.192207518776 -0.228964070952 -0.309729312642 -0.0682417346843 0.133283928794 0.40153699696 0.0862133269122 -0.169381630396 -0.161730721503 -0.204306539558 0.194201718572 0.0317093114703 0.0348999224667 0.203347312734 -0.0939375698644 -0.0887942882267 -0.0847305583549 0.0238636523641 -0.37580626419 -0.158644659549 0.142154490989
bell -0.241541933466 0.181860417481 0.0434293226568 -0.283120686821 -0.021953291212 -0.32635727182 -0.188934791183 -0.403804343926 0.0453647081906 0.115048214762 -0.139146292771 0.115052144618 -0.290524597266 -0.219303394784 0.256987120524 -0.0448606764361 -0.188385347363 0.000470222772979 -0.0268154239 0.173687549047 -0.246040245857 -0.107325294785 -0.0538992204085 -0.292714692901 -0.215386887049 0.165040638307 -0.00686673935238 -0.177210217234 0.192138429766 0.173277983464 -0.247985177694 0.0456656147682 -0.320178151378 0.370055343708 0.19747316655 -0.0603347649321 0.0723422145183 -0.0694987917916 0.442751553174 0.221560519539 -0.117322973528 0.0115338814655 0.0437823215431 -0.0817614469617 0.067072552159 -0.00247815569698 -0.0522201127386 -0.344580625487 -0.215260067526 -0.0892006083534
banana -0.188404676248 -0.0454434533924 0.129998991672 0.0515568341357 0.254769516736 -0.321405720895 0.0332541891725 -0.358258595355 -0.226875506884 0.234690330166 -0.311098167387 0.0146064358146 -0.237171091111 -0.170305664196 0.0834430691185 0.253655696018 -0.233583482549 -0.197669595061 0.254433190423 -0.059344307705 -0.220683006165 0.0183745439771 0.29996745928 -0.10253421161 0.183559090938 -0.246808106256 0.090208676989 -0.0972688779563 0.233991879992 -0.0639906547586 0.0731286696219 -0.129314009403 0.101903754471 0.0312559741592 -0.0491113236257 0.104923597754 -0.0219189746046 0.195529932867 -0.0203213875968 0.300905389278 0.250287770903 0.0396115561831 0.205765715675 0.0242673055203 -0.00644799771151 -0.131299852104 0.322619409764 -0.155246909743 -0.178194497257 0.181701086777
extract -0.0884177444924 -0.241272668985 0.128056067071 -0.109014407704 0.280812770328 -0.130672043869 0.092542528074 -0.207955066025 -0.152312018989 -0.263556039751 0.0552034311612 0.129804819892 0.0576221234682 -0.100497174136 0.380736965777 0.121742300216 0.155887327051 -0.316089451986 -0.283044011699 0.135427226902 0.0327035517224 0.0927577794318 0.185520785781 0.0291866201551 0.373109911613 0.189077467663 0.0110307724623 0.0876294566373 -0.00781186177041 0.00387020172071 0.0578268680209 -0.483539621811 -0.267464485605 0.357844547274 -0.26759389913 -0.137286115133 0.193371247521 0.157222424265 0.217921185205 0.19389673824 0.340756447494 0.0641427587484 0.179899663367 -0.0276884987706 -0.0684766663608 0.232139437443 0.110724641325 -0.0307983540615 0.0604735150899 -0.0689514620059
cake -0.376756032626 0.115969531996 0.220871561567 -0.0341253071265 0.0917518377444 -0.276737929807 0.001676248087 -0.445541464572 0.182309124347 -0.164042687875 -0.293115313154 0.237271072708 -0.304031528408 -0.056354995504 0.318984586587 -0.136837641879 -0.0709341088429 -0.267721157867 -0.171786118893 0.0693054271212 -0.301974998574 -0.263525630611 0.160102340889 0.0109374740219 0.254477576518 0.0801975476042 -0.168687565696 -0.156139141467 -0.0238340089302 0.0149652063352 0.122659721529 -0.359539644407 -0.274501123411 0.128742823785 0.0310699246531 -0.0385844603059 -0.117917942798 -0.0323869328329 0.148349821377 0.333344160879 0.121809497835 -0.200515855395 0.161625381333 -0.0588067420288 0.0528338615085 -0.0734355773169 0.0149272972365 -0.0160763123705 0.0890136638193 0.107373752844
potatoes -0.112058193433 -0.0547902529439 0.117016128229 -0.0194121241246 0.218640132045 -0.239896653106 0.147040508218 -0.518505160278 0.0534287578326 -0.0827452827759 0.0758766613142 0.0565132623055 -0.0440364943461 0.03377248158 0.223502680434 0.0695085504638 -0.258010780116 -0.375516320937 0.0677255591803 -0.0712617884916 -0.077512108256 -0.379052584938 0.0806318010272 -0.0862814551007 0.0646592447778 0.0593522275154 -0.0934664875607 -0.225400223311 0.255525221591 0.131529620779 -0.0137178272589 -0.167059714036 -0.200093909829 0.138661525477 0.200745147585 -0.00485897454679 -0.29698079498 -0.125069792935 -0.0370538733904 0.0737015131716 0.0494745487799 -0.0425967752855 0.187094213964 -0.24707017845 0.0772618796357 -0.192754691186 -0.0430236872021 0.15816130127 -0.175648059803 0.0829380593231
soup -0.153681377525 0.119622994244 0.173779201983 0.0317934153991 0.0164185854714 -0.265856948497 -0.135962991409 -0.544651931146 -0.109640634579 0.0220896341881 -0.426312516666 -0.0453375717717 -0.230514817399 -0.126996336997 0.41228340114 0.00777426247427 -0.0447233826859 -0.213369168607 0.175395795147 -0.113457157173 -0.146725666059 -0.11493399323 0.106881356106 0.179747900974 0.0474754212617 0.125522941786 0.116368603804 -0.0323945152511 0.266311646957 0.0788733274974 0.0799814644362 -0.117429670603 -0.0211051725682 0.260819455434 0.390324570836 -0.0992914532937 -0.144086087541 -0.0478029414997 -0.0990667085012 0.0926594530964 0.142682315976 0.231210112635 0.304670906226 0.169225083466 0.157348800147 -0.24210547942 0.0433828578616 -0.0888807596752 -0.374904007011 -0.0916071012484
tomato -0.278316415802 0.0984508794308 0.109130834385 0.0300052575185 0.222961958729 -0.118395799447 -0.103117942246 -0.278528330151 -0.0809404222391 0.189613160631 -0.211776218426 -0.208946094365 -0.104107285813 -0.00581170126476 0.200274539496 -0.0450447350978 0.0340654925264 -0.185034255105 0.228279149813 -0.264112336362 -0.0119924889187 -0.170830293714 0.232527067526 -0.175184722115 0.138546588906 -0.0348569606325 -0.0920986665383 0.0995030196608 0.220811439463 0.0475526304384 -0.0683887870777 -0.273872146339 0.114520209898 0.206708103058 0.167389396427 0.204305015528 -0.177001780014 0.204887912178 0.106016104078 0.432254864881 0.126953676566 0.188434723344 0.196721471467 -0.0375807030253 0.134498831821 -0.10504552512 0.136905315058 -0.261206635236 -0.0985868192083 0.246219280362
tuna -0.191060644328 -0.0725336021332 0.121751835427 -0.248533796921 0.101504954982 -0.329256393044 -0.131102257626 -0.583092158267 -0.260984553128 0.0862971366327 -0.318202411238 0.11949426904 -0.104697237656 0.0467910661969 0.425750065346 -0.0750492545847 -0.168361913468 -0.509404882084 0.148411464549 0.0850339222592 -0.335935509284 -0.16535236869 0.0417994368122 -0.134896198386 -0.181262956481 -0.297012203193 0.106469041628 -0.112846219456 0.181467934052 0.226278993871 0.0295281781227 -0.143068686869 0.070505703275 0.0814703855772 0.172542660279 0.139020876504 -0.114460985234 -0.0997638689665 0.0438548844126 0.247485902895 -0.0700706738113 0.0610442717017 0.0861653187414 0.0331198533211 0.267466079664 -0.137814283187 -0.0654655621992 -0.0063712792558 0.0569719831655 -0.0122271180104
tomatoes -0.144003243982 0.0251935205162 0.187547113588 0.0153296463417 0.0392196861299 -0.152636984723 -0.026121103969 -0.261608799063 -0.0801946272664 0.15140932496 -0.24942678956 0.208762283519 -0.0833850847966 0.16095760365 0.222957732014 -0.0174753700442 -0.285618208233 -0.312448418376 0.139196267794 -0.144430799398 -0.143963281212 -0.196946001275 -0.0863530065559 0.0318959149959 0.0561369731324 -0.241170416894 -0.0793081158205 -0.133719868496 0.121682539415 0.276586451724 -0.0524675213581 -0.208621579112 -0.123266258805 0.0798127792997 0.142651450605 0.134727526456 -0.241244698721 0.00210872281137 0.00992516869828 0.193563935612 0.0258173388935 -0.0920781199187 0.107410613455 -0.114248115382 0.140164372494 -0.102421901818 -0.0577517149462 0.0127418553607 0.0357104578407 0.217050715934
brown -0.305637516542 0.00741183897298 0.0731915909743 0.0570723351425 0.0253474520403 -0.277655644107 -0.0757904820125 -0.392721497802 -0.115896501488 0.185616746734 -0.0829343112262 0.0672333576579 -0.0337779411253 -0.127331144349 0.260178784694 0.168286862435 -0.19909349114 -0.088926279917 0.0311703728588 0.00222498740173 -0.0787464843775 -0.421053428199 0.188336719433 0.0762179062803 0.17141889008 -0.115021959245 0.119925162936 -0.0459840468497 0.181463809463 0.0320379107099 -0.0924340093574 -0.0597810032227 -0.0464615817333 0.380083215988 0.00624025108326 0.0265689042395 0.240156239655 0.0132384898912 0.00224776374851 0.244973125648 0.28873948221 -0.0123093174256 0.230278800302 0.0880665742188 -0.0894365310437 -0.288257265937 0.111874497133 0.0785487248682 -0.138872349539 0.248754072118
oats -0.075344109044 -0.0930461770767 -0.0180410684086 0.141057510177 0.115788366861 -0.133301454223 -0.14170348881 -0.135199078022 0.304144760581 -0.0848827338929 -0.202481059241 -0.0274981243224 -0.0844427960278 0.18818866098 0.00126878329513 0.174301631246 -0.30055779768 -0.529961748729 -0.00324293510505 0.011642258653 -0.185457498985 0.162229081899 -0.0826821627219 0.0235957407599 0.0615310237325 -0.0082719214124 -0.188552152166 -0.170938341961 0.0992848607745 0.209783803791 -0.137844520583 0.0586910541153 0.215599106956 0.175817068482 0.237654461341 0.0404903504996 -0.228572153312 -0.0918977386543 0.0904363635553 0.0918278397734 0.107436001894 0.0841044932715 -0.0790500998872 -0.180685908555 0.0893643850377 -0.0218635822327 -0.0625031942538 -0.177047399106 -0.0980577750657 0.0977853419331
vodka -0.0957759509281 -0.158759760284 0.3568095065 -0.114357408245 0.228020926422 -0.224812102704 0.325718588688 -0.282130591406 0.250847857513 0.045972003235 -0.135710050307 -0.15261760462 -0.161719198236 0.117989482178 0.177795209225 -0.0518817480008 0.00433117215862 -0.495822015642 -0.0437942718115 -0.0121334534329 -0.00998578126945 -0.20870743606 0.186142935215 0.115563348414 -0.00332948562714 0.0611471052268 0.0530511448841 -0.331612145437 0.16683231423 0.25021470725 -0.172778675177 -0.224127897015 -0.0280783135255 0.365512552726 0.0311535939244 -0.00056438880243 -0.439320186359 0.0258852587053 -0.145569795404 0.0637845242704 0.0659268086681 -0.0698913499808 0.157918440424 -0.208335316067 -0.0351018201535 -0.0125406508795 -0.0164653093398 -0.189542412533 -0.13454684874 -0.0314920225143
bananas -0.25880028512 -0.15998336126 0.0599502054941 -0.207695284746 0.330674547216 0.0118255146132 0.194962320742 -0.297643644279 0.0501105511405 0.166185446234 -0.130013776287 0.0870314722187 -0.0864241678809 0.152491903863 0.143774019555 0.073546000103 -0.129312344222 -0.243576959966 0.0593499187556 -0.167850758216 -0.119259525058 -0.0319198922193 -0.0665642154121 0.092866852012 -0.0446800362425 -0.250748011045 -0.152218099318 -0.00881822164467 0.0457290417573 0.201247225399 -0.161740190565 -0.177709417047 -0.136027179131 0.134933164075 0.230758420729 0.0607720395148 -0.308062902756 -0.0646845459928 0.147256287372 -0.00903340428348 -0.157899164357 0.00533668784951 0.225413060575 -0.00626563464186 0.0232514476059 0.0915982071371 -0.0963316156979 -0.0354476319306 -0.0849145409743 0.423203995811
potato -0.381239172462 -0.0733589576439 0.333596226619 -0.0845932600069 0.177589851247 -0.470067220323 -0.136616574442 -0.452281368631 -0.155683947363 -0.111744168774 -0.131837786925 -0.0279120448285 -0.301671841575 -0.2660619533 0.371922277472 0.00880062816963 -0.0989188846984 -0.282252881705 0.0349916920037 -0.0556806176962 -0.0407907708378 -0.0210264494754 0.147107100622 -0.145934100628 0.285074715177 0.0382865209566 -0.127812607173 0.0329067578678 0.0702439482122 0.0555286682012 -0.0422383824048 -0.123133746596 0.0336815586975 0.0343361267677 0.281794092634 0.21727366692 -0.288628057049 0.0356534056736 -0.00382068289772 0.172047550456 0.105397306321 0.133127024383 0.138460610252 -0.0563841211658 -0.0220478405756 -0.0589433843641 0.113705082874 -0.386800739154 -0.111002718616 -0.0288604146298
turkey -0.324773596548 -0.0448148880626 0.250864529559 -0.295277436569 0.176046028345 -0.281477457913 0.0492808568298 -0.292435393282 -0.218905904656 -0.0875684084901 -0.352914627288 0.110076032428 -0.152154364483 0.0554069855155 0.360513713781 0.0630080129261 -0.264180432479 -0.117737844552 0.0740373674499 0.00153521816282 -0.0329005158886 -0.222334989147 0.278231828908 -0.0699502549516 0.248946020668 -0.250938424478 -0.167123846034 -0.223214881286 0.353859169246 -0.00797640263628 -0.00235486075792 -0.00131477338718 -0.211377586836 0.173779536782 0.121057493593 0.0881443211616 0.00659353874712 0.160877689307 -0.150640753984 0.276219614642 0.178513427661 0.213998605731 0.0286773355267 -0.0669587465156 0.0324107665246 -0.0989751798797 -0.200209961381 -0.0531996837803 -0.242492979491 0.248094886957
sliced -0.217308076528 0.0764566016663 0.11434886278 -0.268681771043 0.0351512617851 -0.0926246899223 0.159983995544 -0.172055513628 0.190878997879 0.0749243055643 0.0444406029743 0.0740614558054 0.00336112713894 0.164878745704 -0.0866103410351 0.00187231462504 0.0749511895766 0.109751716028 0.102434822241 -0.188520939757 -0.079536793417 -0.076003759558 0.0858006959684 0.081383692374 0.471775337041 -0.00875008688822 -4.79783888842e-05 -0.00641300786193 0.067843656252 0.323555410863 0.311333593999 -0.0856787574691 -0.26429228834 0.0678824615877 -0.00109888250962 0.0353354263632 -0.0848761543235 -0.296922798841 0.0561668944192 0.439568609809 0.0491246768711 0.0122307215641 0.0415708179965 0.183148868406 -0.137453723146 0.137970720789 0.0569560791888 -0.123514560268 0.0251775073531 0.020935292879
pasta -0.274863252908 -0.0470519277684 0.0328768038702 -0.00706821869523 0.183746571053 -0.245874707141 -0.00525606118425 -0.357451408714 -0.00903516625016 0.122448509094 -0.0882834491228 -0.0890254980371 -0.0900752038653 -0.148641946086 0.235160272287 -0.109909556237 -0.0375662278189 -0.48928858873 0.261427627519 0.00297590310455 -0.0927046748648 -0.165868851452 0.0698709821209 -0.207421857594 0.0720286185856 -0.0260802161647 -0.155610986943 -0.147539917622 0.260565356644 0.1851386678 -0.0123115080199 -0.259901749674 -0.0525836850102 0.0276416923187 0.163786168645 0.0342808784064 -0.203492712721 0.0155217096915 0.0161871834911 0.245784758691 0.212247668151 -0.118733563999 0.262537958026 -0.161794295489 -0.0214384852881 0.116433927372 -0.036914843386 -0.203323471753 -0.127006310057 -0.0489800544013
tequila -0.0311509523293 0.151907584519 0.0670485169539 -0.0995983872217 -0.0459773844297 -0.0362050553782 -0.0354496464041 -0.458837066862 -0.127724144017 -0.136843780722 -0.203611633631 0.115425994141 -0.252742373987 -0.0170750166917 0.121277771921 0.289296654485 -0.0597935149087 -0.162251461148 -0.158257373773 0.173157471995 0.220196967853 -0.0164329129613 -0.0779400202035 0.114509995759 0.211994409295 -0.217737098655 0.0707784334564 -0.0332560307734 0.210368163072 0.0539434386933 0.00207322980476 -0.143630059218 0.116749644328 0.24893686157 0.275685241133 0.139685526674 -0.218972295078 -0.101994146202 0.233045846691 0.13185803011 0.180545687814 -0.10679096103 0.112112313264 -0.0375909944985 0.0807540369548 0.126945778539 0.168354702353 -0.177065225636 -0.0756674767159 0.0373160559662
beets -0.251897280333 0.064789328295 0.0587291166081 0.0966587804395 0.28546799438 -0.22459135196 0.160197901921 -0.251215308689 0.0481191951073 -0.0682591227856 -0.370461454219 0.176532566726 0.0920754770123 0.243949528727 -0.130499959875 0.187037087631 -0.249096106796 -0.286978296447 -0.149090835607 -0.0513324250879 -0.0705530847505 -0.0791051592015 -0.0703527821533 0.131778469949 0.0942745840341 0.0237895977144 -0.301354507726 -0.283181524367 -0.0398973532137 0.0532232003881 -0.0599128082309 -0.0850393006408 0.0654182777156 0.079267593496 0.34801595982 0.181636541024 -0.219057652332 -0.0848313075315 -0.130651503684 0.153980375893 -0.0928791998532 -0.0550219160963 0.0637914663182 0.0699928440165 0.302686027051 -0.0382323082977 0.270173458589 0.0769531415888 -0.0708263510386 0.02337009892
syrup -0.161269444089 0.187952063544 0.225858153723 0.00587319287156 0.241128160556 0.0329273420412 0.0306946402483 -0.211676773975 0.0221999045664 -0.0915542928902 0.0502598901734 0.00927221905117 0.0425700583429 0.0294647028416 0.0304967893518 -0.0439344672688 -0.115978073779 -0.0768364611625 0.108913874035 -0.11433154691 -0.244011596594 0.0218330541695 -0.301954626755 0.0070733694139 0.104205627467 0.072819649892 -0.163224031002 0.090580581473 -0.137014557455 0.329959163473 0.172078485293 0.0228336996216 -0.0390443370436 0.130368635939 -0.160475313558 -0.0797115544669 -0.115158652251 -0.0903988445777 0.204629180125 -0.14726854176 -0.083098296793 -0.167583344816 0.135576846824 -0.123587852057 0.132305477122 -0.268598622454 -0.0829142685371 -0.142581970873 0.0237007156949 0.238367386084
squash 0.0115817794084 -0.0937079748654 -0.0221454498528 -0.0181889034312 -0.0547352127886 -0.286501661046 -0.205286023466 -0.420121441057 -0.150983356558 0.0774905034559 -0.183989973093 -0.0294619795027 -0.317337685658 -0.157123718281 0.432454926949 -0.217218427101 -0.00443674478081 -0.103457570586 0.056712359792 -0.159162384369 0.136995227858 -0.0164333594514 0.210430597169 0.0854283618833 0.0380458928026 -0.0196025642923 -0.0453270452064 0.217288493536 -0.205813093991 -0.0275974059823 0.114966918329 -0.0938342624442 -0.00252599037467 0.014468138093 0.201025285513 -0.0462834984415 0.0790930365949 -0.157457369542 0.195815588274 0.28506522908 0.0882558809642 0.0332416056057 -0.15849221325 0.00653057934211 0.40647988341 0.129056608006 -0.0260818204219 -0.0945438067643 -0.228042594566 0.246199904601
greens -0.145285192379 0.0234502078479 0.0968205526927 -0.30125704633 0.121575631505 -0.232431345432 -0.165772141458 -0.234378044604 -0.015831108441 0.0602456590492 -0.218006406317 0.355759314213 -0.0493121852191 -0.331428571722 0.0974948089745 -0.163181845204 -0.162223408673 -0.161346836198 -0.15478215362 0.0502699060496 -0.198714375421 -0.115107258876 -0.0422114414814 -0.0403589219594 0.141701372744 0.0188819717799 0.0781977541736 -0.239499184982 0.105024718818 0.113775651872 0.00779217418579 -0.122996553752 -0.0309645025301 -0.0440566555735 0.155815042644 0.141234053614 -0.236397444247 -0.0528426637223 0.067967426011 0.262404679921 0.00784462712159 0.0426180403521 -0.0832907633854 0.0107733542797 0.0970109281836 -0.0571922550483 0.328582989689 0.0786564685209 -0.0997793044738 -0.15579290012
soda -0.0521939836629 -0.0808606084603 0.167807991213 -0.121475324822 0.262565186583 -0.0777592924161 0.0790351628958 -0.473256393155 -0.13746795387 0.125106151716 -0.225862210649 -0.133778828822 -0.108528371254 -0.074136851367 0.182038942533 0.0201927141237 -0.225486714237 -0.11903672842 0.0423766118799 -0.0576608418959 -0.168542718625 -0.208734439343 0.127004948732 -0.134835398095 0.325653533577 0.0508740257961 0.138075166365 -0.212738712485 0.0728413819567 0.314418677908 -0.0739768862283 -0.197399209225 0.0965685464016 0.105318416881 -0.0900716891255 -0.0930174889391 -0.148698486156 -0.0371396226383 -0.0788773467432 0.213530860053 0.157053477836 0.162032222857 0.167628114873 -0.10366893793 -0.0547346169625 0.0889354595963 0.0303602194021 -0.0669763132433 -0.0578736796833 0.0942691874821
grapes -0.198007369453 -0.272387528008 0.247664853043 -0.0239225340416 0.0984362638369 -0.301463308041 0.0868292844258 -0.516530461495 0.0281836949214 0.0254865182357 -0.109418109288 0.133961543413 -0.29404978431 -0.144998458153 0.181340698632 -0.0975322292233 -0.275519024627 -0.109097688037 -0.241475402555 -0.0348131874448 -0.114829221232 -0.17971161223 0.0759118869819 -0.113125764048 0.0394122403158 0.0982827169289 -0.164146850737 -0.395706100051 0.269598418783 0.157890430683 -0.155870321577 0.0322625966437 -0.0616334340929 0.20113500663 0.209641903679 0.0823430064626 -0.205566437691 -0.142433197371 0.0330260863751 0.0520790368186 -0.108013922699 -0.148447910881 -0.00736550331116 -0.137641402334 0.134801456677 -0.222602375733 0.0288715740287 0.0243307342197 0.00948636492922 0.096795460327
baking -0.208245849115 -0.0415597400116 0.00403014269546 -0.157773016994 0.0357001821232 -0.301874582673 -0.0064141505466 -0.294113626343 -0.042340493865 0.0492736013352 -0.153273562168 0.11307478353 0.0470349050282 0.060953307715 0.0453249707786 0.0104809490331 -0.276690874844 -0.277670880722 0.155465751041 -0.0777117129474 -0.138111387052 -0.0857264066442 0.06374284173 0.0326114475402 0.243530571138 0.0199015693255 -0.105307118818 -0.19505341692 -0.0291585564737 0.149779106478 0.0707816751372 -0.0933073139054 -0.135784390371 0.0392085264651 0.18618185898 0.0132251575394 -0.285977762356 -0.0142788455509 0.0271447792894 0.308464298417 0.0527681003603 0.0390529344845 0.0728084624236 -0.0397981629941 -0.0420722696262 0.0207780437951 0.026621410972 0.0140755031514 -0.169557626686 0.214809887189
apples -0.0209622241928 0.0236708275447 0.232085316003 -0.123650410744 0.0184926922305 -0.16248897991 -0.0846137340744 -0.372247087304 -0.122981796325 0.0738501646217 0.0260581271041 -0.0183937856201 -0.0918140624655 0.14461586716 0.17472550611 0.0536198280041 0.056430106346 -0.149277606031 -0.0206377166977 -0.258422951649 0.0301178194446 -0.292530401309 0.00402534201551 0.159833934146 0.0676224980382 -0.188250994248 -0.248642636995 -0.119602844088 0.0503281348011 -0.00916451731774 0.0635001740129 -0.266999103997 -0.255374648548 -0.0655773188425 0.13778225753 0.128388758634 -0.288008318889 0.026097374178 -0.0167069294529 0.24135592952 0.146213522166 -0.0570365261292 -0.129149907234 0.0855781795629 0.0783859675132 -0.165910546574 0.0904228184941 0.0438763235754 0.143260249915 0.199387711392
egg -0.15438480478 -0.0707922614891 0.0995601960489 -0.166687898176 0.0825671364008 0.100001243402 0.0161123941063 -0.473625871392 -0.0912787047411 0.135151501661 -0.220377569007 0.0233713746978 -0.163040634607 -0.200449551703 0.237482321596 -0.0343693230509 -0.0536655099886 -0.217731972177 -0.0148230503893 -0.0994491447876 -0.166100448578 -0.0420317332883 -0.0301814642537 -0.0879538717663 0.278611605433 -0.100265874743 0.0738003080288 -0.0597032592754 0.183929729192 -0.022402914545 -0.0236796069721 -0.472520587217 -0.0362409925352 0.268388320436 -0.0617129569644 -0.0706784816447 -0.333640859917 -0.279999429855 -0.00237846618585 0.260362095567 0.251133042368 0.0114887560993 0.0521421957702 -0.0939517032329 -0.0644030830859 -0.20376599705 0.060627347892 -0.175704057492 -0.136633145713 0.0355294210254
pie -0.341895080742 0.185104468281 0.103286006193 -0.130303114705 0.107240605976 -0.0915863188531 0.0105671067135 -0.343760588757 0.0328340438823 0.0909073383728 -0.275921234599 -0.0345997160618 -0.174110896492 -0.221657560663 0.232422088124 -0.0467275763704 -0.0777135917224 0.00548928806262 -0.222405019441 -0.133850893119 -0.313866820947 -0.28158238319 -0.0388595197888 0.014169235296 0.372848626603 0.0484181012743 0.0498701221729 -0.127604949059 -0.0706317105128 -0.0460698764322 0.265888200239 -0.251361239281 -0.177400693105 -0.0159003887401 0.140038320656 -0.110951041333 -0.132309734498 -0.316836483307 0.183738465102 0.173070814832 0.184573881475 -0.0291114315042 0.0200249848755 0.0152239115304 -0.00626506267765 -0.140274288723 -0.0242273675024 -0.128343962546 0.0910933776233 0.00656155341185
hamburger -0.216633510631 0.064734405399 0.107864112067 -0.0375022944795 0.110112969376 -0.328101242051 -0.122965403037 -0.354697782328 -0.152696405195 -0.0823597647541 -0.228741316596 -0.119625626399 -0.274031511258 -0.0886456531391 0.324383319205 0.0474991170552 -0.149692667784 -0.264360968438 0.134428930216 0.0133267754048 -0.0914568072224 -0.184789278294 0.0282886341517 -0.02708601908 0.14530289429 -0.155776893773 -0.104586400774 0.104866238591 -0.106920356154 0.170889846229 0.10574795738 -0.0720497728991 0.0497774302011 -0.0228562597964 0.22958839341 0.0438803265004 -0.110788923313 -0.054065384698 0.105849728336 0.0819652559105 -0.00957070799552 0.104419383834 0.209366711551 0.019489555407 0.0563794991939 0.0560007449847 -0.00598044010028 -0.218393966857 -0.239466828841 0.0551941477836
pepper -0.113712357105 -0.0443049940983 0.0701969834095 -0.0041264352686 0.103239613969 -0.0510275231849 0.130432966161 -0.330006645813 -0.110458382366 0.14032742065 -0.107519880907 -0.0197429967561 -0.0978238344444 0.0110982307982 0.240476820948 -0.0157298615849 -0.11812461963 -0.145932762479 0.039459577285 -0.125692478085 -0.0934807835253 -0.0172568734177 0.195636703336 0.115046411554 0.197620152838 -0.0442707357898 -0.0486520150875 0.0189837871649 0.199135529421 0.198598458861 0.110132475195 -0.285879807998 -0.0825560358135 0.30542990757 0.223772251457 0.0618932481122 -0.248177032689 -0.0690568292322 0.0972331108979 0.157309411481 0.230951617025 -0.197461759361 -0.0226005729376 -0.151507232984 -0.0124148146472 -0.11177374461 0.0208829170549 0.0494837160718 -0.00252869288272 0.22564643471
nuts -0.205072695039 -0.0558022093974 0.0572697216089 -0.0206337225633 0.0303146248952 -0.200560027852 0.0124559277152 -0.289243468722 -0.281558047515 0.0884296371951 -0.342335936786 -0.0615132107031 -0.103660509777 -0.262420473338 0.146088037094 0.310283274817 -0.157426460523 -0.0853345090008 -0.00574461232161 0.0451205821292 -0.00680352491876 -0.109830337263 0.0170822290889 0.161635786817 0.20219115832 -0.0571061537896 -0.0051007563688 -0.197933231562 0.11611744644 0.0699324219857 0.043028985499 -0.101924288053 -0.172593337262 0.131530006197 0.18573693527 0.00772713195931 -0.229335848273 -0.0555656582847 0.100755856591 0.280559075327 -0.0494933977327 -0.0515466752366 -0.246327023445 -0.0799622174226 0.122799582444 -0.155364490359 0.409561406996 -0.0552839196477 -0.0911678835779 0.0469595494987
lamb -0.288211977694 0.115317254411 0.0212892164403 -0.18883289325 0.0639231951093 -0.308580999053 0.0389894090119 -0.450603665186 0.0250313864376 -0.0484099698525 -0.186233324025 0.0433145616504 -0.0964457394733 -0.00524593147241 0.255804984691 -0.0654492982005 -0.261433977753 -0.301969823095 0.186654332409 -0.107610619209 -0.317400294431 -0.0807903388676 0.347146532212 -0.177078948271 -0.0251500949642 -0.00479465151852 -0.234645263579 -0.261838575392 -0.0231033652229 -0.0453516435003 -0.0952785225402 -0.213037762554 -0.106172653347 0.0124924602879 0.231387197405 -0.0601912463268 -0.542854757969 -0.0339529415062 -0.0093857536652 -0.0350313595202 0.257966743541 -0.0501381946785 0.250564727357 -0.057199966321 -0.117825352276 -0.0506491870381 -0.0658785815043 0.0705085249169 -0.0992040706537 0.181631382959
carrot -0.138841038358 0.094649291934 -0.118949916428 -0.00779823833729 0.197419612819 -0.00640441145892 0.0663269441916 -0.187778632877 -0.285650720894 0.0583918878172 -0.194322964123 0.113500222438 -0.11044789475 -0.244968836673 0.20469827208 -0.12795119662 -0.155419934018 -0.251819920254 0.0360662084245 -0.0625679664138 -0.0125589382667 -0.132812600858 0.132736475011 0.0595333327264 -0.109395199309 -0.11153149651 -0.0506308913647 0.056850542168 -0.0544793054706 -0.00857166239186 0.0032946182643 -0.294360216302 -0.315961644686 0.250989095389 0.150341205664 0.0229757861344 -0.256114525543 0.029306049931 0.246272933469 0.149922990114 0.325458130831 -0.188552077977 0.218708395326 -0.215790410619 -0.15222337686 0.0682854739022 -0.0246959919544 0.0508735328185 -0.148900733493 0.0932158852108
shortening -0.396931954944 -0.101722011989 0.00728309053146 0.0475336177335 0.378195135025 -0.0451811509785 0.103122726666 0.00740858803442 -0.200440581386 0.036969370514 -0.185169671188 0.220101722589 0.173196206366 0.0981330315855 -0.0557102620705 0.118278711495 -0.0383498723481 0.0478080470042 0.0404651608627 0.169024853261 0.148247992857 0.0744772013509 0.0964718668279 0.199199704007 0.0826353259468 0.003562389954 0.105871346778 -0.110412607454 -0.0132737820504 0.170028644841 0.132377109389 -0.166397258198 0.146256667394 0.232094991322 0.197871918025 0.0920639330413 -0.282403250665 0.0899503249365 0.0903056499278 0.0523947407494 -0.189239406524 0.112415317583 0.0496386668799 -0.0355882558598 -0.0861229432903 0.148931169028 0.269778902947 -0.113066646103 -0.175673145748 -0.177553706514
cooked 0.17986235937 -0.144211949939 0.00275210220878 0.00216687971629 0.0788223527954 -0.166949308785 0.0841239334881 -0.224726853819 0.0487639272899 -0.199769081192 -0.0530655705216 0.147977056324 0.102944203308 0.310185718543 -0.142149319532 0.117558015135 -0.184386271905 -0.13192856623 0.151578766831 0.0655077416514 -0.120466256641 0.0573234857605 0.125363104689 0.128112413452 0.465820963141 -0.225517555072 -0.0489534256096 0.147009144883 0.166285934401 0.259299421997 0.0127241249288 -0.238267211287 -0.139039658563 0.081622832216 0.21554858499 0.194089200046 -0.109810255786 -0.1162168882 -0.0300423036555 0.0724884554366 0.0661540948217 -0.105596026858 -0.090113971305 0.0354968692087 0.0391870559348 -0.0753427530481 0.138836144498 -0.209968242818 -0.10283632689 0.23115843917
biscuits -0.0542253819535 -0.110144762823 0.169468141275 -0.079118810839 0.153325468923 -0.115010998832 0.180153099171 -0.275791203851 0.184884044462 0.0883426530155 -0.169908808579 0.0169753863986 -0.10235529783 0.0952594408388 0.0413500415011 0.0255873669056 -0.20688803688 -0.143176179578 0.113915260501 0.0344186163244 -0.0457583744054 0.0392510812782 0.0573965121557 0.0575784994176 0.112828357071 -0.1285154019 -0.197601280659 -0.00549677468498 0.214771384253 0.196877949857 0.0868889690875 -0.2633114771 -0.11424653598 0.153560619504 0.128971393668 0.144580929207 -0.290487779319 -0.338432177156 0.133596519157 0.00879295539257 0.077558875925 0.0288888047542 -0.000409288718975 0.125885075041 -0.0861333883934 -0.102341908414 0.103426978267 0.118282652335 -0.0277197715184 0.197637562563
jam -0.198364591892 -0.0859625077061 -0.21360192499 0.0376519617578 -0.0201543491001 -0.342273161989 -0.0268427334267 -0.298667727592 -0.0178419628905 0.0319905528834 -0.0460560804769 0.135264818539 -0.213497121775 0.194977424039 0.274419331342 -0.0651961732045 -0.0505841912914 -0.0209720848996 -0.0625606697141 0.0838707976506 -0.0476958034067 -0.0231720779499 -0.0319321295662 -0.047064556435 0.271117190577 0.00269243195968 0.0466144726038 -0.0118694344361 0.0375547174457 0.00324618253656 0.137460536783 -0.00527669068879 -0.297908383961 0.31553626778 -0.139343774348 0.0603281359368 -0.164671286911 0.153737593413 0.223515428379 0.00781404571258 0.275599803158 0.0531979141226 0.186679494469 -0.0192595287163 0.0954547769172 0.123019875785 -0.106856800487 -0.0723378302441 -0.0896953445735 0.0648889301517
molasses -0.251920558784 0.240786784651 0.0372185110093 0.0681158922442 0.331959713569 -0.0201867646243 0.0957321781267 -0.173106622935 0.0681349489692 -0.133341367944 0.112048940564 -0.129866109301 -0.11511820685 0.105916634879 -0.101961228411 0.147382076882 -0.0653292545529 -0.247477407804 0.219585941202 -0.0349464575899 -0.126541290432 0.0794294491027 -0.184877878218 0.00179029496976 0.162487361974 0.0643665838188 -0.202183246959 -0.0124030053496 0.136165406434 0.0318991451961 0.142690120909 -0.0694036021641 -0.0752279534744 -0.0451216073836 0.163638214783 -0.0910979483856 -0.227678273759 0.184549751981 0.0782639383792 0.0994090903453 0.117021251691 0.181304054011 0.119425385224 0.0402867789575 0.207240703111 -0.116820079775 0.078086195779 0.186399139755 -0.0693633354692 0.0733267126133
shrimp -0.170286855897 -0.0184174483769 0.0987162620077 0.0438941284606 0.187547604602 -0.112229308256 0.236520780638 -0.319889304716 -0.0820395007092 -0.024398364276 -0.32282399623 0.188481114829 -0.127821783399 0.0221164113267 0.163069156935 0.140846676051 -0.0651483061337 -0.120981690854 0.175674383684 0.0984214959829 -0.0424822707213 -0.365887866398 0.0149341160311 -0.021448750883 0.0246831237766 -0.0882867550096 -0.0258159023574 -0.134152704759 -0.0269048030969 0.140719046969 -0.0580236028301 -0.251033220025 -0.0634153855764 0.0603816314761 0.10782037376 0.0266615254424 -0.20552566029 0.0612453368516 0.117072404398 0.0579524513142 -0.0924311240863 -0.0606072482878 0.093402413773 -0.0868780478718 0.023185616522 -0.133793357493 0.0101548009155 -0.123238531201 0.0974282685706 0.0454564354812
bacon -0.203162564443 0.0335437161246 0.0206146556113 -0.0257758120104 0.358397531439 -0.228245697243 0.146175334282 -0.298569740297 -0.0411315000356 0.108139654991 -0.0443442128266 0.0726210799975 0.114819389809 0.149622596159 0.34084793069 -0.0453366438701 -0.0654906902993 -0.0672835502372 -0.000105831906575 -0.195333315041 0.0200261155539 -0.0625776282209 0.0819108021815 0.0838245004713 0.0366018199525 -0.0219145025792 0.0268652106139 -0.188551935138 0.156654666213 0.132604469041 0.101714698501 -0.202475052581 0.048547074646 0.11883400472 0.150187422878 0.00183689387545 -0.373891884679 0.0822468487729 0.171511373149 0.06988166443 -0.172720562581 0.208342033553 0.168176004505 -0.165736012253 0.0445318571743 -0.038884611307 0.0829758772862 0.136972514351 -0.171890441705 0.202269856504
ribs -0.147159964629 0.106729337606 0.193546989475 0.0148879933138 -0.0717093405452 -0.0692266733074 0.114604274591 -0.32529958731 -0.110507507179 -0.0332166767729 -0.136836700068 0.159954147658 -0.131914986326 -0.168583357693 -0.0655251364502 0.14934593763 0.125206499672 -0.103419409415 -0.134324972964 -0.0485689271586 -0.173712277974 -0.240897730149 -0.00782725301619 0.0416372384658 0.137041509165 -0.146852693853 -0.230932943236 -0.158198060447 0.115474928432 0.061444673888 -0.111877210953 -0.0784165486807 -0.192194016814 0.0423573790243 -0.0576142483107 -0.0168761526489 -0.0333270998978 -0.0386098593965 0.0164754981214 0.389750863599 -0.220442715836 0.0118193781473 -0.0306039602146 0.19082650215 0.0711406359831 -0.0895798112892 0.231924946049 -0.0146478201934 -0.098874212761 0.040696497165
ham -0.125746316556 0.138610314327 0.0352105407472 -0.225210173635 0.350224491343 0.050748090398 0.153785287564 -0.266511695808 -0.0986132123715 -0.0133455332684 -0.07641734516 -0.0753371475737 0.021737832439 0.104939168759 0.36015901129 0.0250679428393 -0.0742532049691 -0.204877130417 0.0646012892785 -0.00276236785285 -0.0495875256541 -0.184299894173 0.231357170916 0.0339152073314 0.238996505101 -0.0203730869524 0.171581697507 -0.14593395048 0.125808482504 0.0247312541681 -0.0204016677062 -0.0661756387885 -0.156377495536 0.178472903705 -0.0583169165563 0.0172942469123 -0.167314930337 -0.100908014841 0.0116685883296 0.0636808927292 0.171927521196 0.00636815305713 0.0536413487507 -0.084290071248 0.020423987617 -0.0385600426592 -0.0373941530473 -0.209493883497 0.0106395429041 0.154137461458
peanuts -0.0483600622281 0.0519903687134 0.0322213519805 -0.0748531937187 0.0636085869436 -0.0792181475774 0.253638312813 -0.150435956446 0.0866321131069 -0.0618265105387 -0.112022266568 0.0513379485042 -0.182408484511 0.110526284826 0.308927115618 0.265056401826 -0.0464387383189 -0.420835086878 -0.0112616260685 -0.161753664967 -0.118028720662 -0.17506896638 0.179484782944 0.37113578384 0.0773088424605 -0.162744156502 -0.0229719594048 -0.0312135488956 0.209630220316 0.034938656143 0.175302409978 -0.189803615659 -0.0883744695516 0.00471128770347 -0.0160437008671 0.0124320792084 -0.210380681553 0.0205176777857 0.0691523152597 0.208609229401 0.197795984635 0.0830120781407 -0.0249787141516 0.0774108163676 -0.118803735862 -0.00605392626903 0.0756730275669 0.134091759271 0.106422245482 0.279862760542
peas -0.0649661876447 0.144844997459 0.00637318242237 0.0286075286794 0.264668301632 -0.0579750089515 0.137577710127 -0.280934265495 0.143835237461 -0.193047701751 0.0900834591371 -0.117857060404 -0.0273182817508 0.19162718873 0.0644200692626 -0.0305398899618 0.00779100054743 -0.0609599839073 -0.0287777416074 0.0587136112915 -0.163521949727 -0.159943911497 0.0742167107442 -0.0547176553145 0.179948086653 -0.0291783155379 -0.0188086955721 -0.027413332083 0.179318417095 -0.0119513751016 0.00742529362859 -0.131094796459 -0.00110082062224 -0.0769773581715 0.104738145926 -0.000560842372584 -0.172850247732 -0.146560168285 -0.00146089962103 -0.073701194461 -0.0873182398435 -0.0733822190613 0.0754218989851 -0.104203756987 0.0142487145513 -0.0731479541697 -0.101521246858 0.0389402994331 0.0775456125957 0.148752131024
yeast -0.214336732059 -0.13309813865 0.321925989726 -0.137272247282 0.10294884962 -0.0984591723743 0.175316374111 -0.120373499417 0.052424010755 0.0307738648158 -0.307816001101 -0.029805918337 -0.0942701940046 0.0149093481615 0.238484041202 0.0183416667605 -0.138682898478 -0.266506554802 0.203692273183 0.11500097659 -0.104347217608 -0.0378113093932 0.00371995035792 -0.00244556048012 0.0809668724112 -0.0178749278852 -0.027783592489 -0.0164486780952 0.102541509432 0.0337956457484 0.0754010326235 -0.0241144042372 0.145199894434 0.219481087665 0.207320085074 0.103956214029 -0.24970984957 0.00563841030208 0.105243664448 0.00845864584345 0.168313776105 0.00506606637117 -0.09109016156 -0.26559731672 -0.189294625195 -0.204777874457 -0.0873330910941 -0.0545017589066 -0.0345816156502 0.225743295584
stuffing -0.11062947554 -0.0719406385173 0.0779738548431 -0.300935888888 0.0654334095295 -0.273648075281 -0.00207759029193 -0.209873787274 -0.243202200228 -0.0476313015446 -0.0970100030128 0.178070955502 -0.0106691298094 -0.180490388965 0.0263614574147 -0.0717414882298 -0.186401147677 -0.170419340189 -0.107208224956 -0.0161604172311 -0.0101074112992 0.111795735739 0.342967269303 0.130600778362 0.0380030495979 -0.106228975931 0.0318201042147 -0.0778324642686 0.228553437557 0.12043768739 0.0564230322275 -0.118323455947 -0.3136063643 0.0555112445207 0.132038119898 0.35095142345 -0.0954454521264 -0.0683446381259 -0.0707202588937 0.208509152211 -0.0659093025555 0.0267934017547 -0.119205873305 0.0499840424272 -0.104421002195 0.0632436813877 -0.132835873604 -0.15657798928 -0.169778971792 -0.0101319030341
mint -0.102872797274 0.119574949131 0.003009132032 -0.0315805462048 0.169445206038 -0.127888477646 0.0828054269495 -0.0161870914529 -0.0243715014829 0.0598417155702 -0.342679001122 -0.0552320636618 -0.0591086113794 0.0912040581755 0.240453332625 -0.0164775550241 -0.0996438437414 -0.0441086875552 -0.102797169518 -0.112892568685 -0.373550605209 -0.0700989007218 0.155093550388 -0.190602543886 0.192871636789 0.086329265379 0.00335471797762 0.0780246527201 -0.0132680413983 -0.0762653103405 0.314891491023 -0.0493076179236 -0.227631813836 0.078696161847 -0.170463633834 -0.079426823285 -0.137688083353 0.0521822207668 0.120156865373 0.24054055467 0.166478355223 0.20646762895 0.172110623996 -0.058784353659 0.362571386639 0.335051199677 -0.0153168852468 0.186650474449 0.043609706163 -0.0198674948609
sauce -0.107287147748 0.189895791876 0.17564373622 -0.038619491165 0.0293913424492 0.00486382918591 0.208792669488 -0.304435253677 0.0613150596634 -0.0462260035481 0.00973041061506 -0.135106302873 -0.105663320887 -0.00580741086272 0.159872083411 0.0118605285045 0.048421135015 -0.281977183852 -0.104813929825 -0.049047591163 -0.112625025704 -0.154686077127 0.0105241765044 -0.0657866871085 -0.089985579685 -0.106253915979 -0.115139338979 -0.21099236069 0.361846874244 0.170218122551 0.0287529103052 -0.121336875834 -0.217013541191 0.087853149265 0.0043003592308 -0.0461401718174 0.103941352874 -0.0378078527868 0.098430026233 0.174210367256 0.0366586983195 -0.124546024249 0.168276443682 -0.0335289170128 -0.142226034352 -0.12366170033 0.110217929035 -0.0598678374528 -0.018836603672 0.0331596998086
